-0.028923228,-0.022909975,0.01985492,0.06164915,-0.03030032,-0.023491055,0.15559003,-0.08152378,-0.03845177,-0.028797552,-0.024383184,0.008125197,-0.08991297,-0.089776106,-0.1271853,-0.044847727,0.0084162215,-0.0008458375,-0.041211486,-0.02387426,0.10404007,-0.059163056,-0.07636595,-0.09425773,-0.081836104,0.006850375,0.053112246,0.06551149,-0.16922407,-0.005296427,0.017788097,0.016151173,-0.111637816,0.09310816,0.062432215,-0.056419436,0.056697298,0.11729698,-0.051565655,0.08531046,-0.00799608,0.0036679206,0.07301958,0.05006298,-0.0029910014,0.06328373,0.120370865,0.016437259,0.0047975234,0.002076213,0.023226125,-0.01824344,0.03836367,-0.008474544,0.029222617,-0.046907965,0.010889822,0.17635092,0.06618384,0.012397776,0.05874262,-0.05336698,0.075344406,-0.12179463,0.04903271,0.034818083,-0.02726889,-0.225691,-0.14932932,-0.09384115,0.0075928466,-0.012495434,-0.009360767,-0.0010896821,0.069417045,0.13307193,0.1150383,0.009855457,0.08034659,-0.06488465,-0.04994438,-0.016442332,-0.065488175,-0.004694336,0.018876437,-0.039830185,0.15267831,-0.115011655,0.0035203844,-0.04742205,-0.025026027,-0.11263383,-0.05297312,-0.04049251,0.073116004,-0.05870622,0.036598027,0.026786216,0.00016789889,-0.017294507,-0.016343711,-0.025217324,0.028090138,0.04614093,-0.013211193,-0.12902091,-0.04993491,0.02200647,-0.09056585,0.019225579,-0.08541399,-0.09653153,0.106520325,0.047474574,0.0707343,0.0030609434,0.09584082,-0.056211207,0.02913715,-0.010060286,-0.01492377,0.06819041,0.07461459,0.013542592,-0.01270072,0.06371134,0.23465207,-0.065752044
0.016032534,-0.063874364,-0.04552482,0.029137779,-0.24867748,0.0023396425,0.014891139,-0.018951593,0.051948756,-0.11128174,-0.040597275,0.035792883,-0.03263634,0.11581351,0.07766411,-0.0008721553,0.02141256,0.20311995,0.0028117776,-0.032533783,-0.023648228,-0.12530692,0.08294633,-0.046758417,-0.015803484,0.088717625,-0.050460394,0.15895633,-0.09435419,-0.03702954,-0.023763534,-0.06832406,0.14706452,0.08642581,-0.017152444,-0.07132326,0.04961696,0.0027619796,0.019647073,0.003916901,0.09758317,0.17272076,-0.04366604,-0.07084024,-0.046270367,0.028390605,0.10058271,0.035027586,-0.07283364,0.12270849,0.08344484,0.010159852,-0.11752503,0.0043672323,-0.029334547,-0.0386322,-0.16252384,-0.15808444,-0.03674326,0.0033283033,0.13126917,-0.020646883,0.036745995,-0.06216478,0.04636071,-0.0056609027,0.057455964,0.1263747,-0.01217526,-0.022865312,0.09915966,-0.120321356,0.11234686,0.010340125,0.043124318,-0.019602474,0.16161615,-0.018770438,0.034810178,0.042212058,0.058909964,0.10108351,-0.027094003,0.01970865,-0.08594053,0.034728464,0.03619501,-0.05163315,-0.113428436,0.00070878555,-0.009244699,0.036730435,0.070047334,0.007000886,0.052991807,0.09657279,0.032825705,-0.02633048,0.01421134,0.0033062038,-0.047029026,0.19795749,-0.014623806,0.024247756,-0.002188893,-0.109329894,-0.15170515,-0.20222795,-0.01728099,-0.049205083,0.012858187,0.030807931,0.0014074354,-0.17834657,0.04278046,0.0035364833,0.1440897,0.07469081,0.096024714,-0.05850302,0.081914224,0.04423705,0.13401932,-0.03535051,-0.06628318,0.011585988,-0.047907423,0.1636508
0.034177307,-0.008686625,0.08509732,0.03171674,0.051407892,-0.0014389269,0.13364476,0.045051824,-0.041482735,-0.01066172,0.15952934,-0.10388534,-0.016426658,-0.037466988,-0.008077183,0.020771362,-0.098588355,-0.0059461887,-0.02108082,-0.10481059,-0.017516328,0.039471384,-0.04809041,-0.004889399,0.10259017,-0.0933334,-0.04558735,0.0147357965,-0.061579287,-0.16704117,-0.06757365,0.014845975,0.03706457,-0.09606407,0.0061416826,-0.13252318,-0.107217334,0.013329894,-0.17549022,-0.082679346,0.093935974,-0.084381066,-0.04413938,-0.022464817,-0.007908576,-0.01145856,-0.1375887,-0.02573924,0.026818201,-0.011031101,-0.046857424,0.0119044315,-0.12111759,0.18387917,0.27798587,-0.03835307,0.12106887,0.042535752,0.051989347,0.015564939,-0.13703343,-0.08960721,-0.053962246,-0.19743006,0.020010527,0.08614858,0.0101470845,0.05240714,0.019988336,0.0026931348,0.02085925,0.010753472,-0.04796715,0.008355354,0.060297195,0.011963883,0.05664707,0.10527394,0.042878777,0.071175784,-0.03801718,0.11429514,-0.04113539,0.084799156,-0.10995341,0.11495502,0.16882399,-0.034958433,-0.15638109,0.12641454,0.034490094,0.10848079,0.0046938243,0.110423654,-0.017216844,-0.03671513,-0.06403602,-0.12294959,0.09970489,0.021569723,-0.034839675,-0.0030080655,-0.039363224,0.09009387,0.042278316,0.08063198,0.05481933,-0.011414753,-0.111976,0.16133736,-0.03787562,0.042737536,0.09345985,-0.0060250633,-0.03846811,-0.034147914,-0.007758416,-0.11892365,-0.028965553,0.073204905,0.029545078,-0.052548435,-0.024331981,-0.054303724,-0.015602655,0.035626397,0.14206584,0.034441985
0.018288966,0.065273345,0.18787971,0.03772873,-0.040835503,-0.07232268,0.1446215,0.08403865,0.072072744,-0.08395098,0.019629128,0.061323076,-0.034172725,-0.048059177,0.05676856,0.0077237813,0.08771974,-0.07328823,0.15627678,-0.038499247,0.060594328,-0.1285831,0.17164357,0.045787595,-0.04004789,0.07061897,0.009619759,0.043468785,0.0004080312,-0.2364355,-0.020319467,0.010311018,-0.17179829,0.059421696,0.11301025,-0.10486765,0.099557124,-0.009884158,-0.0034801597,-0.083655395,0.12003401,0.0101366425,0.0014425516,-0.008941689,-0.08881199,0.0024051748,0.01524336,-0.08419216,-0.02539345,-0.06417442,-0.012709317,-0.06113868,0.06915797,0.009342338,-0.12521182,0.07142198,-0.026433263,0.050425384,0.023869375,0.024441281,-0.02176985,-0.04334028,0.034192182,-0.011036127,-0.045040328,-0.007928121,-0.07533087,-0.07357701,0.26388195,-0.06573983,-0.078978404,0.06552315,0.08481088,-0.112019174,0.02773448,-0.046428878,-0.011046263,-0.025284473,0.00980551,-0.04729842,0.18435909,-0.001844271,0.10490979,-0.030113164,0.039122593,-0.05467907,0.035109363,0.0534569,0.072017804,-0.10239183,0.007828622,0.111032166,0.030489335,-0.033109274,-0.063677736,-0.06622166,-0.1533925,0.007619264,-0.05013139,-0.020127116,0.001979383,0.042910583,0.11778869,-0.014274209,-0.05433556,0.04465259,0.06807745,0.027689237,-0.03794367,0.07049271,-0.05519252,-0.016877035,-0.06758429,-0.13283958,-0.09615398,0.036044285,-0.00341374,0.027511418,0.041800596,-0.06551711,0.08612795,0.024630696,0.01616586,-0.0623577,-0.016398113,-0.027846783,-0.026751677,-0.11555817
-0.00824746,-0.05716977,-0.02415881,-0.036372636,-0.085199274,0.027643383,-0.077204995,0.020895315,-0.04221644,-0.09195411,0.006962802,-0.045423087,-0.0052548493,-0.04165991,-0.096860565,-0.055206317,-0.09557187,0.02329305,0.05952854,-0.0378756,-0.14476483,-0.17464325,0.076467894,-0.008959289,0.044248216,-0.049055867,0.02883418,-0.028755011,0.18459316,0.09434554,0.07103757,-0.03177465,0.099822015,0.037402984,0.03262763,0.17502627,-0.08405135,0.056761872,-0.100324616,0.043462716,0.11906737,0.069865525,0.021182986,0.095807046,-0.037754487,-0.0035069191,-0.051341932,-0.04309102,-0.0534901,-0.024814827,-0.076149024,-0.06247459,0.18047707,0.07338874,0.051677573,-0.07776467,-0.011845899,-0.0056426083,0.05282066,0.0582713,0.03296647,0.03990432,-0.08272904,-0.07691151,-0.0036452166,0.026681216,-0.16335475,-0.012768623,-0.04433337,0.11584171,-0.038271975,0.00067532685,0.0031766712,0.05034455,0.1921155,-0.076222114,-0.094983764,0.011517847,0.1628981,0.06780253,0.15314908,-0.059367932,-0.10090904,0.05505522,0.06257249,0.02850871,0.040230576,-0.011035362,0.07515055,0.15267871,0.004371484,-0.068266034,0.07920619,0.04822414,-0.0649234,-0.035554424,-0.012904737,0.08709611,-0.07342753,0.060999803,0.022247845,-0.07503028,-0.07930106,0.1351615,-0.037030097,-0.10581381,-0.14966841,-0.023606336,0.10398204,-0.04969555,-0.036255755,0.009312255,0.06504664,-0.0818101,0.06499605,0.07053434,0.021664565,0.04970734,0.026342856,0.060156595,0.011652797,-0.059422735,-0.07404454,-0.043272976,-0.03442877,-0.097787306,0.008499786,-0.1318362
0.05471828,-0.016636357,0.15839039,0.04687041,-0.021892708,-0.08035296,-0.017420754,0.18696035,-0.014522545,-0.07590713,-0.036681946,0.12352481,0.0781193,0.05662878,0.06892927,-0.051374152,0.033991694,-0.11109133,0.11718792,-0.045443743,-0.040034488,-0.08861731,-0.07019057,-0.06656198,0.08799638,-0.11626904,-0.16095494,-0.05177088,-0.08851576,0.04343332,0.084645264,0.062107958,0.16299902,-0.047291208,0.06433432,-0.038409058,-0.06910301,0.048415437,0.01114818,-0.05241249,-0.029291049,0.0035025596,-0.05345849,-0.028734691,-0.04493885,-0.080852315,0.08461521,-0.07193073,0.12091766,0.11049246,-0.04166903,0.2014672,-0.037854474,0.07340792,-0.008145104,0.055756256,-0.0064758016,-0.021738831,-0.024101494,0.043157633,0.07481151,-0.020456705,-0.045544732,-0.07273103,0.0032407052,0.068377964,0.016033316,-0.02386974,-0.03992875,-0.08537891,-0.21564636,0.061354443,-0.112528324,-0.010712513,0.07809196,0.13612166,-0.27557927,-0.08286043,0.10691943,-0.0556328,-0.049931798,-0.06480956,-0.0957249,-0.08287724,-0.086325794,-0.04620209,0.106407255,0.046917822,0.023401394,-0.08582194,0.07215332,0.056571677,0.024117297,-0.06697068,0.15285178,-0.052258942,0.08574453,0.040182643,0.04775033,-0.020958573,-0.038667347,-0.026391726,0.06838284,0.014139365,0.082917966,-0.10321197,-0.014260151,0.012586298,0.027315188,-0.078010224,0.090220734,-0.021497548,0.04115445,0.013833016,-0.04894628,-0.045794297,-0.14325638,0.16370773,-0.092717245,0.060064316,-0.13248692,0.1645596,-0.08013809,0.023743013,0.0825202,-0.059533067,-0.0016905018,0.053703167
0.031794507,0.115846686,-0.027588889,0.030307725,-0.034885626,-0.074912705,-0.112203896,0.031395253,0.055669513,0.062266503,0.06952732,-0.07404889,0.10411305,0.14230317,0.05227583,0.15330763,-0.007222724,0.102226056,0.014476152,-0.038490318,-0.08796345,-0.15546136,-0.1985395,0.024531068,0.011653687,0.069513075,-0.053410888,0.05624848,-0.07685143,-0.00182328,-0.12910011,-0.06082554,-0.095361605,-0.016327487,0.02346026,0.14026363,-0.068933,-0.047801994,-0.030552328,0.071500316,0.08447358,-0.1245177,0.07583806,0.020813245,-0.00039944015,0.080722526,-0.05707655,0.11826083,0.07236558,-0.0008193653,0.14293279,0.055611115,-0.016099622,0.09805849,0.035040513,0.029581215,0.025436558,-0.07910959,0.039957695,0.056201197,-0.043148678,0.03057205,-0.029551372,0.117626116,0.050529588,0.05196958,-0.04949813,-0.098025665,0.044666886,-0.06098023,0.08481417,-0.01265857,-0.0045881723,-0.038647138,-0.018367846,-0.03068988,0.02422099,0.118850276,0.15431248,-0.043545324,0.096492335,0.01899131,-0.048384495,-0.020861208,-0.03734425,-0.019357601,0.07294823,-0.13117631,-0.029351935,-0.14757292,-0.03477195,-0.04636752,-0.07948586,-0.056147516,0.035754025,-0.0501417,0.06786634,-0.037054744,0.017179184,0.06936043,-0.00019449306,-0.11543167,-0.03767476,-0.15420102,-0.031079022,-0.053599417,0.015669582,-0.00559037,0.028175412,-0.02877291,-0.005099083,0.06841002,-0.1450171,-0.015056443,-0.013727941,-0.010163606,-0.07322384,-0.048713204,0.053026516,-0.00017348253,-0.1319817,-0.04041279,0.10452817,-0.018537361,-0.17719422,-0.098546855,0.06189887,-0.07832134
-0.07263625,0.026124753,0.0046034493,-0.03712399,0.025200715,0.03945693,0.021676239,-0.055477265,-0.083135396,-0.0026030748,0.0062484993,-0.014240094,-0.073889375,0.0014563238,0.005731114,-0.060608495,0.0825546,0.08245641,-0.0440364,0.054981165,-0.19096719,0.10242406,-0.14440194,0.038224194,0.039130654,-0.1082813,0.037837207,-0.00084930134,0.010325264,-0.06745854,0.08366553,0.042251818,0.015525776,0.1275584,0.035999037,-0.122219674,0.046288215,0.026863363,-0.045632742,0.07913652,-0.032305267,-0.07588753,0.007980177,-0.09118389,-0.111774646,0.030927712,0.00042063295,-0.0684833,-0.027909517,0.08375928,-0.0014001295,-0.07993552,-0.062145732,-0.024763891,0.039849054,0.116901964,0.0005508323,0.004471293,0.053171705,0.0025761004,0.03225218,0.024019992,0.083971225,-0.08828903,-0.042025454,0.020285929,0.097628884,-0.052553106,0.031794302,0.18114641,0.07945825,-0.19460733,0.012431958,-0.08182386,0.086673826,0.04780617,-0.019983709,-0.09934771,0.19330306,0.03152704,0.011787653,-0.041936964,-0.012697092,-0.019365724,0.025335,-0.013280594,-0.0096834265,-0.099369615,-0.055446938,0.07793148,0.04269869,0.07565552,-0.032439116,-0.0130204065,-0.08608347,-0.04460432,-0.21607116,-0.04966106,0.02438147,0.07923869,-0.028612422,-0.11031743,-0.046591695,0.048368447,0.00037370392,-0.10197819,0.006227404,0.10653897,-0.006491885,0.008579066,0.03754898,0.018392641,-0.006007778,0.10969718,0.080008075,-0.019209743,-0.041287523,0.098331355,-0.088658094,-0.12049176,0.0011458156,-0.024125068,0.00034783667,0.0042581675,-0.044132363,0.050302263,-0.13637944,-0.16779734
-0.07994951,-0.01589756,-0.28938478,0.05459082,0.045401663,-0.011064472,-0.11367974,0.16133599,0.02566725,0.13603893,0.06887801,0.026208019,0.08265424,-0.046038397,-0.026369706,-0.16784686,0.052085336,0.017985467,0.010501189,-0.009556074,-0.028977485,-0.09817835,-0.07554608,-0.061399713,-0.0020909035,0.10104868,0.05700024,0.02243028,-0.038765557,0.09567323,0.04501006,0.013219756,0.03341742,0.06366277,-0.03495714,-0.09948945,-0.15161027,0.028131573,-0.021231173,-0.0514826,-0.07304658,-0.0190216,-0.0014414885,0.005044322,-0.08324773,-0.06136936,0.009358485,0.022305483,-0.085364446,-0.0013214125,0.015473661,-0.20312618,-0.08033871,-0.032434024,0.04442944,0.04340651,0.16934934,0.037336133,0.0788124,-0.072865725,-0.0334501,0.0021864714,-0.014230731,0.1984976,-0.013963769,-0.050208796,0.06882924,0.018867496,-0.027766438,0.040030684,0.16581728,0.1226631,-0.13591152,-0.008138351,-0.088492826,-0.025469093,0.02937517,-0.047591463,-0.0041664583,-0.019252209,0.036107447,-0.061680697,0.12364413,-0.09675035,-0.0588472,-0.07673959,0.08985482,-0.012373865,0.08094538,-0.02843473,-0.043459356,-0.046224304,-0.03980905,-0.022929987,-0.02079301,-0.020198261,0.014945702,0.09174473,-0.012873657,0.04682213,-0.04626165,0.01898519,-0.06449311,0.026988406,-0.06916225,0.10666663,0.026052643,-0.038783785,-0.012766744,0.06626657,0.034312584,0.092229575,-0.12535329,0.021819016,0.070063666,-0.05224123,0.10128273,0.091086745,0.0639191,-0.05003128,0.001477222,-0.048699304,-0.058815315,0.06034754,-0.040500086,0.102325454,0.027943298,-0.015592071
-0.002710028,-0.02917213,-0.054387644,0.06545863,0.17416207,0.061907858,-0.17782652,0.02782274,0.06278221,-0.042769983,0.027767334,0.028798763,-0.041062936,0.039040007,-0.011721628,0.0063643046,0.07399889,-0.16505454,0.061826855,0.040080678,-0.077202655,0.10599004,0.008024004,-0.07369215,0.025642466,0.12319899,0.02115262,0.010072453,-0.06953786,-0.09629191,0.11966653,-0.07689876,-0.039935,0.005426366,-0.009020253,0.00047760474,-0.11852848,-0.17245077,0.039933436,-0.1808455,-0.021299504,-0.058427103,-0.097872935,0.09829164,-0.029733595,-0.009000905,0.047735527,0.052342948,-0.03942055,0.051601134,0.04397096,0.1442894,0.074533485,0.014579157,0.14334144,-0.147708,-0.032203406,-0.110656686,-0.043204382,-0.030914435,0.068131834,-0.059848208,0.08902575,0.050054535,-0.018650245,-0.0007750782,0.045405,0.018259512,0.06685369,0.124444984,-0.06716856,-0.042044636,0.09888869,0.0022673586,-0.08376501,0.0025441071,0.03167523,0.07272837,-0.13230424,-0.12522875,0.086714506,0.049685244,-0.058162317,0.009594863,-0.027835023,-0.0040332987,0.03222496,-0.035945497,-0.014435996,-0.11385872,-0.03835082,-0.006132901,0.09301272,-0.028144848,-0.0006804682,-0.081173964,-0.07986358,-0.014123585,-0.022223461,-0.075926624,-0.02554422,0.1666635,0.0034993233,0.035031416,0.105065376,-0.08286804,-0.015860965,0.13545556,-0.046456065,0.04747516,-0.012209398,-0.08104371,0.13266489,-0.037386168,0.010181981,0.20040448,0.048598073,0.09278036,0.1043267,0.0092643425,0.08786787,0.119865686,-0.058934975,0.016928358,-0.09876925,-0.0213117,0.058330502,-0.041346002
0.08348252,-0.0034998432,0.026734252,0.06886827,0.04069684,-0.00717712,0.09955185,0.043096878,-0.002121723,-0.0320667,0.009803569,-0.07862325,0.026041102,-0.03330701,-0.05539385,0.0034849024,0.123850666,0.023886027,-0.11420738,-0.033825688,0.05158243,-0.03330746,-0.039158944,0.056850158,0.05985622,-0.24202469,0.0577217,-0.10636871,-0.010716811,0.116328314,-0.10574551,-0.052021064,0.0469256,0.05428512,-0.05315178,-0.032766897,-0.1148537,-0.012214044,-0.033612948,-0.20763496,0.02273943,-0.020082014,0.041645363,-0.039677806,0.04781468,-0.024479631,-0.12133155,-0.052828502,0.12581961,0.027333627,0.13381724,-0.028572349,-0.035219982,0.051552948,0.0525323,0.0119226435,-0.06724613,-0.012537923,0.10357503,-0.1641361,0.010637396,0.023128675,-0.017920012,-0.12612188,0.008510319,0.061581586,0.08776741,0.005189072,0.041348457,-0.13466652,0.1269395,-0.087823294,0.19790608,0.01625028,-0.05207805,-0.13408376,-0.061019138,-0.00073793856,0.05334011,-0.018924857,-0.08563948,-0.11252876,-0.06410669,-0.14169301,0.048694905,-0.09657595,0.08842834,0.04825069,-0.06089275,-0.012638927,-0.016107067,-0.08233373,0.049159504,-0.07070843,-0.14463715,-0.005914972,-0.030216275,0.031252805,-0.12051184,0.0036664032,-0.011143638,-0.010312525,-0.11679616,-0.03138147,0.06147354,0.09626268,-0.03360982,0.14508966,0.004384604,0.032757044,-0.06708058,0.08221875,0.11858842,-0.0604632,-0.034867384,0.015647732,-0.050469335,0.1010899,0.058902476,-0.021175893,-0.08468491,0.2600499,-0.024581518,-0.016348658,0.074726254,0.013351562,0.049684,-0.003651619
-0.061214477,-0.07399714,-0.01978949,-0.006224108,0.085166015,-0.022312948,-0.22307408,0.115103066,0.025695283,-0.05062951,0.061524693,0.019241575,0.037641793,-0.10020386,-0.1812082,-0.0022683702,0.10260367,0.12913373,-0.0073867515,0.010125827,0.042633798,0.030708918,0.13011143,0.010765689,-0.062058,-0.15596399,-0.052688904,0.00044645622,0.01850409,-0.24628922,0.06083942,-0.06315094,0.07758358,-0.051777106,0.056395356,0.18032242,-0.05431339,0.043629393,-0.03876505,-0.06157549,-0.004455419,-0.014054652,0.02755602,0.10957547,0.05707742,0.0030143042,-0.13816915,0.06078918,0.07523555,-0.027611304,-0.045071837,0.04282647,-0.059646018,0.0114537915,-0.02227193,-0.07236026,0.23342484,0.0037805752,-0.0655925,-0.010845116,0.14036308,0.103617124,-0.051813673,0.08186056,0.18286909,0.03490475,-0.03407263,0.0077705486,-0.009420837,-0.07174545,-0.16586858,0.05729707,0.04754102,-0.094860345,0.063588716,0.037901614,0.17512785,-0.14478573,-0.09747712,-0.02547103,-0.060959633,0.0047787116,0.012061747,0.14926825,-0.010188964,0.045393962,-0.004045077,-0.031548426,-0.01026405,-0.1026231,0.06203289,0.002062079,-0.32280555,-0.14721437,0.019879485,-0.022685282,0.10391006,-0.046891265,0.06349136,0.03906737,-0.027824923,0.06800754,-0.055333868,0.14931276,-0.105619974,0.061487395,-0.05040616,0.011473765,-0.09313153,0.006588118,0.017802281,0.015317444,-0.09697938,0.0045385514,-0.08013881,0.05569631,-0.05819646,0.08985835,-0.08379616,0.115122505,-0.062109504,-0.033630453,0.03506556,0.018144106,-0.100406006,0.1472852,-0.06781244,-0.037214525
-0.01256728,0.15594524,0.015560188,-0.028729744,0.040465984,-0.07659197,0.16118762,0.03711217,-0.14982837,0.02163659,0.008350649,0.009852506,0.05239564,-0.06528313,-0.021768514,-0.13991286,-0.059914578,-0.07304627,-0.04119234,0.092499554,0.07388058,0.0439619,-0.031217618,0.026051644,0.07313421,0.107290365,-0.03817039,-0.007748222,0.13765052,-0.044647202,0.088917606,-0.055776555,0.059306342,-0.13318327,0.096421815,-0.040432487,-0.10149493,-0.07597462,-0.025920637,-0.007969179,0.11244577,-0.07470445,-0.042681985,-0.11317174,-0.04802442,0.049470954,-0.13921934,0.046223808,-0.014561757,0.0635391,0.023041045,0.0024116375,-0.082322925,0.0450182,0.14243273,0.07730296,-0.12814258,0.03525864,0.009367322,0.05502999,0.05290156,-0.018515425,-0.12077622,0.034758713,-0.049900576,0.007333539,-0.2092798,0.04693194,-0.046704262,-0.10436887,-0.08520618,-0.093170635,0.0579005,-0.03271382,-0.119275495,0.092750184,-0.064608,0.08754766,-0.022206744,0.030297635,-0.0540237,-0.0040687504,0.05732684,0.0060025263,-0.0048675844,0.021440774,0.14378516,-0.017056469,0.06718684,0.028021984,0.042641416,-0.011559506,0.03177037,0.17059699,-0.0136186555,-0.046462014,-0.057648126,0.1330927,-0.0034089887,0.10861737,0.061027426,0.14104941,-0.038956504,0.04159708,-0.03960441,-0.09460377,-0.045878276,-0.0941382,0.059066933,0.05973,-0.07747644,0.052797787,-0.14947155,0.102608845,-0.06983362,0.12973098,0.032881044,-0.06140725,0.010588487,0.04827903,-0.052940913,-0.09452099,0.05624182,0.042123478,-0.044423696,0.010472227,0.03338733,0.10313002
0.0057001086,0.048981287,0.017549613,-0.040079176,0.03640912,0.011687878,0.13306493,-0.079450205,-0.0649095,0.037137788,0.1113054,-0.022310223,-0.01883687,-0.024569694,-0.0075319773,0.02140857,-0.14225796,0.026946697,0.05862889,-0.021461284,-0.07568457,-0.12680906,0.010214539,-0.020747654,-0.08213002,0.22269921,-0.049742788,-0.20715915,0.027152717,-0.055070773,-0.009304554,0.028123142,0.054099694,0.16085869,-0.10699678,0.16671076,0.16552646,0.0045578294,0.07456767,0.123824835,-0.029811308,0.050072305,-0.07297434,-0.051565126,-0.020246763,-0.0027257907,0.028468594,0.004731809,0.04029858,-0.020610861,0.06529015,-0.03389204,-0.09734295,0.07795515,0.0023268196,0.032326028,-0.030970102,0.00904928,0.02772885,-0.036543705,0.024342608,-0.018923255,-0.049761873,0.029455386,0.0107153915,0.2209786,0.0649017,-0.116379514,-0.07354846,-0.09114166,-0.054693572,0.024343204,0.006569018,-0.0025909161,-0.082461715,0.072286725,-0.020303154,0.08271517,0.03451385,-0.0039576665,0.062429585,-0.028700931,0.010577731,0.09277457,-0.14410283,0.07734194,-0.14107737,0.023080384,-0.0050269864,0.01601376,-0.06744639,-0.048375957,-0.09332365,0.011135939,-0.02587168,-0.059019,0.023982322,0.0080799805,-0.13516183,-0.048218526,-0.0423442,-0.10345024,0.013274996,-0.048930127,0.017137954,0.24206455,-0.112453826,0.13709468,-0.07437477,0.039341927,0.035830095,0.0023034671,0.014696478,-0.05284903,0.12828298,0.052176476,-0.0140095595,0.11816516,0.10045255,0.011612024,0.026726639,0.087080516,-0.06619349,0.10421213,0.08802678,-0.029980516,-0.021467088,-0.007958522
-0.07476068,0.038218055,-0.075584814,-0.008219977,0.02658413,-0.025429027,0.034151148,-0.05560807,0.07550015,0.027077489,-0.09476323,-0.053338774,-0.024880348,0.06090313,0.020551516,-0.10928815,-0.010573354,-0.028072175,0.14758149,0.08878272,-0.009436644,-0.009799172,0.07694361,-0.050484605,0.041088965,-0.003319257,-0.10258129,-0.21162811,0.07341611,0.11167178,-0.05003172,0.044336524,0.18513413,0.013888453,-0.030399699,-0.038152814,0.0023010853,0.026608579,0.07312104,0.12174681,0.14775893,0.11661957,0.053634994,-0.013355329,0.12055074,-0.07359482,-0.11249825,0.19820066,-0.14097935,0.020082053,0.12162131,0.010709058,0.08162714,0.023233743,0.036008593,0.003473134,-0.098280616,-0.03528526,0.027758632,-0.11014476,0.023260776,0.05094621,0.16455778,-0.04922032,-0.05222404,0.018305706,0.0023663198,-0.06859293,-0.079402484,-0.036207035,0.07540865,0.0027020026,0.13981046,-0.030015856,-0.07445942,-0.019330679,0.037456706,-0.19778351,0.026791137,-0.031288844,0.10238238,0.011498112,-0.013450063,0.034951493,0.053733647,0.040820137,-0.021679819,-0.047685184,0.05505378,-0.009252027,-0.05318703,0.07414013,-0.07931423,-0.03982708,-0.1284094,-0.14487217,-0.19007446,-0.10387803,0.14880319,0.049109124,-0.0018622002,-0.07181909,0.104754046,-0.032561198,0.03900665,0.02618397,-0.062243965,-0.050886683,0.03227489,0.08018818,0.037351537,-0.040012952,-0.035002127,-0.11383375,0.08930418,-0.06430421,0.034446392,-0.063274555,-0.04969755,-0.03263131,-0.12868398,-0.30125746,-0.04001492,0.033906985,0.0019693822,0.07270405,0.10949245,-0.06421245
0.020020457,0.0886079,-0.059196245,0.0099121425,0.093910955,-0.13333581,0.021367071,-0.082303405,0.06209551,0.049383637,0.046770457,0.014542759,-0.1483901,0.06441914,-0.11206801,-0.0038738623,0.1771383,-0.013396414,-0.12990582,-0.13226625,0.05663255,-0.033308532,-0.0059179803,-0.12530522,0.031150986,-0.0105918115,0.079192616,-0.0120421555,-0.023085201,0.024455661,-0.02742491,0.10000909,0.08427754,0.060998075,-0.0023235884,-0.06996472,-0.01921049,-0.061830815,-0.00730722,-0.068961255,0.05279851,-0.04701628,0.080975704,0.14663947,-0.113849364,-0.00471821,0.027289594,-0.03448368,0.058935344,-0.06233354,-0.06344647,0.10583269,-0.047570128,-0.010763619,0.089472435,-0.014655345,-0.087875485,-0.11411913,-0.08746604,-0.08387425,0.14299522,0.06771892,-0.022715945,-0.03017769,-0.09354594,-0.04728315,0.16038272,0.017725648,-0.032836698,0.13156216,0.03567288,0.04747823,-0.12575194,-0.065195076,0.066063374,0.049666706,-0.029733444,0.09288217,-0.041546814,-0.074456505,-0.015781378,0.07417861,0.0026988774,-0.07790541,0.046599995,-0.07422701,0.041730538,3.872143e-05,-0.060031563,0.0022959376,0.0006376674,0.013083092,0.019661741,0.025379727,-0.13460451,0.085214294,0.07781693,0.006491384,0.10085412,-0.052150242,0.008091448,0.13318038,0.026495144,-0.01929303,0.020543998,0.042481598,-0.109408826,0.122702904,-0.086676404,-0.09178757,0.005255051,0.034461156,-0.053405024,-0.056358177,0.02569763,-0.006483464,0.05935573,0.036378946,0.007021873,0.08436447,-0.019970365,0.07864467,-0.035273056,0.014047077,0.04909604,0.015463824,0.03631874,0.05012816
0.06667008,-0.026347348,-0.063485615,-0.019920655,0.070812866,-0.22364846,0.17282902,-0.106859274,0.009733769,0.07981114,-0.064636394,-0.04060802,0.12298435,-0.0086424695,-0.024170332,-0.03644769,0.06275393,0.03569637,-0.037560303,0.18902615,-0.17688413,-0.22364101,0.006526301,-0.09133652,-0.044459824,-0.028133135,-0.04990376,0.15444927,0.016950388,0.013829093,0.030659374,-0.002363415,0.06094387,0.052299287,0.07395426,-0.045115884,-0.011606964,0.12585112,-0.10303688,-0.1581677,0.1025777,-0.0754295,0.0010748585,0.05146036,0.047538158,0.012334346,-0.057707228,-0.04026399,0.059911918,-0.03366787,-0.07817722,-0.007456741,-0.012744497,0.06163559,-0.28149113,-0.030821906,0.031378634,-0.016302543,-0.017872233,0.0035184387,-0.037457474,-0.043763023,-0.044279978,0.051887926,-0.0006170129,-0.029492317,0.072009,-0.07535206,0.054019045,0.08663133,-0.15510142,-0.048611697,-0.008693337,-0.0644757,-0.086580165,0.07017066,0.010767786,-0.026192114,-0.016076164,0.09098512,0.14423318,0.059652317,-0.0942509,0.06319502,0.051012363,0.05004862,-0.036061008,0.06691856,-0.025410313,-0.0042822943,0.04404413,-0.068630144,0.13335639,0.009577843,-0.035289377,-0.0029989053,0.122999206,-0.11861674,0.05218519,0.08538588,-0.086200014,0.05983129,0.023179077,-0.025994819,0.002201497,0.07558414,0.09785853,0.01370286,-0.01555046,0.00056060374,0.1442927,-0.029434599,-0.08762457,0.09333808,0.096023306,0.012791792,0.09689283,0.111492656,-0.0064218403,-0.03516946,0.11351338,-0.1483754,-0.1209845,-0.01356999,0.07469972,0.029590882,0.024226064,0.014645215
0.038313396,-0.030736966,-0.005262655,-0.10201285,-0.043801446,0.22217928,-0.045736834,0.18582708,-0.07161375,0.16372147,0.016355183,-0.050864305,-0.05251736,-0.06825048,-0.02556936,-0.017648857,0.021927359,-0.027547223,-0.07239176,0.12374519,-0.09610324,-0.019638846,-0.044373296,-0.0010069783,-0.02121658,0.05409203,0.039621983,0.09114746,-0.055820607,0.1324726,0.032514777,-0.016435836,-0.17264977,0.054309644,-0.045545664,0.033862337,0.052371453,-0.050365508,-0.04258012,0.034085322,-0.06209667,0.121177405,0.114821546,-0.061655518,0.02602524,-0.10168084,0.09408005,0.062724434,0.06430511,0.115222454,0.09935196,-0.16023114,-0.02771173,0.07708686,0.006063665,-0.066942446,0.05613133,-0.008928735,-0.029639563,0.12518863,-0.0999138,-0.059507925,-0.01717726,-0.09985303,-0.058772504,0.11724304,-0.08709356,0.106740534,0.02496648,-0.11520256,-0.09563773,-0.011120752,-0.025200859,-0.026472287,0.027653618,-0.071085244,-0.2045859,-0.026547784,-0.100020945,-0.025298858,-0.03856875,0.017507177,0.094566695,-0.12743522,0.04661082,-0.021051569,-0.31409866,-0.012958154,-0.110250264,-0.13369755,-0.054566875,0.06889925,0.049911004,-0.06859624,0.09112241,-0.0647916,-0.036523145,-0.053748194,0.042954594,-0.015139102,-0.0691515,0.1271616,0.0063347667,-0.056675676,-0.0471486,0.07171172,-0.19235921,-0.030160496,-0.17551416,0.16105242,-0.08717693,0.12387305,-0.109369166,-0.06953905,0.124042526,0.06712002,-0.014689386,-0.015220645,0.021384355,0.09202406,0.10977449,0.13298337,-0.089267924,-0.059243787,0.10546065,0.12585978,0.074542634,0.02066145
-0.09899966,-0.037215006,-0.019646173,-0.06329471,0.040335767,0.026219273,-0.011559512,-0.06534424,0.04482389,0.08162232,0.1265071,-0.04098528,-0.024732262,-0.12399798,-0.038894076,0.048064798,-0.003817001,-0.010241469,-0.001692717,-0.010269572,-0.12784907,0.021076025,0.09126543,0.045909874,0.0008044085,0.075856775,0.041983623,0.10239425,0.10699506,0.07723441,-0.07155114,0.017600875,0.14533351,-0.08742489,-0.024396745,0.004623805,-0.021482436,-0.115612745,-0.052744508,0.07622546,0.04640672,-0.032998454,0.032856904,0.028225454,0.09316357,-0.11575477,0.031790756,-0.052069858,-0.003507248,0.0015800492,-0.033721004,0.023668436,-0.035126314,-0.048490185,0.118174374,-0.078145415,-0.10390721,-0.027787164,0.022606244,0.0861549,0.046609767,0.13748221,0.008423133,-0.0040264023,0.18595053,0.059821993,-0.0667592,-0.029729348,0.0144540975,0.029717559,-0.030850621,0.08755951,-0.020713575,0.05321055,-0.025521196,-0.028226247,-0.073625855,-0.076222084,-0.035873756,-0.042299952,-0.16858757,-0.042770997,-0.07764998,0.0037174113,0.0651433,0.097039714,0.19895694,0.07281093,-0.03181515,-0.0075514633,0.028545018,0.051694553,0.10396347,-0.04998523,0.07040551,0.027731633,-0.1202307,0.07062596,-0.025063885,0.028195238,-0.012380675,0.16907027,-0.09168542,-0.11098263,-0.0048416397,0.06376472,0.1740817,0.033574663,0.040790234,-0.033971284,-0.10042271,-0.036794636,-0.016053589,0.026528096,-0.006381791,-0.1347555,0.05654213,0.023214186,-0.1520415,-0.10430881,0.10046519,0.015960263,0.028361397,-0.02631269,0.023039771,-0.062527634,-0.09718305,-0.016913572
-0.06904179,-0.038813423,-0.1829514,0.0047515454,0.04055836,0.0042409087,-0.11417168,-0.14956334,0.0039011475,-0.057814013,-0.037815493,0.02883142,-0.09047136,-0.025921224,-0.053635634,0.12634881,0.04042266,0.11312835,0.052603263,-0.004680827,-0.043542814,-0.01660503,0.114817955,-0.015371943,-0.009790653,0.020294702,0.030243315,0.053663585,-0.020807408,-0.0480329,-0.00015302148,-0.19015288,-0.0016073164,-0.038008768,-0.0139510045,0.006874761,0.016477287,0.026176473,-0.052993413,-0.03970645,-0.030602748,0.11550411,0.06033835,-0.11298654,0.019009693,-0.006684039,0.050285134,0.082723245,-0.10478348,-0.039522026,-0.17960891,-0.0607097,-0.10831945,0.0075072963,-0.027315758,0.0599046,-0.073634,-0.14035031,0.04916888,0.040808517,0.10740844,-0.03437434,0.03794259,0.006739398,0.19775295,-0.021181023,-0.014706063,0.1469317,0.23678993,-0.08814368,0.0044819904,0.01128216,0.03549622,0.05861908,-0.05185469,0.04057461,-0.08658945,-0.07267745,0.06533878,-0.021323781,0.07978073,-0.030073885,0.12919495,-0.010010428,0.023172973,0.10122744,0.08577119,-0.046748895,-0.013303885,0.12384741,0.005744107,-0.057960242,0.1650153,-0.11860645,0.07752193,-0.06958438,0.078414276,-0.069449455,0.09454771,-0.030283337,-0.07343035,0.101229094,0.08233841,0.0006176977,-0.036518466,-0.0082705375,0.0004527132,0.14965717,-0.0039969003,-0.008283564,-0.023635313,-0.0551394,-0.040188942,0.101498604,0.009462996,-0.021656532,-0.116491675,-0.10654041,0.008855754,0.063401446,-0.17250702,-0.071982056,0.07144,0.061574638,0.008231269,-0.0036547312,0.03393822,-0.07610952
-0.05363812,0.069264635,0.07464916,-0.058172796,-0.08539291,-0.09020018,-0.04250185,0.0020448016,0.06690675,0.024496794,0.029517096,9.899057e-05,-0.01923302,0.040465225,0.14238195,-0.06271245,0.09999735,-0.033536658,-0.04652052,0.025615036,0.042152535,-0.05342504,0.10530774,0.029849263,-0.15334068,-0.14597422,0.04204941,-0.028209876,-0.10965261,-0.055284932,0.054353505,-0.12689473,0.004328733,0.02456285,-0.08581965,0.007217564,-0.10382726,-0.02128053,0.038629703,0.09005643,-0.07018751,-0.067838274,-0.053675145,-0.09129086,0.05696831,0.07636309,-0.072347715,-0.061694957,0.01303955,0.032365743,-0.21980447,0.030141331,-0.014080487,-0.00034657543,0.12921341,0.02345181,-0.02287176,-0.014898504,-0.047813084,0.043259177,0.0006822283,-0.0211663,-0.026356475,-0.05491658,-0.019467188,0.076522894,0.026160095,-0.024703166,-0.07248113,-0.01878783,0.19871332,0.0129777035,-0.011714614,0.026883556,0.20583454,-0.091129184,0.05670024,0.00847718,-0.007127792,-0.005508097,0.02851568,-0.09244885,0.09828461,-0.0010821284,0.0067131505,0.100241736,0.088655196,-0.00781801,0.071921535,0.051157895,-0.06625412,0.032146074,0.0711152,0.09871286,0.0065663485,0.007864185,0.011794607,0.03513298,0.025458593,0.0061797686,0.13349561,-0.037588656,0.06387153,0.009557737,0.06469733,0.10622697,0.04745986,0.035037015,-0.05867609,-0.04132839,-0.005004422,-0.107489355,-0.0019247611,0.0684404,0.05757088,0.14222284,0.06299975,0.090296686,-0.036208544,0.054436315,-0.020212647,0.018041983,-0.06507666,0.0133251725,0.0069109844,0.00034347703,0.09334694,0.074630745
-0.014277442,0.05759162,0.14873222,0.04552254,-0.0732286,-0.07805097,-0.038787227,-0.085393585,0.04799581,0.07711732,-0.112127714,-0.019465478,0.07261288,-0.076253735,0.090502374,-0.073383525,0.061344206,-0.027091756,0.062333677,0.034005743,0.023184156,-0.09726165,0.017990043,-0.039009575,0.048069865,-0.05242248,0.037564486,0.002301206,-0.03632551,-0.043247454,-0.105959885,0.05084502,-0.07291302,0.06985898,-0.032959122,0.14137842,0.0394694,0.013420881,-0.10528738,-0.1136057,-0.02625559,-0.036385655,-0.028420366,-0.22366908,0.12056818,0.0034697177,-0.092078485,-0.022945609,0.18181145,0.039570287,-0.008564996,0.16739216,-0.07860467,-0.0539153,0.064042315,-0.08527641,0.11801954,-0.22640823,0.06489608,0.05735872,-0.040279523,0.023203263,-0.022372074,0.045815036,-0.055175133,0.011174591,-0.061912786,-0.044276047,-0.09062384,-0.0026589306,0.03873049,-0.008042343,-0.009333711,0.015041038,0.05883033,-0.05663303,0.10933762,0.04252776,-0.05179197,-0.009973788,0.038667146,0.083771326,0.048231035,-0.08691997,-0.00771725,0.018888937,0.026934706,0.10005999,-0.046897817,-0.011144486,-0.020676874,-0.019044751,0.055077933,-0.061828885,-0.009550534,-0.008912677,0.044652745,-0.04953253,-0.029507687,-0.05703201,0.15831016,-0.0013498648,-0.07679357,-0.10132706,-0.020764424,-0.10143201,0.09218931,0.040289313,0.10884785,0.019449875,0.053775165,-0.009941232,-0.08106129,-0.1154716,-0.103234686,-0.004549371,-0.062248744,-0.0047322437,-0.13684222,0.07820768,0.035646714,-0.08258241,-0.062060416,0.18944557,0.03324208,0.026103882,0.11428542,-0.121115014
-0.036769126,0.063168116,0.03371299,0.022512574,-0.0068061184,-0.015806062,-0.0040812455,0.044622608,-0.0077860192,0.12595403,-0.050393518,-0.030576555,-0.05876721,0.13415588,0.16923289,-0.12756087,-0.25423938,0.09195038,0.06271039,-0.014899871,0.07966211,0.07994204,-0.14517274,-0.074784435,-0.10192508,0.073239446,-0.048789427,-0.08455964,0.042356174,-0.020643292,0.032294672,-0.10890668,-0.0072983108,-0.021060463,0.1666376,-0.010349478,-0.09766898,0.008758473,0.038556393,-0.12462542,0.14738873,-0.002594978,0.005445623,0.035141382,0.009625344,-0.062999584,0.079942055,-0.03401182,0.061442208,0.116265245,0.16575834,0.008949333,-0.1598541,-0.06729155,-0.10987135,-0.06353878,-0.012832634,0.013887056,0.005180316,-0.045442108,0.043950617,-0.051948577,0.050249755,-0.06987652,0.01981036,0.04101847,-0.14550023,0.11427008,0.092459984,0.16530617,0.10903462,-0.06807816,0.032814667,0.021595605,0.20003954,-0.057166763,-0.12660849,0.09074442,-0.07030941,-0.052582644,0.01306631,-0.034463476,-0.10066083,0.04296078,-0.06811622,-0.0041114194,-0.07604157,0.013327174,0.13559748,0.16887707,-0.10274933,0.0152135445,-0.09812297,0.10139391,0.029868377,-0.10902699,0.04373462,-0.012273243,-0.00041848174,-0.03817327,-0.1528173,0.05919272,-0.11828073,-0.08882905,-0.037362553,-0.038074825,0.1311057,0.0808573,-0.036329776,0.060773157,-0.06699619,-0.06740357,-0.028487815,0.017015228,-0.053359635,-0.0071670827,-0.09373975,0.015279502,0.0481907,0.011338213,0.0035515823,0.123396054,-0.088947915,0.10206301,0.06971751,0.13472392,-0.16404592,0.040111408
0.09966873,-0.18127017,-0.01904758,-0.04787487,0.059255492,-0.12388317,0.061909102,-0.12368706,-0.026231008,-0.017784502,0.054166827,0.016580809,0.07658182,-0.019906098,-0.017373467,-0.06502732,-0.09476494,0.06487718,0.11198384,-0.053606864,-0.0049805203,0.08083847,0.097902216,0.04149955,0.013755188,0.17897928,0.075568356,-0.23266985,0.0249442,-0.01997443,0.10464985,0.052680347,-0.089181334,0.11822727,0.004988373,-0.029829273,-0.07032025,0.0337986,0.10838141,0.0447568,-0.0933837,0.08795796,0.10022932,0.060360637,-0.067528374,-0.00075897685,-0.09478601,0.049885154,0.021714535,0.0340923,0.098079674,-0.07783649,0.040001035,-0.15779068,0.075660795,-0.04617963,0.02518309,-0.07106417,-0.06744477,0.062078748,-0.06631287,-0.08855184,0.048211344,-0.05924337,-0.06718328,-0.07264786,0.003071189,0.017896865,0.14984377,-0.06851161,0.115176536,0.00610944,0.07672997,0.03289936,-0.013249255,-0.052281834,-0.109588616,0.04448519,0.13423955,-0.044862084,-0.06664727,0.052931234,-0.0889878,0.045487966,-0.088339195,-0.070827916,0.12038761,0.06996392,-0.033588797,-0.008558075,0.031907577,-0.102598965,0.020645205,0.055632513,-0.070493944,0.042181402,0.16691335,-0.028064303,-0.09922352,0.056107003,0.07746662,0.1620471,0.04684997,0.001340576,0.039610885,0.014197155,0.06855477,-0.04672204,0.05736091,-0.08807942,-0.021175222,0.039918613,0.009790809,0.09922283,-0.015474203,-0.054726984,-0.0067411745,0.005811003,-0.01284512,0.057999697,-0.009207108,-0.046683945,-0.015637768,-0.057577614,0.023284886,0.005310461,-0.09631896,-0.020340284
0.003600598,-0.1721794,0.18178228,0.050565634,0.04330351,0.005032939,-0.0009240358,-0.0035465567,0.072308935,0.009095528,0.0606466,0.052779503,-0.04255361,-0.006964121,-0.07099373,-0.0065970365,-0.08831666,-0.06466131,-0.0628843,0.040161464,0.0006941858,-0.14139915,-0.07417822,0.05533509,-0.06427355,-0.030171188,-0.056142934,0.07400335,-0.04022708,-0.112611026,-0.03159747,0.11415553,0.080664136,-0.02032827,0.079722755,0.056300562,-0.13342275,-0.08908556,0.06449131,-0.029874915,-0.0869249,0.08433501,0.055295166,-0.09744703,-0.05554849,0.040422384,0.06646689,0.01289604,0.027572753,0.007929426,0.029469633,0.14309686,-0.017918732,-0.03579364,0.14579493,-0.029989492,0.024772666,0.07502925,0.025340814,0.045182552,0.07084457,-0.05662863,-0.036572743,-0.06096666,-0.060793333,0.022750383,-0.0340822,0.0316193,-0.07879896,-0.0857442,0.20921598,0.040168583,0.042420328,-0.09901142,-0.101518966,0.056006566,-0.04513557,0.10093185,-0.05789883,0.055761416,0.054867666,-0.10013227,0.13508633,0.0055665304,-0.018518655,-0.038921043,-0.037637487,0.041000213,0.0045545264,0.12436736,-0.020769034,-0.011028431,-0.014161206,0.09206434,0.032752085,0.072205506,-0.031121444,-0.04337176,-0.0034272834,0.034133133,-0.15042,0.07395644,0.037153624,0.07158642,0.05632716,-0.043341663,0.02377487,-0.026264945,0.034573443,0.040004723,0.06897908,0.078720845,-0.03511921,-0.121016376,-0.12634118,-0.019503351,0.10050219,0.019121215,-0.014588512,-0.07476264,-0.028667744,-0.09281561,0.035523187,-0.033750944,0.06928487,0.014913729,-0.09547988,0.018380055
0.056794856,0.07769759,-0.075473025,0.012104921,0.062885925,-0.081445344,-0.07643228,0.07710508,0.07919541,0.07673458,-0.0032563682,-0.024075953,-0.00039576177,0.08312459,0.0638903,0.16258731,-0.13127483,0.050972197,-0.06498266,0.0073312107,0.0023902021,-0.16039576,0.022188507,0.045568418,-0.031374194,-0.008731115,-0.020696536,0.015027054,-0.07111163,0.06326816,-0.012323971,0.021874199,-0.012823614,-0.0020034467,-0.06024945,-0.04887881,-0.073677614,-0.075023964,-0.06977595,0.122452,-0.06589546,0.04282556,0.020988481,-0.065778196,-0.03778041,-0.117101215,-0.09651817,-0.00036141384,0.03323341,0.042439856,0.09729011,0.1259687,0.07210668,0.0734959,-0.077911824,0.03430785,0.058673345,0.0683004,0.058658913,0.061110124,0.15590146,-0.020993978,0.008414295,-0.09542389,-0.04430751,0.017851617,-0.023879567,-0.07371914,0.10165692,0.14988112,-0.06888963,-0.044771522,0.015277663,0.039798945,-0.06477455,0.077228814,-0.08385235,0.02077294,-0.09483766,-0.003476703,-0.22747444,0.098710515,0.0053946003,-0.024548342,0.14501895,0.1194016,0.090348735,0.009496032,0.10113776,0.02578284,-0.013245798,-0.11349117,0.07653007,-0.013826281,-0.095466085,0.016349943,0.10235518,0.06192791,0.045638088,-0.02338728,0.031745996,-0.14483395,-0.0640113,0.021872768,0.018270701,0.122662984,-0.07860944,-0.14950894,-0.01647757,-0.0029127798,0.076648906,0.017651437,0.2079022,-0.13896954,-0.025995888,0.08897749,0.016036697,0.023744324,-0.081426315,-0.013889554,0.019109827,-0.03725941,0.10146747,-0.050512165,-0.056149438,0.035484493,-0.010400948,-0.063690744
-0.032901846,0.060414333,-0.09939541,-0.074017294,-0.03338569,-0.1588724,-0.16246825,0.10584254,-0.02068762,-0.0009729698,0.003709973,0.0127971545,0.05180192,0.010451617,-0.07301709,-0.013635,0.06765546,0.14178419,0.0035877547,0.121830195,-0.03828388,0.118194155,-0.172518,-0.021528002,-0.12561598,0.05519752,-0.063150905,0.09754384,0.09593512,-0.0020850317,-0.11411324,0.012220881,-0.16828859,0.025225466,-0.11159919,-0.032073963,0.1299347,0.089292005,-0.07840604,-0.055223748,0.053566225,0.1982908,-0.013279634,-0.07939776,0.04396842,-0.03854479,0.002296177,-0.048857268,-0.16356651,-0.1250051,-0.07686269,0.060215373,0.048521824,-0.03885694,0.13154763,-0.009757591,0.033363268,0.17520045,0.06799707,-0.05276665,0.07067725,-0.030222397,0.037956424,-0.02298302,-0.022030795,-0.03873848,0.08128441,0.025306405,0.15196861,-0.072802596,0.20965199,-0.0031565726,0.04154662,-0.065690026,0.095629744,-0.022907425,-0.09557629,-0.14583644,-0.029748114,0.060776763,0.096686035,-0.06624362,-0.11575033,-0.02774535,0.010213717,0.03886434,0.08155313,0.0070154476,0.024802731,-0.00036448825,-0.045313854,-0.014615266,-0.12085783,0.0037090944,0.10604965,-0.11923174,-0.12745975,0.06816547,0.020825915,-0.06976916,0.10392291,3.5455072e-05,-0.053646013,-0.047790546,0.06428229,-0.044941764,-0.14484704,-0.07144728,0.11239653,0.02985999,-0.034411777,0.026882311,0.030484512,0.012267697,-0.094157465,0.007726004,-0.030640824,0.03324089,0.07125495,0.092638776,0.16177328,-0.014908298,-0.10841968,0.06494307,0.06115252,-0.039693285,0.020649942,0.06693781
-0.031477094,0.045031074,0.003869019,-0.098383695,0.0848459,0.07495491,0.14520507,0.003067638,0.022907928,0.014397244,-0.08612177,-0.04785998,0.026925504,0.05498641,0.24901761,0.029408159,-0.05470194,-0.119347796,-0.060319755,0.09894064,0.022583066,0.05528917,0.1176938,0.06576234,-0.003466051,-0.067846395,0.017350975,-0.048370622,-0.14287521,0.07248402,0.028252235,-0.07761256,0.19428612,0.011315445,-0.0480846,0.039129477,-0.118787155,-0.08767876,-0.02179187,-0.019804206,0.0597177,-0.0019266333,-0.052168883,0.065685354,-0.07735822,0.057100512,0.081741564,-0.031523973,-0.068069525,-0.026789967,-0.16521625,0.0034402166,-0.04063318,-3.146217e-06,-0.017269535,-0.061732434,0.10341944,-0.03084662,0.009161668,-0.05105093,0.10204206,0.027274268,0.071805164,-0.022727584,-0.0459539,-0.041702494,-0.059774373,0.08228815,0.08752411,-0.037933726,-0.050000705,0.0650741,-0.008868439,-0.02163523,0.13823381,0.12818155,0.052358832,0.094569035,0.08072044,0.0056551155,0.070453115,-0.0129818,-0.034416266,0.111726545,0.008369039,0.00802839,-0.02789274,-0.14938237,-0.103717335,-0.024951652,-0.075102635,0.098654434,-0.055821266,-0.000101033955,0.039712563,0.0123263365,-0.0050826776,-0.0039243414,-0.070613004,0.022431565,-0.059134025,0.023214005,0.065697044,0.0041617537,-0.008802334,-0.010296918,-0.025255265,-0.0021215286,0.016836945,0.011571351,-0.09401941,-0.04050006,0.11172711,0.027712384,-0.0037018072,-0.12119065,-0.14355934,0.20251626,0.14568856,-0.01511946,0.052319072,-0.07599798,0.0654764,0.042539004,-0.10231754,-0.018369861,0.022442732,-0.12456274
0.008001215,0.0052584843,0.049598485,0.023331756,0.119462155,-0.011170382,0.096235156,0.06845144,-0.06979084,-0.016456708,-0.01776795,-0.035573505,-0.018333895,-0.098984815,0.115120895,0.1435643,0.042717107,-0.057425767,-0.04186,0.029280882,-0.06209661,0.15182057,-0.10705028,-0.033122122,-0.006740802,-0.11071196,0.010419261,0.034643292,0.009091018,0.066924416,0.15355764,-0.064613216,-0.08600889,0.050614316,0.09846884,0.10328476,-0.006314651,0.008237289,-0.053804226,-0.06766758,0.013851829,-0.12464995,-0.030765293,-0.072319165,0.10867711,0.0060241073,0.045941055,-0.045378927,-0.3021417,-0.015440811,0.010408597,0.075849555,0.150884,0.03840277,-0.07311497,-0.07158024,-0.0036633427,-0.06109475,-0.045668896,0.028874373,0.1049852,0.00998246,-0.053952213,0.029446607,-0.12305496,0.017840674,0.0452143,0.1588132,-0.03796269,-0.036348693,-0.019790502,-0.17056389,-0.1723679,0.027973112,-0.043951415,0.121746555,0.1596639,-0.1558712,-0.021865081,0.027763627,0.07426205,-0.050627314,-0.00080807664,-0.08733408,-0.075396046,0.08386399,0.0005762722,-0.023014326,0.06100559,0.15098116,0.019790962,-0.0032048058,-0.08860996,-0.08276376,-0.09425774,0.00021935842,0.24675937,0.008521634,0.023709038,0.051535044,-0.011873821,0.042185523,0.06585049,-0.038325973,-0.06762225,0.05800815,-0.011326104,-0.0006381956,-0.0062506176,-0.0298057,-0.06478911,0.06416619,-0.01673745,-0.06751491,-0.06289844,-0.07704703,-0.06669608,-0.03577407,-0.028141221,-0.09785543,0.11771621,0.047790524,-0.03668794,-0.062195797,0.18735303,-0.007227168,0.07267689,-0.047513597
0.014836471,-0.054845653,-0.22158301,0.0007011768,-0.19775565,0.13775687,0.15799703,-0.10705635,-0.076404266,-0.04231176,0.026428286,-0.12156872,0.19921686,0.09988284,-0.1734434,0.06408489,-0.045915116,0.07074943,-0.0067639216,0.014501175,0.15542187,0.12691563,0.092366144,-0.042589456,0.043979447,-0.15414274,0.047879837,-0.018877476,0.046710026,-0.04124671,-0.03177647,0.15476394,0.02161734,-0.012366618,0.013581664,0.12074773,0.023239281,-0.02222514,0.12367846,0.034155793,0.012619363,0.03649222,0.0027622946,-0.018331347,-0.093013056,-0.007754512,-0.016924446,-0.021524012,0.04863563,-0.09462338,-0.25430787,-0.059973497,-0.061829466,0.051316038,0.052060395,0.009643593,0.104472354,-0.005911878,-0.06558093,-0.02932967,0.06582201,0.07566517,-0.05777947,0.05790264,-0.0466502,0.0042946963,0.0734613,0.05012744,0.19393767,-0.033759713,-0.055645738,0.027384676,0.04198108,0.07309758,-0.025530862,0.10145249,-0.08865664,0.097290605,-0.017566985,-0.010743649,0.023338744,-0.013101498,-0.07932368,-0.013154663,0.026534677,0.105558276,-0.028889142,0.08374691,-0.0112366015,-0.16216458,0.060684387,-0.011684488,-0.06766828,0.09407584,-0.03717063,-0.050006557,-0.013794592,0.00396991,-0.06744972,0.00093347894,0.0023228496,-0.090983786,-0.01699876,-0.10443254,0.049366318,-0.107510276,0.015964981,-0.08743283,-0.12589233,-0.0068903575,0.080083214,-0.014713242,-0.0007257551,-0.00881814,-0.086490124,-0.020637117,-0.0017725445,-0.056899354,0.018337416,-0.10561595,-0.07664869,-0.08518414,-0.0012201212,0.039090835,0.052448396,0.0309591,-0.08065274,-0.19080834
0.12607905,0.24453244,0.01842499,0.06329247,0.0019176764,-0.12132803,0.006807674,0.022223389,0.06608744,0.016925296,-0.010271103,-0.017456032,-0.08557182,-0.10041552,0.03932748,0.2063857,-0.09563689,-0.117077984,0.06397374,0.08009897,0.038442567,0.13047926,0.0679938,-0.030758204,0.0059958566,-0.005760606,-0.032230787,0.0140983425,0.031052785,-0.09637064,-0.050529674,0.06581818,-0.01649945,0.06899873,-0.108175896,0.025292352,-0.17757238,0.11374209,-0.07438571,-0.10295796,-0.19110073,0.014255852,-0.008052599,-0.039440967,0.021459436,0.030978894,0.15161656,0.07370207,-0.06465752,0.08743943,0.0876394,-0.043173734,0.069709666,0.025648981,0.14435992,0.061868507,0.098047994,-0.0026053365,0.051524505,-0.093519635,0.1269363,-0.037740327,-0.012341627,0.009387283,-0.08730577,-0.0028158207,-0.109661244,-0.007364214,0.063014835,0.05581665,-0.089862004,0.008290807,-0.044985034,0.006101449,0.07159094,0.1321397,0.058701746,0.03300601,0.09630945,0.066347115,-0.07568602,-0.04166714,0.02909648,0.081203766,0.10911432,-0.15507509,4.4521967e-06,0.19914916,0.003532133,-0.08376699,0.021253092,0.038147565,0.17495026,-0.068945915,-0.02758395,0.040493436,-0.020565724,0.093396455,-0.030799057,-0.042100716,-0.058483887,-0.062027726,0.09523815,0.05934413,0.021301882,-0.04246496,-0.23699304,0.07916851,-0.04669499,0.009683902,0.020049237,0.014604363,-0.11782215,0.06199032,-0.01379638,-0.02621065,0.13973011,-0.14704904,-0.02397322,-0.030824542,-0.11894036,-0.028805314,0.11165876,0.09868218,0.022488417,-0.0199574,-0.11370389,0.038384873
0.06520669,0.097855344,-0.021178337,0.0054199505,-0.09868136,0.027993247,-0.08632093,0.04786392,0.014399599,0.033540115,0.12102506,0.050429806,-0.048468243,-0.1271099,-0.008138412,0.12965077,-0.1429081,-0.078272246,-0.16925341,-0.0018490324,0.054531883,0.046266414,-0.008948038,-0.07517125,-0.0031945508,0.06366431,-0.018834447,0.06775275,-0.044403214,0.022651285,0.15525518,-0.03462654,0.16473435,-0.024285981,0.07787679,-0.1006214,0.07043109,0.0368274,-0.05406101,0.11649491,-0.008703328,-0.0078732455,-0.017150952,-0.0342182,-0.089679755,0.13152386,0.025314841,0.046067372,-0.13879466,-0.01863502,-0.023287848,0.0436612,-0.013566029,0.031481363,-0.011203074,0.0070218537,0.12105192,-0.087523974,0.050728455,0.04254392,0.08656947,-0.042764533,-0.08728328,0.046328884,-0.0003232851,0.08180748,0.121355034,0.023958027,-0.090908386,-0.12382908,-0.044042144,0.005469824,0.07272991,-0.013326845,0.008160947,-0.064681165,0.008287475,-0.09361142,0.013318897,-0.037384115,0.024357408,0.10811783,-0.12077305,-0.0014339298,-0.03339677,0.07210415,0.007400256,0.06386467,-0.015758194,-0.057024796,0.07543429,0.03259552,0.12796324,-0.041481663,0.008110979,-0.09401027,-0.022972846,-0.13320243,0.021978071,-0.02892402,0.061869323,-0.07885931,0.04841327,0.02933398,-0.021111809,-0.15990493,0.119849026,-0.026219089,0.020084124,0.12721062,0.021656353,0.10670369,0.076714225,-0.0069133095,-0.08766547,0.0065163476,0.048028924,0.06469214,-0.050615624,0.039675534,0.056129158,0.07653495,-0.025314283,0.050008904,0.033443257,-0.039691288,-0.22528964,0.06741508
-0.041498605,0.053200506,-0.00048211848,0.023077333,0.027285744,0.039125774,0.09230974,-0.132128,-0.024133526,-0.007564221,-0.010381038,0.041935124,-0.112557575,0.048244644,0.14031537,-0.07709509,-0.15144326,-0.01839172,0.035507575,-0.0008517727,0.07085353,-0.017589327,0.13151348,0.03556851,-0.07011815,-0.018381512,-0.044770088,0.16073959,0.114550814,0.011207652,0.047951963,-0.009977592,-0.11165612,-0.002209692,-0.022848243,0.06900612,-0.06548999,0.061620124,-0.013364862,-0.06907621,0.030451022,-0.10032491,0.06324872,-0.023639766,-0.119536005,0.058080934,-0.09244651,0.16489673,0.041026805,-0.05727905,-0.012316388,-0.09249007,0.00044858307,0.023498792,-0.005649026,0.05061109,0.06610824,-0.03832586,-0.010144866,0.13651812,0.014960032,0.023207162,0.023496963,-0.040521473,0.023235988,0.0045377756,0.29538864,-0.00019968463,-0.14635162,-0.105425835,-0.059137646,-0.04865181,-0.06746988,0.0157325,-0.0012932504,-0.0054414254,-0.084671326,0.09111375,-0.030234255,0.006620875,0.06561823,-0.035453398,-0.023338828,0.050668992,0.051242344,-0.051900398,-0.04838795,-0.059529345,-0.062384017,0.15221502,0.05405613,-0.039348636,-0.017112695,-0.14759797,0.14774965,0.05208274,-0.250881,0.09965442,-0.07401342,-0.09299244,0.018122364,0.011580453,-0.028394852,0.022162614,-0.033063587,0.010224464,-0.031074012,-0.0052860365,-0.005258004,-0.0008270369,0.07459855,-0.03998863,0.017527288,-0.08251484,-0.037180778,-0.1199237,0.099248365,0.049449947,-0.07566616,0.04166223,-0.044424612,-0.005007085,-0.13651398,-0.035779234,0.0054597016,0.05532668,0.06589164,-0.051039353
0.03951679,0.015809046,0.06916121,-0.00075498864,-0.035111967,-0.04107638,0.078057826,0.15347847,-0.035505667,-0.016487962,0.04037268,-0.017188426,-0.11433057,0.08566365,0.0073098983,-0.021598438,-0.036777083,0.07117193,-0.052447636,0.096367665,0.08805868,-0.0964009,0.09645513,-0.028229455,-0.050462864,0.031617694,0.08387225,0.055514976,-0.062784806,-0.012047806,-0.020000296,-0.0007130387,0.17825216,0.18956693,-0.107329786,0.14719056,0.007553593,0.009278774,-0.038637098,0.05105984,0.06807224,-0.15750548,-0.016974209,0.08664632,-0.06199696,-0.038921595,-0.0014206349,-0.017436454,-0.031128708,-0.05308063,0.16095969,0.028862571,0.07450903,-0.046971764,0.057748396,0.03600999,-0.0564756,-0.03443423,-0.03604611,0.09148772,0.070098974,-0.008135869,0.06682464,-0.058966253,-0.16547035,-0.004564516,-0.19655232,0.009964626,-0.08307638,0.060531076,0.13600901,-0.028887903,-0.0062411665,0.005441969,-0.108024195,-0.16096407,-0.076233394,-0.031510282,-0.06328984,0.08459544,0.03949786,0.008465612,-0.009110377,0.0051751183,0.01993299,0.046733152,0.058779567,-0.027620045,-0.0381404,0.024356248,0.076879,0.045210965,-0.09116073,-0.07487001,0.10942739,0.026107267,0.07682454,-0.017184485,-0.06310626,0.036833353,-0.07672723,-0.04401147,0.036496922,0.06453269,0.037248414,0.020642657,0.065056875,-0.13311931,-0.022382356,0.041553356,-0.033136167,-0.02858724,-0.02460992,0.26265636,-0.089287065,-0.04748647,0.16337574,-0.040209386,-0.06538337,0.046299204,-0.039776452,0.13552181,-0.0629968,-0.00526251,-0.036279444,-0.033217713,-0.024967052,-0.09996195
0.018270712,-0.04507226,-0.08202728,-0.06161127,0.09671699,-0.0008898796,0.022560608,-0.080295034,0.011423926,-0.073869966,-0.097905286,-0.038072634,0.03326523,-0.030711949,-0.027680362,-0.031020908,-0.13053176,0.12695955,0.038435053,0.11490916,0.05893989,-0.0045047477,-0.051883563,0.05640567,0.08808479,0.103968896,0.04877666,-0.11147434,0.043633316,-0.21390407,-0.17575425,0.026969086,0.11743857,0.07674207,-0.020398825,-0.109855846,0.06750366,-0.038435563,-0.022051862,0.033862498,-0.0735587,-0.115764014,-0.047652464,0.087271266,-0.004160357,0.07177267,0.084366575,0.07692835,0.20814322,-0.0049356497,-0.047542118,-0.033358898,0.046388596,-0.03871865,-0.116193116,-0.13552816,0.076985195,0.006334477,0.060600612,0.08013193,-0.0048704557,-0.037304606,-0.10059965,-0.04480401,0.064077,-0.06327003,-0.060490437,0.00034149663,0.1626514,-0.0600431,-0.08693189,-0.049278673,0.08204439,0.017887596,-0.020706909,0.07259076,-0.040862616,-0.16670012,-0.0138973165,0.055668235,0.11290426,-0.10826828,0.11394118,-0.0118317725,-0.06445947,0.11243243,0.07717177,-0.21103582,-0.032576304,-0.03676271,-0.022979984,-0.012002001,-0.018813293,-0.11435388,0.03439264,0.0055902563,0.0050271805,0.19672026,0.034150746,-0.04711163,-0.02018256,-0.0960091,-0.030094983,0.007692447,0.01486014,-0.016685111,-0.029143443,-0.058120914,0.065173775,0.007758327,0.02299619,0.041602537,0.02547571,0.06906527,0.14628798,-0.08511639,0.20100793,-0.1362936,-0.08785536,0.027785407,0.092447005,0.02550221,-0.11377858,-0.0054749288,0.1727991,-0.06108194,-0.1240502,0.020960823
-0.17425846,-0.05030955,-0.12022718,-0.05913184,-0.04798076,-0.035466183,-0.024291743,-0.041807152,-0.06840887,0.039296664,-0.039995763,-0.018311676,0.10283352,0.003788886,-0.028057998,0.036263328,-0.018718846,0.017943013,-0.024902683,0.026602088,-0.08033029,-0.05088248,0.039762095,0.07158415,-0.0030642243,0.017167611,-0.09779426,0.115260616,0.025638388,0.013041719,0.04171054,0.06413615,-0.026248254,0.1727273,-0.023505026,0.14009291,0.17751488,-0.0039521344,-0.053420898,-0.021288529,-0.053044092,0.022368576,-0.004106286,0.010878689,-0.08748769,0.09889094,-0.075308524,-0.014768428,0.10226017,0.006103193,0.22182608,-0.10221901,-0.0101376595,0.066020556,-0.11096041,-0.012636878,0.10039482,0.16368654,0.03519035,-0.1464834,0.14972456,-0.07135324,0.040577218,-0.13738286,-0.017123107,0.047408186,0.016595963,-0.028065495,0.13194755,0.16577259,-0.022447508,0.03180091,0.08310684,-0.0039837533,-0.11197494,-0.05008554,-0.04875398,-0.04417759,-0.046686098,-0.022235267,-0.113644384,-0.06080413,-0.06905842,0.022199618,-0.10847598,0.012485319,0.033601098,-0.033209395,0.020959789,-0.015725289,-0.023153508,0.11278994,0.0968801,-0.057007086,0.007918277,0.14057061,-0.10354189,-0.053544678,0.006943858,-0.013779647,-0.0016039563,0.07894664,0.22127199,0.01791425,-0.05180309,0.009043948,0.11095176,0.004341079,0.038153023,-0.04350085,-0.101690166,-0.018672965,-0.060614232,0.045136936,-0.039734848,-0.052255984,-0.036454428,-0.042865165,0.02258708,0.019620214,-0.036997736,-0.027096389,-0.09756659,-0.045919105,-0.064548604,-0.023836473,0.17402162,0.09292968
0.032758597,0.073332824,0.0025926838,-0.05502295,-0.01429151,0.10422117,-0.05226002,-0.10756646,0.052891493,0.014766768,0.015270928,-0.037213426,-0.09870425,0.15861185,-0.026669428,-0.14685297,-0.05112355,0.0751756,-0.009707978,0.06980107,-0.03630118,-0.049152665,-0.12535611,-0.09207096,0.0020519788,-0.043742757,-0.019486282,0.0229256,0.09935293,0.018616263,0.0011538713,-0.10415818,-0.008121581,-0.111672275,-0.022806142,-0.03467975,0.09460356,0.035672653,0.22476515,0.018572215,-0.02773471,-0.098167114,-0.0459957,-0.07853615,0.051750954,-0.13904454,-0.07158597,0.12270593,-0.0064726314,-0.019249242,0.047327284,0.04771041,0.055950254,-0.006477087,0.022082468,0.09065317,-0.122156024,0.10218361,0.007608484,0.06886404,-0.06852861,0.0028621804,-0.05582065,0.07804114,-0.06921876,0.027791949,-0.025949406,0.0014687424,0.083179615,0.11495581,-0.06478674,0.0582208,0.017460763,-0.037199825,0.14644712,0.031990506,0.13854189,0.0306805,-0.06944313,0.08169891,-0.021918936,-0.06579355,0.022604063,0.07562621,-0.013114013,0.016702438,0.04185731,0.006450735,-0.12715924,-0.034330573,0.09660847,-0.059178,0.07702513,-0.09133349,-0.019833263,0.0054121837,0.017569885,-0.0713273,-0.104905866,-0.02573134,-0.056553606,-0.06220632,0.08167535,0.05509324,0.053240806,-0.019002758,0.101413466,-0.0077457824,-0.002814826,-0.043679792,-0.009717472,0.09549347,0.023615863,0.0064304583,0.044053618,0.108956195,-0.23003767,0.06738759,-0.15333085,0.051864076,-0.00978676,0.08619288,-0.028320871,-0.009522865,-0.01386081,0.046010684,-0.00087982655,-0.03885426
0.119266644,0.06722078,-0.25608614,-0.00044425527,0.10048802,0.02826051,0.028547408,0.24682888,0.14721438,0.03245702,-0.005823858,-0.11748884,-0.017233873,0.09820522,-0.097700156,-0.10267997,0.025889302,-0.07407012,0.13969354,-0.0055786087,-0.056597937,0.0038494973,-0.013923289,-0.03852325,-0.013317915,0.0057259626,0.03866523,-0.072850026,-0.19053912,-0.039150804,-0.036529556,-0.023918724,-0.15061335,0.032309934,-0.011507778,0.01393227,0.02610216,-0.026000228,0.13311197,-0.03335225,0.032592125,-0.003136928,0.035929978,0.053023502,0.05677805,0.015229583,0.0072064083,0.020453535,0.10093114,0.030178618,-0.09193423,-0.03873979,-0.04092587,0.046184864,-0.1248371,0.009915112,-0.09206349,0.03117459,-0.16491114,0.0742476,0.012311316,0.064996,0.031966988,0.0180635,-0.0843922,-0.044707835,-0.04277838,-0.07065992,-0.16510805,-0.025371853,-0.08987597,0.051598024,-0.053676598,0.018233346,-0.072747506,-0.054495826,0.07808932,-0.04293534,0.15763244,0.02688451,0.0096656745,-0.046250775,0.030244539,-0.0328894,0.04434084,0.13313456,0.09641257,0.051583234,0.017786456,0.1570226,0.028482137,-0.002887129,-0.055563606,0.0056121587,0.021079333,0.028382003,-0.027152374,0.052776,-0.052079514,-0.02514974,0.0026088112,-0.006606361,-0.015681742,-0.048873585,0.036215626,0.02566925,0.03750104,0.06863988,-0.0024899559,-0.02282315,-0.12219996,-0.0805457,0.01279511,-0.06635886,-0.09616218,-0.016321993,0.07189041,-0.042235903,0.009004922,0.005987828,-0.02512615,-0.07242695,0.0669368,0.011137825,0.041569754,0.015003658,-0.11132361,0.1167804
-0.015523789,0.09934659,-0.011535835,0.05182588,0.01823577,-0.008838477,-0.042716775,-0.0026971744,0.07098185,0.07546122,-0.05456901,0.03847666,-0.05179377,-0.018800516,-0.0028850664,0.15193968,-0.14727062,0.038540922,-0.05580458,-0.025256943,-0.04004356,-0.018656876,-0.12260245,-0.0041425927,0.06363182,-0.04568632,-0.029893033,-0.06594862,0.026924511,-0.12796573,0.0059327474,-0.11631048,-0.121826336,0.08698676,0.156341,0.048539992,0.017136255,0.06804472,0.0031177858,0.0017800817,-0.06572639,-0.031239048,0.03381898,-0.1575174,0.046066433,0.047866356,-0.06976747,-0.010743496,-0.051581435,-0.058464672,0.0716727,-0.061098065,0.10549474,-0.0092924535,-0.12983757,0.05993852,0.09030327,0.04981846,-0.12960912,-0.020179272,0.09894464,0.10239804,-0.021574467,-0.054766037,0.10221671,-0.07179948,-0.10733518,0.12206262,-0.12993158,-0.057201114,0.19292136,0.1434027,-0.04470154,0.083157,-0.09682635,0.008409468,0.001148619,0.06874807,0.12703194,-0.048374653,0.04708591,0.0846643,-0.055075154,0.017373493,0.04383798,0.05629932,-0.0435327,-0.03818307,-0.09837003,-0.16872996,0.12953007,0.10303781,0.035469405,-0.05514646,-0.05799665,-0.07080713,0.018519532,0.18287171,-0.011849188,0.052791677,-0.014980104,0.06704806,-0.090031944,0.037827063,0.052060355,0.11094686,0.07413607,0.020487864,0.01609682,-0.024349751,-0.0106365755,-0.08525473,-0.00015190098,-0.0041967332,0.0076818494,0.015481247,0.049320363,0.15957378,0.07190923,0.0073716976,0.22640695,-0.055408552,-0.072396874,-0.012773923,-0.10446113,-0.07197009,-0.0022479154,0.070146285
-0.005170351,-0.013248464,0.09302281,-0.11770281,-0.09634864,0.10765411,-0.013046674,0.029648088,-0.0032161947,-0.122999914,-0.0056880205,0.016380329,0.11404215,-0.014193212,0.074269265,0.06426299,-0.03186229,-0.018370599,0.048324164,0.011573009,-0.025839075,0.20352143,-0.011867506,0.07612789,-0.0560232,0.07469421,-0.00028607025,-0.04075232,-0.04077442,-0.050144207,-0.0061508133,-0.005583022,-0.0881558,0.05278696,-0.0822399,0.065931745,0.030215852,0.03467458,-0.007091135,0.034107313,0.07856148,-0.1314786,-0.01261056,-0.009003646,-0.014771345,-0.03687308,-0.1562772,0.04099419,-0.018467281,0.068517484,0.029281572,0.007509941,0.022516226,-0.06511451,-0.11442896,0.057108965,-0.039972212,-0.03293305,0.051608466,-0.054487266,0.04068172,0.0107219,-0.0034495755,0.04897224,0.086416766,-0.17040202,0.039800324,-0.1105056,-0.01703531,0.038058586,0.124969624,0.098882794,-0.18653199,0.044696204,0.011961709,0.045921452,0.040068936,-0.012862204,-0.006645694,0.06467246,-0.089626096,-0.08650476,0.06261335,-0.0028014584,-0.076888144,-0.03488476,0.082752824,0.10935314,0.0630931,0.015675895,-0.04693994,-0.078425355,0.025399204,-0.0246766,0.036599252,-0.1705455,-0.16276778,0.00070797396,-0.019098794,0.03677541,-0.02102003,0.04381251,0.0041208607,-0.013391689,0.020979377,-0.094512366,0.018082298,-0.1487494,-0.060008407,0.017561227,-0.0059639933,0.01670293,0.08182676,0.011906478,0.06708434,0.05690643,0.06862021,0.112980075,0.15361084,0.031456936,0.034110628,-0.04725438,0.0030952122,-0.090029605,0.040000945,-0.08299009,-0.11183645,0.0033164239
0.051031068,-0.25826335,-0.09282875,0.032361727,0.014580122,-0.011808473,0.0033289066,0.11659347,0.07367994,0.1582862,0.058919523,0.028274717,-0.03054978,-0.06849217,-0.06376246,0.04169265,-0.026994916,-0.014205383,-0.04461486,0.03227457,-0.051840946,0.11114243,0.1441099,0.03756598,-0.13319334,0.013344371,-0.010913149,0.11460132,-0.03738038,0.083170734,-0.1382685,-0.0019014404,0.05935977,0.10876626,-0.063963406,-0.0004333232,-0.041561034,-0.029206967,0.1275003,-0.02633341,0.11949989,-0.0073420326,0.038826477,-0.0030510232,0.039405093,-0.028346088,-0.03806354,0.10751884,-0.038367584,-0.0035183344,0.04388275,-0.016274683,-0.013587004,-0.10252818,-0.14415798,0.107673675,0.04255609,0.0056043356,-0.039863214,-0.028578721,-0.10581773,-0.13505842,0.040489998,0.08275984,-0.05375637,0.08409102,0.04633389,-0.11084853,-0.1371554,0.053372245,-0.14345877,0.03116243,0.069233105,0.107954316,0.114264935,0.045928154,-0.00689815,-0.06972504,-0.02393725,-0.0017826614,0.012872474,-0.038091395,0.051154222,0.04767823,-0.0030191771,0.07210486,0.07344144,-0.0085014375,-0.070262775,-0.12025119,0.018517258,0.05412873,0.10660361,-0.007091381,-0.05791045,-0.10268114,-0.025153749,0.027996797,-0.051664818,-0.014077992,0.076511845,0.14720435,-0.06894322,-0.036178052,-0.14416763,-0.08604508,-0.08369585,0.039317846,0.0905861,-0.06731675,0.025810454,0.08450129,0.14349537,0.040041655,-0.08453309,-0.045350436,-0.053961188,0.034324627,0.0139104,-0.020556414,0.0026088383,0.05745856,0.054795466,0.044903744,0.11473527,0.0006144972,0.045102175,-0.030058017
-0.023920054,0.04811231,-0.016794294,0.04583124,0.02969517,0.008380113,-0.02900545,-0.096815825,-0.06984547,0.053107932,0.088031866,-0.034137882,0.1784059,-0.076073326,0.019832203,0.053287398,-0.14984235,-0.039736968,-0.0876398,-0.15940228,-0.060687773,-0.04691324,0.02189018,-0.0028230317,-0.0008941485,-0.08503142,0.11015088,0.05457034,-0.10452032,-0.14985165,-0.096846335,-0.028999208,0.15004593,0.016625358,0.03994741,-0.006194067,-0.0392338,-0.014846346,-0.04595111,-0.04741007,0.03618249,-0.049763557,-0.01481225,-0.0325368,0.102545574,-0.024219302,-0.018355392,-0.027691917,-0.046011228,-0.0712726,0.027219664,0.029473102,-0.05037139,0.17598231,0.052127574,-0.10138393,-0.14121011,0.004190255,-0.08830297,0.03363238,-0.064573534,-0.034000132,-0.0010601773,-0.14860624,-0.04002215,0.038711987,-0.037691515,0.07609,0.08471859,-0.070932835,-0.07428863,0.01573881,-0.071694165,-0.03997631,-0.112512045,-0.032935273,-0.028469926,-0.10731517,0.02313392,-0.009692439,0.059876323,-0.03476253,0.054215875,-0.11457001,0.023950819,0.038188726,-0.09794871,0.06351314,0.07045031,-0.0198737,0.073317215,0.019629939,0.014654154,0.0892487,0.037054796,-0.0058890474,-0.031466916,-0.06276429,0.05429423,-0.16377348,0.09018143,0.067811616,-0.0373969,0.012492771,0.12890577,-0.044490065,-0.135018,-0.07660723,0.05987291,0.00572874,-0.02194427,-0.12683553,0.122274995,-0.016554946,0.15619001,0.12682329,-0.0023192442,0.11386876,-0.0036462522,0.00020584062,-0.0770976,0.08872222,0.013940235,0.04356784,0.2906805,0.07830477,0.06611324,0.02229977
0.096172266,-0.0025944682,-0.023929322,0.0018007624,0.09748932,0.12033531,-0.12398404,-0.02930348,-0.019571956,-0.100695424,-0.11341214,0.104498774,0.034315187,0.096499234,-0.062525004,-0.07398506,0.10228003,0.02928841,-0.0002578429,0.020656658,0.00571843,-0.085427344,0.03260914,0.055696763,0.07961638,-0.19603625,-0.090981014,0.063550524,-0.038710076,0.045250837,-0.035428397,0.088677585,-0.047952887,0.11655483,-0.010908021,-0.10210324,0.07014145,-0.10402756,0.020064825,0.07319693,0.07629383,0.07663741,-0.073319495,-0.08547993,-0.01907619,-0.0614406,-0.04282005,-0.013534398,-0.11406115,0.14612049,-0.14146839,-0.023803847,0.058306538,-0.037904322,0.038459226,-0.07299702,-0.018966274,-0.0043962654,0.008653743,-0.025151202,0.12350271,0.01203254,0.07774626,0.0011152469,0.11471253,0.0076983566,-0.0787844,-0.12167215,-0.14106236,-0.058195606,-0.022817679,-0.002685954,0.03418802,0.0039909654,-0.14522123,0.048373908,0.060458142,0.13831551,-0.0010176599,0.03758054,-0.012317511,0.11412149,-0.06016404,0.075702734,-0.043878637,-0.015551276,-0.050272822,-0.06311981,0.013902204,0.19609539,-0.057859465,-0.00023420947,0.019313032,0.08891335,-0.005450997,-0.01093112,0.07487566,-0.048289828,-0.08205571,0.12311235,0.092014484,0.06749003,-0.03262971,-0.08633503,-0.09428542,-0.011966958,-0.018734826,0.15561181,-0.11313187,0.05008936,-0.041027278,0.020571368,-0.0044468334,0.016136985,0.10820184,-0.041268453,-0.08465891,0.0077470047,-0.065245874,0.12056477,-0.0324179,0.043536276,-0.04775335,0.083168104,-0.020798907,-0.07112889,-0.16638504,0.0032249172
0.11731095,-0.0314068,0.048985727,0.045960996,0.17584844,-0.04247018,-0.021494217,-0.08561549,-0.022921946,0.023283606,-0.0649509,-0.018540332,-0.0048092697,0.040421993,-0.09542054,-0.017662715,0.18026896,-0.1102366,-0.08119233,0.0073435605,-0.076145805,0.1807461,-0.043419946,0.026956545,0.055188227,0.22960536,-0.040329337,0.040480528,0.0074334852,-0.0141398655,-0.111999884,-0.12425927,-0.0920835,-0.060839918,-0.01468351,0.10474157,0.060341526,0.09983514,0.059104547,0.16675955,0.087242685,0.016526375,-0.10490503,0.062488034,-0.02286997,-0.07192849,-0.07093828,0.026729377,0.14335588,0.05072009,-0.045686122,0.020994522,0.13426138,-0.066263095,0.05827195,0.015022078,0.064712495,-0.023153769,-0.037794814,0.08989598,-0.055941883,0.04212585,0.016281934,-0.04089937,-0.028184569,0.01654282,-0.0070865825,0.20784712,0.019019794,-0.016192643,0.103209615,-0.058621176,-0.024887092,0.11445254,0.07548023,0.013508867,-0.081200615,-0.07995585,0.0046587447,0.0191108,-0.026290148,-0.0060529537,0.007616735,-0.004414139,0.015682481,0.054201372,0.0030718963,-0.06654817,0.03896509,-0.102964096,-0.029730335,-0.018579815,0.028281573,0.026953764,-0.06639164,0.085317455,-0.085604556,-0.11754397,-0.09828063,0.03056443,-0.02035405,-0.07673552,0.09823071,0.094047286,0.0668954,0.059632033,0.056361616,-0.074246384,-0.07494339,-0.07403209,0.02138698,0.017439209,-0.06605011,-0.20585804,0.04515037,-0.016006429,-0.06583781,0.15327926,0.033816252,-0.03509499,-0.0128351385,-0.047442377,0.07993163,0.0489271,-0.08575924,0.11550252,-0.06529845,0.05618714
0.05036877,0.08774431,-0.025115747,-0.03204101,0.04237175,0.15090837,-0.0047392286,-0.100811295,0.123080544,-0.079680264,0.08501976,0.032650836,-0.09716991,0.0196355,0.14909841,0.0689785,-0.004226358,0.030876735,0.042134248,0.0052664736,0.07460705,0.12803364,0.018853538,-0.032163028,-0.08946598,0.17239198,-0.024407458,0.0358037,-0.06777225,-0.086254604,-0.04838892,0.06980271,0.07447422,0.014968568,0.14277636,-0.16428751,0.05568216,0.03553755,-0.099586114,-0.037658323,0.10326474,-0.062854186,-0.018841647,0.0025734557,0.06464821,-0.10830856,-0.04603291,-0.14606474,-0.07881677,0.08750219,-0.060087815,-0.16712308,0.03262591,-0.060602184,0.022500666,0.014101778,0.10770851,-0.008632506,0.08130169,-0.076646686,0.019147815,-0.026791863,-0.06065084,0.05363449,0.051755,0.0006694547,-0.0008553426,-0.12737675,-0.097611286,0.07967399,0.07948208,0.09781581,0.024153579,-0.04135802,-0.042286336,-0.09607989,-0.08564063,0.09583171,-0.0050920444,-0.028732248,0.0075620245,-0.14363068,-0.10573495,-0.091145515,-0.04397377,0.0532463,-0.017132923,-0.1042449,0.082490124,-0.02834997,0.023403026,0.101427846,0.058130365,-0.081585914,-0.046875853,0.056427527,0.04655193,-0.04281486,-0.05788285,0.0373465,0.06489342,-0.007190851,0.006530419,-0.00914076,0.041883096,-0.028824063,-0.022002695,0.07454705,-0.064506136,-0.053990483,0.09015222,-0.009226063,-0.0089868205,-0.09615297,0.010449921,-0.023312323,-0.080940954,-0.04199506,-0.083682515,0.042859904,-0.00066806556,0.02813953,0.016097678,0.12513672,0.10489528,0.06200286,0.041973196,0.034909394
-0.10009762,-0.18383425,-0.06784267,-0.016751744,0.08844027,-0.03434829,0.045853924,0.15685461,-0.10491944,0.023944287,0.023407156,0.08081372,-0.05750593,0.01297084,0.15125836,0.13719213,0.059388865,-0.095076844,-0.080260195,0.008478993,-0.008653528,-0.12350128,-0.09984656,0.013295498,0.023944005,0.08217812,-0.16261362,-0.026486952,0.033182584,0.0665572,0.02223937,-0.07676399,-0.021028714,0.10104961,-0.013975877,-0.09471663,0.09635986,0.041930735,0.1266624,-0.17506942,-0.0631166,0.0240442,0.06363007,-0.06591384,-0.0994549,-0.09892209,0.012595253,0.0511829,0.048554324,0.088434294,-0.0051335325,0.0022617697,0.09664238,-0.004344927,0.09390313,0.057170246,-0.027924526,0.0053666695,0.1083692,-0.09992638,-0.02010562,0.12825996,-0.021777257,0.02262605,0.037402067,-0.06020968,0.051139347,0.009367515,0.011857186,-0.19457081,-0.13034463,0.074889,0.07300632,0.03348567,0.12523237,0.04111664,0.06669094,-0.05635472,0.00885155,0.061004054,0.026175614,0.018790998,-0.029191788,0.011856901,0.020886445,0.08114603,-0.13084008,0.07469297,0.0070213145,0.029557735,-0.07304983,-0.09856448,0.09368179,0.026221551,-0.031145297,-0.06966744,0.10490008,-0.05239334,-0.03492836,0.018717403,0.09007129,-0.054377895,-0.13649893,0.11444617,0.14971335,-0.047043283,0.12192884,-0.06344883,-0.060400352,-0.04473823,-0.023026064,-0.087907806,0.062222425,0.07159382,-0.032269903,-0.10794703,0.16037661,-0.086207464,0.009840547,-0.05878442,-0.0479097,-0.087948985,-0.06528552,0.029485887,-0.19928491,0.06094872,0.12156478,-0.07805688
0.034056928,-0.08441528,0.032528117,0.040514234,-0.043340966,-0.017539062,0.11878328,-0.07683661,0.074201465,0.048199847,0.07068227,0.08793137,0.008101874,0.05135768,-0.016472524,-0.09722087,0.03301929,-0.050581094,0.07798298,0.0062973136,-0.02095919,0.07767989,0.0124981105,0.0021960803,-0.1403825,-0.02562328,-0.011019523,-0.041567747,0.10492578,0.10138692,-0.08900502,0.039439183,-0.1905377,0.06284699,-0.093794756,0.0076189116,-0.050269607,0.09403381,-0.07270765,-0.03095573,-0.087881714,-0.05760701,0.04788919,-0.009782818,-0.026739853,0.064425595,-0.021326482,0.006487389,-0.0063667996,0.008064007,-0.023330383,0.00081450737,0.053585593,-0.026847923,-0.025277436,-0.05259763,-0.042692523,0.004781444,0.06333853,0.08539603,0.021977028,0.060766786,-0.085797325,0.0059326403,0.018694079,-0.033511113,-0.024251372,-0.07050019,0.16814147,-0.008427788,-0.035375144,-0.033826243,-0.022998797,0.034116834,-0.061026078,-0.06493058,-0.08526101,0.11975632,-0.070798606,-0.124521375,-0.047369216,-0.055154067,-0.030015944,-0.0015514904,0.065974295,0.0348112,0.0054343534,0.02635714,-0.021763539,-0.012959232,0.06872987,0.051752392,0.092153326,0.043314546,0.12984821,-0.05509146,0.052802753,-0.05838537,0.055718176,0.04454483,-0.10177192,0.040658273,0.13464746,0.12270286,0.027954623,-0.0026401412,-0.04344744,-0.05242595,-0.101158634,0.14992334,-0.12941892,-0.054909457,0.08280039,0.02491248,0.041195918,-0.028027007,-0.13770206,-0.017826874,-0.076704524,-0.037960175,0.10006535,-0.046131916,0.015340177,0.14704566,-0.0426199,0.058203474,0.042391792,-0.0047374777
-0.045212325,-0.018114772,0.06566262,-0.063596115,0.07615855,-0.05768508,0.004012588,0.021245241,0.02444683,0.09707548,0.0113324225,0.0069699646,0.10012991,-0.074964255,-0.014985724,-0.008582919,0.0016141323,0.024559168,0.018869502,0.081518345,-0.11867657,-0.053367626,0.016767612,0.06448167,-0.10222402,-0.007384755,-0.022984028,0.11802874,0.12406547,-0.036501236,0.07378353,-0.064831346,0.008897828,-0.0613742,-0.030606873,0.078664936,-0.05079028,-0.067441106,0.09187487,0.111325234,0.0010332604,0.048905544,0.015604685,0.0025560197,0.11929277,-0.048479497,0.00090264116,-0.06831171,-0.07295664,0.11146336,-0.1840666,0.01679398,0.060249675,0.043358553,0.056309838,0.043136332,-0.069410965,-0.022248698,0.070115164,-0.1145117,-0.16043288,0.040948886,0.0849733,-0.06569885,0.004996919,-0.11603252,-0.027757147,-0.1146166,0.22133344,-0.18036449,0.026051817,-0.025200216,-0.048919994,0.076671615,-0.12298125,0.09083553,0.14993316,0.115397505,-0.07290067,-0.08070572,-0.04344795,-0.0638166,-0.24385396,-0.14016564,0.015527082,0.0004118834,-0.0027406604,-0.19221254,-0.026910687,0.02583777,0.025745492,0.06804272,-0.0048075872,-0.14590733,0.09246728,0.13736433,0.023811337,5.7271347e-05,-0.13399737,-0.046468314,-0.18752234,-0.06644783,-0.041465748,-0.055340905,0.00013843282,0.05715997,-0.08781164,-0.062607095,0.021112734,-0.10683895,0.030263515,0.01781027,0.06553161,0.059378553,0.042101238,-0.030973023,0.05674007,0.08415917,-0.015436068,0.17971797,-0.01176169,0.018808907,0.14114384,-0.03212447,0.06456555,-0.040691644,-0.108739376,0.06588031
0.042044297,-0.03160255,-0.13839348,0.014905537,-0.05899179,-0.0994958,-0.10663508,0.038337506,0.090099975,0.09523697,0.031718977,-0.038184408,-0.063353196,0.04599906,0.13821211,0.11964407,-0.12924446,-0.009595272,0.04488905,0.021292776,-0.035782013,0.062056623,0.056626864,0.04008409,-0.014781721,-0.09635066,0.03803209,-0.014210048,0.08531882,-0.12525308,0.015949937,0.14552756,-0.09228545,0.004155301,-0.010450543,0.085017815,0.016376674,0.03257747,-0.06415089,-0.022919396,0.07665389,-0.017568504,-0.018862192,0.1222381,-0.0144780865,0.11231173,0.06190983,-0.032110352,-0.07761434,0.028947635,0.031859893,-0.004770904,-0.024311995,-0.012584112,0.052345566,-0.007500877,-0.17785732,-0.02276901,0.088643014,-0.0035002567,0.0065709255,0.028120635,0.02810991,0.104968585,0.017466592,0.08029482,0.03715099,-0.05303643,0.09966429,-0.2541665,-0.05638048,0.113484696,-0.08744181,0.036896575,-0.065813,-0.16021411,-0.016847568,0.0026779342,-0.09607788,-0.011408109,-0.028631236,-0.041879956,0.02815083,-0.0069477414,0.040223554,-0.01044538,-0.09514316,0.13161743,-0.10946064,0.055358026,-0.053372215,0.013441892,6.438535e-05,-0.016882079,-0.028162017,-0.014231638,-0.015364571,-0.13093996,0.04417418,0.11960588,-0.010640778,-0.08889079,0.08364141,0.0073791663,-0.014262643,-0.0659117,-0.09369542,-0.12087872,0.04257236,-0.04753579,-0.0003478431,0.06778869,0.04827908,0.08323843,0.07013433,0.010994226,-0.250888,0.044525012,0.080126196,0.01065394,0.024378298,-0.092501864,0.008130983,0.036488086,-0.13614488,0.15555948,-0.1295417,0.028212406
0.055342462,0.059012298,-0.016666405,0.087500826,-0.046923317,-0.034196053,-0.02998614,-0.066101834,-0.04962836,-0.034271337,0.15161642,-0.062377825,0.07137185,0.046430755,0.062187076,-0.047775343,-0.07032664,-0.12470918,-0.06387255,0.10028707,0.014030538,0.023919746,0.1569788,-0.078335546,-0.078659154,0.034067012,0.081351794,0.045868933,0.055300124,-0.002706918,0.100456394,-0.008848669,-0.18295881,-0.10239197,0.06990685,-0.1181831,0.13859576,-0.07346541,0.15077195,-0.1417228,0.069415465,0.065222204,-0.005353514,-0.13640097,0.06842164,-0.07630336,-0.07284041,-0.07818724,0.02884975,0.08985823,0.08942786,0.08284843,0.06410718,0.07995366,0.04953552,-0.11974029,0.011201903,-0.043091875,0.083955176,-0.02787269,0.051838573,-0.008504376,-0.068607986,0.030040368,-0.049488775,-0.034584586,-0.005257748,-0.0008070098,-0.13186677,0.047569487,-0.07211627,0.09791841,0.012476836,0.02067229,0.007790556,0.0301238,0.013056716,-0.03689401,0.112314254,-0.06587605,-0.08482849,0.034949556,0.07705049,-0.06580883,0.07425828,-0.029438829,0.09242641,0.009674248,-0.097362824,-0.01718003,0.04019297,0.013227729,-0.18421185,0.0070048245,-0.11274229,0.12776193,0.03244686,-0.073848665,0.014344472,-0.06469053,-0.01672692,0.041986182,-0.036410447,-0.0074659428,0.071050435,0.01780456,-0.08119331,-0.058774535,0.0016953512,0.08801885,-0.098604344,-0.041288566,-0.0423155,-0.09224578,-0.04303634,-0.05467317,0.090473704,0.024289818,0.048984192,-0.003707083,-0.1410047,0.115586855,-0.03016141,-0.008691164,0.035126794,-0.03756844,-0.12890051,-0.09957931
0.0005889133,0.06844263,-0.07477283,-0.02289915,-0.1368803,-0.034879334,0.109786265,-0.015991805,0.0068362555,0.072214805,0.025420807,-0.013968183,-0.10232156,0.06256339,-0.17390622,0.05820955,0.0024091306,0.028806182,-0.008880314,-0.030496636,0.04630802,-0.16477035,0.05716962,0.0764558,0.06015941,-0.1283337,-0.08861196,-0.12448788,-0.056324072,0.012572335,0.12278544,0.078934394,0.08294157,0.074151054,-0.09981522,0.014540629,0.2110666,0.059388313,-0.06473274,-0.019310357,0.11393787,-0.25651404,0.08725524,0.034089215,0.11445459,0.06588255,0.036725964,0.15086193,-0.03949787,0.13445374,-0.08659153,0.051613957,0.00058609224,-0.1531347,0.04026764,-0.012369121,0.013007927,0.020545032,0.024861,-0.08456606,-0.020151086,0.000462732,0.10371945,0.038952094,0.038922627,-0.07542763,0.10676181,0.18037845,0.111933745,0.08273547,-0.04404117,0.033074368,0.051133335,0.036742296,0.050020624,0.06603234,-0.15450755,0.033108298,0.06018856,-0.09176898,0.023198966,-0.10109605,0.009802153,0.074631214,0.047333892,-0.023980353,-0.18288064,-0.09154159,0.020846643,0.05570986,-0.0411409,0.01845234,0.094352506,-0.013522758,0.07324072,-0.06694505,0.051321227,-0.047984105,-0.0011909298,0.028365413,0.0013719909,-0.020346873,-0.11651301,0.06334799,-0.026325494,0.10693154,0.0418953,-0.12518276,0.027529899,-0.06856138,-0.12811512,0.038504224,-0.18335329,-0.029603047,-0.020723334,0.08419635,-0.19160478,0.016203964,-0.053257756,-0.11194183,0.048404027,0.037774198,0.02588628,-0.06122029,0.044124402,-0.07085999,0.013500509,0.2038995
0.0003974774,0.07362188,-0.023214549,-0.05134093,0.020810325,-0.012462816,-0.12885118,0.06994281,-0.053983424,0.025570387,0.080435365,-0.0077166427,-0.0542203,0.03153657,0.028189508,-0.051983476,-0.09063238,-0.035145674,-0.07545563,-0.056048255,0.14421824,0.0576242,0.009960774,-0.02626558,0.118860036,0.064695954,0.009534055,0.068442196,0.030277949,-4.109925e-05,0.01743001,0.010246968,0.117410064,0.03562132,0.017952958,0.133386,-0.17235215,0.10182063,-0.032435212,-0.113049716,0.09942945,0.08319151,-0.052624322,0.057653334,0.050790276,0.028152697,-0.06696281,-0.11417158,0.027792552,0.047739297,-0.046890136,-0.039459966,0.11574086,-0.12385858,0.040198233,0.083295695,-0.04159816,-0.08329574,0.0567862,0.1083567,-0.08335557,0.00056010234,-0.026005745,-0.03293763,0.15847594,-0.06762729,0.05699938,0.009272613,0.08134897,0.13184434,-0.0354444,-0.07516132,0.05984347,-0.0409274,-0.2682551,0.038533196,0.08988369,0.123166315,-0.017245488,-0.0025691274,0.03332587,-0.010246286,0.024979973,-0.068590544,-0.055026975,0.06334106,-0.07771667,0.02153127,0.0142795835,0.002848352,-0.09816201,-0.05934391,0.01912387,-0.031083843,0.0069546998,0.0063223387,-0.12634887,0.036605593,-0.053413395,-0.07991839,-0.038097944,-0.17162007,0.02851236,-0.015027249,0.038626526,0.040236857,-0.08860243,-0.05232819,0.0053503844,-0.07776169,-0.1214041,0.0061712004,-0.029499326,-0.096469045,-0.04919436,0.031066185,-0.06338422,0.04161954,-0.101143025,-0.018465603,0.0074800104,-0.07477751,-0.121670656,-0.08300444,0.058905847,-0.07875378,0.011392199,0.018291706
-0.052800834,-0.057445228,0.0076964065,-0.052090377,0.039675314,0.073136196,0.040387876,0.06841176,-0.0042068018,-0.053485855,0.14497769,0.037343435,0.010141512,-0.032824527,0.08617042,-0.010623626,0.022921449,0.036269885,0.006370078,0.014971884,-0.01842912,-0.049905676,0.00935394,-0.054380927,-0.039528407,-0.021172129,-0.065548986,-0.1358088,0.080348276,-0.07642384,0.05075052,0.09964,-0.07110845,0.056549374,-0.038508825,0.012227513,-0.0068479115,-0.022208013,0.08122884,0.0085678045,0.015594451,0.07501769,-0.10359389,-0.013530908,0.028432561,-0.081420265,-0.033397198,-0.13877958,0.034564298,-0.07542915,0.015257345,0.0061091078,0.012562148,0.054561112,0.19948378,0.059140146,-0.08601717,0.018673817,-0.074053414,0.106867164,0.10671102,0.030464485,0.025062988,0.024799211,0.010522922,-0.14955585,0.10376737,-0.004611501,-0.11186878,0.07189832,0.022900594,-0.0461116,0.11983957,0.060267087,0.07840664,-0.06648179,-0.058213823,0.04458141,0.03846778,0.103957996,-0.024697639,0.026598644,0.003903218,0.07284749,-0.016701156,0.067462854,-0.017696204,-0.068140395,0.089174375,-0.09065258,0.025232472,0.06614192,0.07661703,-0.15348218,0.03548418,-0.028645715,0.24603188,0.09390508,0.03845365,0.034851827,0.008329642,-0.12233288,-0.029609324,0.007714507,-0.13749592,0.078324735,0.07348632,-0.055153474,0.054111294,-0.033665206,-0.08203055,-0.022464352,-0.10500932,0.0060974425,0.11357909,0.010322746,0.0088377055,-0.114837974,0.0943209,-0.075913124,-0.027736435,-0.13191451,0.016471935,-0.028094744,0.0137217995,0.0524222,0.080292195,0.055760626
0.08443266,-0.01182574,0.10457023,-0.04400098,-0.063446544,0.07067398,-0.056538228,-0.0626067,-0.06592023,0.0066409167,4.4284887e-05,-0.09001766,-0.076230116,-0.05983385,0.10055544,0.047415014,0.1535388,-0.025033839,0.05476048,-0.093390785,-0.05780156,0.0351417,-0.12984395,-0.018308908,-0.05648943,0.16729313,-0.039004073,-0.058113553,-0.060851745,0.24041362,0.044231206,0.0886841,0.012122902,-0.0566088,-0.028352052,0.08336657,0.1172516,0.029831052,-0.014335612,0.06485858,-0.004519674,-0.01904303,-0.07235429,-0.05337009,-0.07696578,0.13949484,-0.09867537,-0.023060996,-0.0846738,0.02587029,0.015697747,-0.066070996,0.013117305,0.028028665,0.06425945,0.0668069,-0.025652269,-0.028706342,0.16507919,-0.005039468,0.09666336,-0.026241211,0.06422274,0.015633896,-0.005776436,0.07226002,0.010099647,-0.04439234,0.22114165,-0.03836298,-0.1422394,0.15890908,0.015449046,0.03253346,0.10516175,-0.024974082,0.0030180735,0.0973894,-0.16133368,0.0399034,0.14029287,-0.11734036,-0.039129972,0.056611367,0.013278507,-0.0051075723,-0.020561634,-0.079900704,0.02356358,0.07534654,0.06812395,-0.044452183,-0.12781152,0.01843111,0.019453065,-0.0074756877,-0.012511479,0.096381314,0.070328705,-0.0054659685,0.10490743,-0.0017763871,-0.029899258,-0.0011189111,-0.021604067,0.035545606,0.037134603,-0.01119712,-0.06957754,-0.0072990716,0.038078956,-0.032753654,-0.025670512,0.013831304,-0.14140068,0.06087061,0.13653898,0.0057285097,-0.16202843,0.03783568,0.054374307,-0.10177947,0.00427491,-0.1591168,0.051555373,0.0007434815,-0.068051085,0.0013414546
0.027576294,0.03470258,-0.025325503,-0.018708043,-0.09601215,-0.1879459,0.060417034,-0.08841,0.019746946,0.020262072,0.11678685,0.051727198,0.007995644,-0.008592318,0.09514323,0.262479,-0.098726206,0.03930244,0.03706095,-0.0027329794,-0.039815877,-0.028672837,0.07928458,-0.0065159397,0.08698127,-0.035281956,0.00034072142,-0.031202823,0.052283358,-0.025173513,-0.0062306696,-0.008321272,0.0013211286,-0.17778721,0.005311547,-0.022842625,0.058048222,-0.014912137,-0.005410844,-0.09652946,-0.09993488,0.10942206,-0.030637538,-0.011543418,-0.15580499,0.032028474,-0.06656016,-0.0296208,-0.019423507,0.0019105587,-0.09464269,0.08167533,0.024008477,-0.18243556,-0.07064748,-0.07061903,-0.066968955,-0.08004125,-0.013965536,0.13903265,-0.016191531,-0.07582127,-0.027047565,-0.20329763,-0.11994322,-0.05757922,0.009895953,-0.09841357,-0.12521169,0.021579979,0.12362082,0.11262722,0.074444264,0.018171323,-0.082567334,0.12830898,0.06878376,0.010036647,-0.04032915,0.02816181,0.11191269,-0.05801885,-0.098048784,-0.12774178,-0.039233092,-0.019360475,0.037788246,0.035099275,0.10113689,-0.1193829,0.019488031,-0.029797934,-0.028958537,0.014279104,0.11536032,0.03529728,-0.022900693,-0.0067384695,0.09810392,-0.062449683,-0.11122027,-0.010870518,-0.22684498,0.09027538,-0.02333046,0.1531826,0.0102443,0.11680782,-0.014191106,0.06262626,0.058912415,0.095019445,-0.07153765,0.16617775,-0.09014538,0.029229192,-0.10950474,0.0036607336,0.04696389,-0.06682119,-0.060939126,0.098512955,0.06325449,0.023902921,-0.007325513,0.12169024,0.03991212,-0.015115608
-0.011260228,0.0300747,-0.15513656,0.008103909,-0.034505244,0.118024945,-0.10615443,-0.1504021,-0.071331315,-0.0460484,-0.06413506,-0.16346899,0.014031739,-0.0405459,-0.085157916,0.098955415,0.021994904,-0.0148536945,-0.0065682093,-0.008022896,-0.054318365,0.021699509,-0.18336028,-0.04676998,-0.13038576,-0.0785442,-0.057314143,-0.13014682,0.044656396,0.1474883,0.017778289,-0.02735213,-0.058315214,0.042154443,0.018818002,-0.02859976,-0.026050601,-0.08414,-0.018119598,0.028349545,0.24786295,-0.1316539,-0.0018576699,0.017997693,-0.0917554,-0.03146792,0.1752527,-0.07043536,-0.059016287,0.014037305,0.116784945,0.048637528,0.054900415,-0.043318097,0.14402433,0.081422396,0.15487473,0.05439314,-0.07702622,0.06671904,-0.09711032,0.019949304,-0.07224345,-0.18356623,-0.017806452,0.008607856,0.041517533,-0.16367729,0.08853135,-0.021855745,-0.017100634,-0.0142149655,0.04673341,-0.061680187,-0.07465185,-0.05174636,0.16867808,-0.0702405,-0.023928545,0.053321484,-0.0189694,0.044088334,0.12524268,0.03540692,0.06499879,0.03117879,0.043446876,0.12760256,0.053626087,0.06615431,-0.097820655,0.031888705,0.1956655,-0.09211342,0.16136248,-0.04432426,0.0556876,0.22280386,-0.04878524,0.019951252,-0.11479291,0.0223413,-0.02111253,0.0035529248,-0.09662157,0.066292435,-0.01320235,-0.011425147,-0.013676897,-0.01472723,0.10510004,0.061768007,-0.08560445,0.019534098,-0.04119106,-0.027426025,0.08750204,-0.025656525,0.011023857,0.1921403,-0.025167376,-0.026270434,0.02583983,0.00762802,-0.09458391,0.022273729,-0.027887963,0.08000793
-0.10883902,0.21343057,-0.043627687,-0.070152834,-0.011359419,0.038156427,0.07511467,0.07107528,0.11033795,-0.035960346,0.09489286,0.11676868,-0.06971528,0.011404409,-0.0924816,-0.12665018,-0.010381538,0.07576458,-0.0063383216,0.01896931,0.048174195,-0.048722956,0.07726314,0.050521653,-0.005432453,0.032479186,-0.14071068,-0.04114433,-0.10614324,0.18461268,-0.017264681,0.11515024,-0.033768393,-0.08828785,0.004441103,0.18845043,0.012701598,-0.12318373,0.11889145,0.073329575,0.090835385,0.020086408,-0.05872311,0.01332469,0.039040376,0.020844396,0.0011112669,0.03523447,0.038168777,-0.023190912,-0.10114842,-0.121688746,0.03687979,-0.09113921,0.016164083,0.06860628,0.09315718,-0.012408754,0.13971944,0.01690535,-0.055475034,-0.010809827,0.0039439816,-0.1632794,-0.09505271,-0.103888355,0.13287519,-0.05754787,0.108594984,-0.09213749,0.041319113,-0.18809341,-0.10462826,0.07413866,-0.0064612557,-0.027304638,0.0048456336,-0.08670611,-0.11759627,0.08057205,-0.009085924,-0.08971215,-0.007986683,0.03757229,-0.034772508,0.09594828,-0.044110566,0.08179961,-0.02777633,-0.009924631,-0.02065177,-0.07795468,-0.13157317,-0.092206515,-0.12454016,-0.042739064,0.0049887286,0.054843545,0.049575854,0.08261874,-0.024327448,0.13577452,0.008783778,-0.108051635,0.10519349,-0.022995241,0.0828792,-0.0063648424,0.0029968012,-0.011812161,-0.022229992,0.08972795,-0.04568367,0.09846407,0.13360155,0.0014587631,-0.029156657,-0.04233966,0.023439718,0.07420974,-0.026258454,-0.097210385,0.02121469,-0.07235878,-0.1509859,-0.022274746,0.13847075,0.03169477
0.12748161,-0.040017854,0.007365571,0.012072004,-0.023567345,0.032130536,0.014365224,-0.014891456,-0.06952913,0.102514274,-0.018861135,0.04101979,0.03335111,-0.028111145,-0.066804014,0.0327088,0.06489779,-0.0011320635,0.051286843,-0.0778599,-0.06617951,0.06619462,0.05778793,-0.081404865,-0.06652162,-0.13923812,0.12046399,0.09649246,-0.045589574,0.09861862,0.13659602,-0.06447258,0.03090016,-0.1296763,0.07512645,0.0037837827,-0.03825494,-0.015144064,-0.0444535,-0.0476577,0.09050173,0.01622381,-0.06046251,0.06679773,0.050623506,0.018406603,-0.05420676,0.06834827,0.062498476,-0.09461154,0.13065742,0.069731496,0.1021609,-0.108767845,0.06773198,-0.047992874,-0.0022187678,-0.029116988,0.011067765,-0.15092365,0.080913395,0.031072762,0.03585913,-0.17012316,-0.009298845,0.011635108,-0.050447997,-0.21174262,-0.06630721,0.02563486,0.0012737324,0.020525297,-0.005591333,0.007459634,-0.04092379,0.072113745,-0.17506577,0.09512548,0.114737876,0.043690607,0.083916545,0.0015527899,0.2357809,0.075376466,-0.07794129,0.05021127,-0.07433753,-0.11271913,-0.022511175,-0.23550186,-0.038676832,0.064542726,-0.018099602,0.0045582945,0.03259076,0.12345262,-0.09163161,0.019530568,0.04606633,0.05049691,-0.065457255,-0.0042095473,0.010354056,-0.07638791,0.050685298,-0.02282543,0.104855746,0.0041993065,-0.033434037,0.048492048,0.016609132,0.081434645,0.040663503,0.03310612,0.061349552,-0.031100048,-0.06813989,0.010928558,-0.049791653,0.055350136,0.07815796,0.019835804,-0.01580999,-0.0929096,0.12207199,-0.010947406,-0.005434366,-0.024315927
-0.08116022,0.08426639,0.030871447,-0.048686985,0.012457535,-0.052994177,0.07951713,-0.00044089748,0.028607404,-0.010772279,-0.07846478,-0.08462389,-0.016595326,-0.017610166,-0.09602408,-0.04883406,-0.073021375,0.0122319525,0.030948956,-0.03939157,0.011462086,-0.025743477,-0.042476933,0.045516275,0.041252464,0.031412445,-0.022053497,0.035054155,0.014913279,0.124177955,-0.070452735,0.050750397,0.08968525,-0.054649882,-0.055765532,-0.030256297,0.102364466,0.05710085,0.011402676,-0.019275425,-0.104003474,0.0630742,-0.038821854,0.011734775,0.05680966,-0.027237047,0.006810733,-0.03518353,-0.06855755,-0.034573816,-0.05175832,-0.100818835,0.037483603,0.109473854,-0.009921969,0.041746065,0.058922727,-0.14916311,-0.14680815,0.053057455,-0.13542137,0.07957489,0.007668726,0.08702014,-0.014911944,-0.08251144,0.026535954,-0.10367489,0.01735736,0.027581979,0.0691274,-0.052141707,0.003140083,-0.05741737,-0.04436916,-0.011791772,-0.053995173,0.027793782,0.010487738,0.13042152,0.001098755,-0.10539441,-0.013342575,-0.02352606,0.06851644,-0.07038682,0.08023008,-0.014927898,0.060365736,-0.043551084,-0.0276532,0.109148234,-0.0032573815,0.01421391,0.10404863,-0.019640714,-0.03690293,-0.034192193,0.032890163,0.013756867,0.030943744,0.048229184,-0.049214035,0.015263348,-0.10580716,-0.052616727,0.19929321,-0.043699943,0.03438222,-0.020684566,-0.061456908,-0.03504854,0.15449835,-0.041505944,0.009239002,-0.060266625,-0.06269614,0.051744446,0.14200787,0.026922105,-0.024976825,0.093642935,0.06883164,-0.09609529,0.020708684,0.035427347,0.0072938916,0.016926583
-0.03920151,-0.12516648,0.07542563,0.029169492,0.065384634,-0.16519372,-0.0010247589,0.025918065,0.03122943,0.02680916,-0.014792676,-0.09868955,-0.08605391,0.009795534,-0.062919766,0.06311057,-0.21019098,0.025743805,-0.08711829,-0.075667664,0.07839809,0.17890148,-0.026452042,-0.012240372,0.045201648,-0.045520116,0.0010491644,0.033173054,-0.0046425164,0.054239146,-0.09809385,-0.01785521,0.019106708,-0.008186577,-0.041404616,0.064446494,0.102445185,-0.043441366,-0.073789425,-0.08634078,-0.036440197,-0.018966176,0.028703533,-0.061224304,-0.018618243,-0.07092887,-0.013816882,-0.10109431,0.014077479,-0.016232692,-0.0031185546,-0.00049938523,0.07279669,0.0050041187,0.01757797,0.023376772,-0.03029483,-0.06941401,0.08243769,0.02710734,0.093363814,-0.03835681,-0.026514836,0.10663243,0.010502316,-0.00047118557,-0.07340833,-0.16154459,0.17739932,0.13440083,-0.036550898,-0.06336253,-0.07698499,-0.020971168,0.1363229,-0.00907865,0.0004103613,-0.05425312,-0.03433155,0.057067808,-0.04165021,0.095291436,0.019983023,-0.006525613,-0.035958502,0.008882934,-0.13808665,-0.07598425,-0.0644992,-0.007597856,0.036666784,0.028144281,0.0076815584,0.13576189,0.0627317,0.0403256,0.047865544,0.11151527,-0.10842395,0.032482427,-0.042851683,-0.0052168593,0.018868824,0.08206647,0.07431733,0.013953275,0.043211948,0.14378288,-0.0089731235,-0.017593276,-0.017472344,0.05817954,-0.0013662737,-0.14372201,0.07218082,0.024606435,-0.12285978,0.046510752,0.11766794,0.119648755,-0.13600115,-0.20070283,0.059125118,0.051472392,0.04729147,0.012261289,-0.04283017,0.0061534154
0.0072648004,-0.013579682,-0.008095343,-0.038143802,0.015408485,-0.061571978,0.022132214,-0.021410175,-0.042618144,-0.018105885,-0.010493517,-0.0025225973,-0.18550828,0.09597488,0.032304183,-0.08083117,-0.10398915,0.042780954,-0.00088672794,0.08979703,-0.07227339,-0.07406869,0.10619564,0.034264233,-0.03935333,-0.07036803,0.04017659,-0.03542675,-0.19414133,0.16418093,-0.015606657,0.05521402,-0.027937295,0.008820518,-0.08616953,-0.020788802,-0.02427853,0.13256568,0.013600514,0.023048086,0.0010911275,-0.014130587,-0.040150646,0.07146024,0.042222228,0.13163437,-0.03648822,-0.20944543,-0.011555173,-0.025279464,0.12405431,-0.019591708,0.085170515,0.038471267,-0.16727693,0.024677187,0.08007156,-0.0470799,-0.05840297,-0.09191708,-0.07401785,0.07927671,-0.027307618,-0.02059153,0.15510508,-0.03473747,0.0136411255,0.18226549,0.015918192,-0.20574172,-0.009826884,0.17383836,0.13782078,-0.05134916,0.021421853,0.024923827,-0.013068983,0.051965397,-0.07856114,-0.011565639,-0.13276383,-0.08454364,0.08308233,-0.03692805,-0.026401788,0.15933399,0.08131281,0.0019342027,-0.048757363,-0.015384261,0.05439966,-0.080477275,0.008708415,-0.09311475,-0.06499786,0.04792839,-0.19465752,0.12452772,-0.02111165,-0.06644727,-0.024911936,0.07903077,-0.018928988,0.017268805,-0.07114209,-0.06346897,0.07979841,0.001029525,0.10946889,-0.027622046,0.03294687,0.04676851,0.06064158,0.06859721,0.18728489,0.078250565,0.07007352,-0.23707479,0.12033047,-0.03795287,0.0017804805,-0.11447625,-0.037157543,-0.012004034,-0.119022705,0.13606909,-0.086522326,0.0007129559
-0.08114697,0.006056775,0.027488982,0.021578519,0.029307513,0.18810962,0.038935453,0.047731314,-0.04893276,0.047933623,0.024185494,-0.04406873,-0.04953436,0.062194824,0.037875112,0.06163843,0.097108856,-0.051801037,0.0066070906,-0.0010674829,-0.058223337,-0.16098629,-0.023397882,-0.08178341,-0.049222972,0.057384826,0.12250763,0.06000448,0.045872908,-0.20712824,-0.2471569,0.090774894,-0.012520911,0.09504672,-0.065428875,-0.008260126,-0.00938154,-0.035094082,0.03166041,-0.015452473,0.029875044,-0.056937583,-0.02382711,-0.015435918,0.09471883,-0.016263163,0.022091419,0.032294,-0.18963927,-0.0013452916,-0.0099745095,0.066471405,0.05879911,-0.095073186,0.002562483,-0.06199796,0.11753435,-0.047165897,-0.08358262,-0.007971645,-0.17027697,0.0762263,-0.00546405,-0.01411035,0.08325355,-0.061340064,-0.041642908,0.031774048,0.12101419,-0.043282934,-0.074001014,0.08656231,0.08968038,-0.040388115,0.100024745,0.035629824,-0.14189747,-0.043716427,-0.08439619,0.025060887,-0.10240778,0.13813736,-0.07178108,0.010230607,-0.042668477,-0.044061594,-0.07923246,0.0013008687,0.10190076,0.17030106,-0.012377287,-0.0559885,-0.023076927,-0.091541275,-0.00950089,-0.051635876,-0.0060276873,0.16596629,0.013669302,0.029422155,0.037925955,0.027624065,0.12157948,0.043870185,0.045578815,0.021307116,-0.017136578,-0.05040735,-0.06512624,0.036890868,0.02152339,0.05794619,0.0069691325,0.012882776,-0.048156735,0.07910034,-0.0054341457,0.120488495,-0.0031881188,0.059515268,-0.025845755,-0.05369607,-0.08976309,-0.092588104,-0.03073879,0.049908012,-0.008001249,-0.071435496
0.12596534,0.04453307,0.0022066887,0.05658459,-0.03616213,0.15307425,0.0747384,0.0012201456,-0.10524625,-0.04803994,0.07675884,0.039474525,-0.081624284,-0.048993405,-0.019128246,0.08528081,0.00082230475,-0.04982771,0.040462982,0.107487924,-0.019111512,0.009316865,0.08869891,0.07791433,-0.09189604,0.083594695,0.01813636,-0.045228772,-0.07015271,-0.12189597,0.017262757,-0.027787557,0.05825613,0.072365694,-0.041163083,0.08544466,-0.07663967,-0.013226799,-0.11423955,-0.005588633,-0.04064574,0.1851253,0.03984889,-0.013744578,0.09502604,0.04108078,-0.11359751,0.0125936605,0.08020572,-0.041085523,0.046675812,0.10507243,0.0740619,0.030824717,0.057375524,0.100967996,0.06758777,0.1359562,-0.09747394,-0.031976648,0.08669509,-0.009027669,-0.074884385,0.0776661,-0.040255178,-0.076721065,-0.04221809,-0.011417308,-0.021959897,0.072932474,-0.15108298,-0.021295398,-0.0014431904,0.03061634,-0.044185884,-0.06660669,0.05433657,0.022421729,-0.13285497,0.023110623,0.26578963,-0.08152623,-0.034903612,-0.06775008,-0.07749931,-0.10602012,0.093529,-0.037847165,-0.058382854,0.110466816,0.04356632,-0.051609844,0.07192237,0.15841849,-0.005434987,-0.055739164,0.1126163,0.06258592,0.12077677,0.040599596,0.035787173,-0.02679478,-0.039183397,-0.12162399,0.024696277,0.10280865,0.14303923,-0.05152887,0.10696158,0.049822472,0.12802908,-0.075669125,0.028626444,-0.031949617,0.12014677,-0.05897207,-0.121031016,0.0034721456,-0.06472486,0.033603936,-0.024453472,-0.029648343,0.010364147,-0.09027637,-0.1615198,0.04782677,-0.008942132,0.04959152
-0.028437056,-0.03720942,0.029275196,0.030010901,0.026394838,-0.076034606,0.06403772,0.07087911,0.027921388,0.09079247,-0.031815734,-0.005019783,0.014539152,0.10479118,-0.09565483,-0.072298616,0.107912056,-0.15443362,-0.10905837,-0.024780734,-0.025393095,-0.07977143,0.011000564,0.015572867,-0.009868464,-0.011538168,0.09941845,-0.009350983,-0.05561674,-0.08043948,-0.2215761,-0.053276494,0.015513868,-0.022840165,0.06325416,0.004958949,-0.011038288,-0.0044717793,-0.057049096,-0.011929611,-0.05206101,0.013382575,0.021187726,-0.11370629,0.029836828,-0.036155395,0.07495578,0.10331179,0.110479124,0.024161465,0.13148303,-0.17306718,0.19113247,0.056787312,-0.004708064,0.0106954025,0.0068164333,-0.042654075,0.03776904,-0.08087875,0.042806722,-0.05422008,-0.059641894,-0.14233491,-0.046157606,-0.020295346,0.13643675,0.05592348,-0.013951077,0.038100746,-0.018633066,-0.07506404,-0.062509805,-0.05147665,0.05599391,-0.025586596,0.06966594,0.12376497,0.06440569,-0.052016065,0.15654528,0.045382813,-0.086586766,-0.024907507,-0.063195914,0.027752966,0.007069525,0.100428544,0.099507034,0.07452521,0.080878295,0.09594924,-0.08516142,-0.0041851783,0.14475799,0.07275268,-0.07212202,0.0820678,0.009102536,-0.057853226,0.05917309,-0.059433453,-0.12137954,-0.055654105,-0.041320544,0.03780978,-0.060532015,-0.024998344,0.10379064,0.076303124,0.10304238,-0.02113713,0.05580841,0.14741132,0.0130250165,-0.08095502,-0.23310786,-0.17538148,0.033507243,-0.04716207,-0.00980222,-0.046825092,0.04913064,-0.02317703,-0.092991106,-0.06263998,-0.12700452,0.061528083
