0.048799235,-0.021985158,-0.512618,-0.007519195,0.004999286,-0.0012900835,-0.0139428,0.019414108,0.04935388,-0.005497161,-0.026061708,0.02989331,-0.02037863,0.0607898,-0.008881436,0.08488077,0.06896438,0.033819903,-0.0012203184,-0.053230997,-0.008239644,0.02895764,0.19570504,-0.03279908,-0.031129763,-0.008515186,-0.0020853926,-0.027037138,-0.03606992,0.011190505,0.036076177,0.027623674,-0.28718475,-0.00011383633,-0.024243621,0.0041281846,-0.023446854,0.06364825,-0.005546812,-0.011396072,-0.0099495305,0.008990054,0.033170298,0.033727724,-0.033219624,0.011554801,0.011145887,-0.017189607,-0.019237714,0.018190123,0.06476479,-0.046832275,-0.049951125,0.028861934,0.013545221,0.022377841,-0.039613076,0.0039150417,0.0009615835,-0.045737155,-0.015954204,0.026631432,0.03632117,0.04123626,0.031098425,-0.00766525,-0.014698327,0.025801836,0.01922211,-0.02348334,-0.014708511,-0.011012094,0.008604334,0.07186005,0.041480962,-0.01392212,0.0030891087,0.050335415,-0.068861715,-0.040343706,-0.014886879,-0.012010733,0.058006614,0.040696174,-0.025338875,0.012488853,0.022425592,-0.012613225,0.0026673076,0.03147032,-0.08265318,-0.028764786,0.005050608,-0.015931815,-0.046110537,-0.042075403,0.030794905,0.057421964,-0.015246042,-0.0021462743,-0.01460627,0.01919058,0.01181093,0.04716347,-0.01927569,0.08394429,0.05848191,-0.04989558,-0.045358486,0.022325939,0.030095048,-0.015686043,-0.05221096,-0.0030688161,-0.019394593,-0.017755352,0.0063032373,0.035327073,0.00063275243,0.0047122277,-0.00264403,-0.04688778,-0.019192258,0.086545765,-0.07317753,0.080832444,-0.0090497555,0.012281693
-0.035620186,0.008836693,-0.03629133,-0.025620915,-0.036160182,0.008465988,-0.004185671,0.0021890162,0.018750323,-0.03986858,-0.00023282492,0.03904709,-0.07298604,0.05142667,-0.007971937,-0.0069380202,-0.013691075,0.023542702,0.025514612,0.0174331,-0.010373574,-0.06661941,0.024717353,0.021996869,-0.07710687,0.040701702,-0.01811148,-0.0019413205,-0.0041264445,0.05100064,0.0057066097,-0.005119044,0.0029105577,0.036256634,-0.028757274,-0.022639869,-0.00077888434,-0.002225464,-0.062206924,-0.03525552,0.024439206,0.025337234,-0.009294408,0.030877318,-0.0049249786,0.034477293,0.012972149,0.01739073,0.00025026425,0.05999106,-0.0022104804,-0.030383915,0.0113705145,0.009582518,0.017020272,0.073434465,0.06238175,-0.010104374,0.038744126,-0.008812733,-0.059638534,0.030466152,-0.04299788,0.014953905,0.0517514,-0.017585564,0.0055642654,0.00975916,0.035301995,0.002200912,0.021604823,0.022361174,-0.010273195,0.018540973,-0.0054779043,0.00037761798,0.014865628,0.033588614,0.0010942416,0.01236493,0.007555457,-0.08064112,0.067159675,0.015080776,0.033016745,-0.02216896,0.052774087,-0.08201631,0.019577244,-0.026776051,-0.04260788,0.037698403,-0.060925025,0.039657705,-0.0048822304,-0.039170936,-0.0016331583,-0.037809137,0.022247262,0.08198958,0.05132796,0.011289963,-0.019611094,0.023351971,0.034993943,0.014234596,0.013689964,-0.034317058,-0.0028351385,-0.11024215,-0.028066067,0.026294716,0.061306655,-0.0004488533,-0.012932825,-0.036362793,-0.00078081037,-0.051119465,0.02235102,0.008900035,-0.016530378,0.0011266215,-0.035350952,-0.06816321,-0.060463198,-0.052477166,-0.009874436,-0.051069077
-0.052386694,-0.0072738104,-0.025076305,-0.0084144315,-0.033572488,0.0039513675,0.00487541,0.0015956687,0.03273166,-0.040866505,-0.01786314,-0.008352289,-0.036578264,0.029369012,0.005305805,-0.032453038,0.004741255,0.0268406,0.038285073,0.051687386,-0.03579973,-0.010021941,0.0049189106,-0.0032116582,-0.06483799,0.016243787,0.0056851967,-0.027047072,0.032320034,0.028927717,-0.021746958,-0.017771853,-0.00836398,-0.01217541,-0.027032495,0.026343895,0.009287333,-0.022364652,-0.0111142155,-0.01895486,-0.0024671853,0.007446122,-0.04149191,0.021819249,0.003990457,0.040480595,0.006314296,0.010663845,0.01322878,0.029291658,-0.026234757,-0.0324631,0.018416429,-0.013955221,-0.008700262,0.03829444,0.057987384,-0.012348582,0.0011865065,0.018575495,-0.024204046,0.052464735,-0.025689216,0.014179691,0.029113159,-0.004291546,0.010880929,-0.015361663,-0.01024998,0.0025791265,0.00057624263,-0.027421245,0.0452921,0.00092492334,-0.03479556,-0.017436724,-0.008417004,0.014908854,-0.017368441,0.027960265,-0.0093832,-0.05281686,0.04448602,0.033303853,0.018067798,0.038791344,0.016776308,-0.029217433,-0.007262394,0.009900801,-0.03154,0.009283577,-0.040088054,0.0024335582,-0.010737429,-0.007155156,-0.0050865016,-0.003768703,0.024404036,0.084593765,0.002224844,-0.015119122,-0.015725015,0.017286403,0.050457053,0.018737048,-0.028896486,-0.042753108,0.004755121,-0.067330055,0.009815134,0.014539726,0.036186688,0.025447395,-0.024774643,-0.00552871,-0.014684604,-0.0013938202,0.017270684,-0.0021810734,0.00075371104,-0.00043645318,-0.021568008,-0.059764236,-0.04578298,-0.0415333,0.02702223,-0.009571584
-0.03588361,-0.0062005445,-0.015133244,-0.0058445167,-0.022721427,0.03033379,0.029939549,0.014519384,0.025118122,-0.033847105,0.002831589,0.009011082,-0.030079965,0.021126702,0.012176937,-0.021711776,0.0033199328,0.030973058,0.03177522,0.039470978,-0.03341076,0.0023055824,0.012246894,-0.01612258,-0.08089642,0.03250704,0.031297766,-0.0312699,0.04579269,0.02434183,-0.003390755,-0.041093953,-0.012602854,-0.013758887,-0.020143278,0.024451578,0.023950461,-0.031842664,-0.032691237,-0.017873675,-0.004162815,0.01421118,-0.026384195,0.026498396,0.0126281725,0.041378904,0.005770818,0.0021382975,0.02285892,0.025821876,-0.01796788,-0.028545853,0.0047138985,-0.009085522,-0.016463181,0.01726231,0.036867313,-0.010971836,-0.0009062891,-0.00657374,-0.023244891,0.07664119,-0.030237729,0.027122963,0.032274637,-0.0072731464,0.024846856,-0.008106796,-0.016200079,0.0039126053,-0.010121027,-0.030460844,0.039003685,0.0035493216,-0.035145275,-0.008341715,-0.027096089,0.012648579,-0.013329335,0.042921077,-0.023479292,-0.048904557,0.03547771,0.03568674,0.032513294,0.029206784,-0.011549516,-0.029416913,0.003020097,0.026400391,-0.002622769,-0.008625807,-0.03673453,-0.014793252,-0.008908228,-6.4927954e-05,0.010993763,0.0023369032,0.027426556,0.046360373,0.002431869,-0.011659403,0.003790072,0.037857305,0.05664557,0.004150004,-0.037906066,-0.027219245,0.026035417,-0.05184448,0.014344706,0.025961297,0.026137322,0.020094205,-0.027167505,-0.0035517847,-0.008300906,0.013226257,-0.0027182063,0.0068195136,-0.002801965,-0.018077867,0.014845106,-0.034942172,-0.04480238,-0.037965983,0.031753507,0.007609223
-0.036028586,0.007621197,-0.013843628,0.007193878,-0.003605212,0.027647331,0.02364079,0.008892961,0.002000527,-0.039015457,0.032763723,0.027494676,0.0052651204,0.0037081386,0.015333943,-0.00857528,-0.0106669525,0.043336272,0.025016466,0.020308867,-0.038823858,-4.3844804e-05,0.008974478,-0.008439071,-0.074605,0.021420406,0.012772941,-0.03216253,0.03225411,0.03809033,-0.01506928,-0.031811226,-0.023182755,-0.009124752,-0.04709164,0.022566566,0.024590686,-0.036986005,-0.031499825,-0.011896056,-0.013268637,0.0067291013,-0.01913618,0.037058458,-0.018518584,0.06305434,-0.0005187,0.005222928,0.0033036396,0.0028699723,-0.01800518,-0.026177162,-0.010082208,-0.022051593,-0.031490747,0.017727725,0.031439625,-0.00059541245,-0.0034621852,-0.012417415,-0.022039004,0.08727918,-0.0328583,0.015713662,0.024573896,-0.033490594,0.010841289,-0.0025836742,-0.004950593,0.018483022,-0.003564903,-0.034428935,0.043661565,0.00539231,-0.01683218,-0.03348046,-0.016682994,0.0061029675,0.003278256,0.0338453,-0.00933114,-0.055820838,0.017181044,0.026934803,0.008216861,0.020595953,-0.028684217,-0.03369527,0.0106980065,0.024008788,0.017120758,-0.016288335,-0.021208238,-0.00027493006,-0.024410674,0.003001592,0.009391822,0.0002395677,0.005359678,0.024041113,-0.006993213,-0.006436676,0.0012516602,0.036337804,0.04451026,-0.0056013884,-0.024425544,-0.0135722635,0.038359858,-0.027518658,-0.026447324,0.044802785,0.01973617,0.0039630267,-0.0054137185,-0.016042085,0.010886433,-0.0015036066,-0.021709258,0.015599951,-0.011702741,-0.006382517,0.030895932,-0.014286004,-0.07096816,-0.045872174,0.0143748475,0.013204998
-0.021773074,0.019036515,-0.0014097482,0.018401625,0.007849301,0.01764369,0.02503642,0.0031940972,-0.008034978,-0.033079103,0.04612501,0.060700245,0.011174658,0.0038211658,0.011393624,-0.00014495537,-0.01665807,0.04963172,0.02030417,-0.003376339,-0.03377495,0.0010047641,0.011257929,0.00047119992,-0.065697774,-0.0013749975,-0.003582581,-0.01246823,0.02527872,0.053447004,-0.025287058,-0.021022929,-0.027709337,0.0062474776,-0.04938922,0.023826273,0.011936275,-0.03643131,-0.021019176,-0.0042848047,-0.013117619,-0.0034083133,-0.01622295,0.04575574,-0.026311915,0.066221,-0.023837242,0.00933392,-0.006065477,0.011344749,-0.015916444,-0.020547416,0.009088736,-0.029024096,-0.03223864,0.005776142,0.028376859,0.015431366,-0.0064829946,-0.0048129023,-0.015815422,0.09942963,-0.010242416,0.010965021,0.026184326,-0.036741205,0.0019002854,-0.0010956611,0.011382542,0.017340364,-0.010416144,-0.035632838,0.04629003,0.0154657625,0.007383356,-0.027041513,-0.0021301121,-0.0068801,0.0031831623,0.032602567,0.0028895782,-0.05936237,0.010727432,0.029047778,-0.004498704,0.012687609,-0.04280914,-0.036200743,0.022301733,0.022042299,0.016226597,-0.018213505,-0.00697655,0.01931701,-0.029513838,-0.0029844795,0.003680581,-0.0022917413,-0.0014563828,0.01030505,0.004341439,4.5395045e-05,0.0090923095,0.03447662,0.029576104,-0.014660713,-0.015844295,-0.0057791416,0.02791693,-0.01793027,-0.04850957,0.050604798,-0.0011752433,-0.025279557,0.025630673,-0.03273628,0.0185428,-0.0025735863,-0.04071862,0.021507207,-0.027147207,0.0033804094,0.025821498,0.004105102,-0.076203294,-0.029185163,-0.00040168627,0.0033308943
-0.010085334,0.016347103,-0.0032031557,0.0178697,0.007564727,0.0027279109,0.005204836,0.0020475476,-0.007926247,-0.033659354,0.050575174,0.042894077,0.025559098,0.015172542,0.018676458,0.0098766945,-0.025652152,0.05341403,0.0080993865,-0.00014017771,-0.027030429,-0.012045914,0.0070566973,-0.00033149318,-0.05766492,-0.019685887,-0.020157829,0.0012534587,0.00633083,0.051885076,-0.038391612,-0.016770264,-0.028229142,0.020331886,-0.04463079,0.0010548213,-0.0032780278,-0.0320926,-0.009625017,-0.00054816174,-0.017978882,0.00085446733,-0.014885041,0.059430357,-0.023029827,0.06962917,-0.02779906,0.016129678,-0.021721253,0.017416088,-0.021014519,-0.029599007,0.026198974,-0.026456185,-0.028147582,-0.0022325707,0.027060162,0.033742487,-0.010785841,0.008037951,-0.016557073,0.07580009,-0.0042816703,0.009976341,0.04267821,-0.030500405,0.008432885,-0.0055362624,0.022776155,0.025023088,-0.008383235,-0.022382108,0.045703232,0.017673345,0.024067525,-0.03539552,0.013908418,-0.020946465,-0.005062388,0.027914273,0.022162812,-0.07001143,-0.007845022,0.027092576,-0.009000639,-0.0017437827,-0.03452268,-0.03264837,0.028789263,0.0076940777,0.0029782536,-0.012844286,-0.0047945636,0.033982184,-0.010332814,-0.015116178,-0.00092625,0.0042364667,0.004602805,0.017068457,0.013728656,0.020899367,0.001350125,0.01881617,0.021781135,-0.0034552303,-0.006118708,-0.0022539273,0.018874597,-0.02169807,-0.05534865,0.044780385,-0.015607746,-0.037296314,0.04257851,-0.049671616,0.030604972,7.630337e-05,-0.060288347,-0.010900943,-0.045646798,0.006978675,0.0009063675,-0.01990805,-0.085670866,-0.03430005,-0.012095027,0.0140247755
0.00027082927,0.0057900306,-0.0049923975,0.021301562,0.0014455646,0.006797266,0.020244831,-0.0068773185,0.005834928,-0.038784005,0.039279323,-3.0829164e-05,0.027018327,0.018878113,0.030013511,0.009781567,-0.033934064,0.046269085,-0.0029255035,0.031863097,-0.014888797,-0.0043789144,0.010300241,-0.007078367,-0.055235066,-0.0242957,0.005089597,-0.0054605394,-0.0012532623,0.05606005,-0.029431228,-0.017217683,-0.021768924,0.001268924,-0.034890916,0.00081348064,-0.014965216,-0.03786179,-0.018086027,-0.0038352052,-0.018912233,-0.005196063,-0.019725848,0.06276201,-0.007066728,0.06184489,-0.015458014,0.021363031,-0.008702114,0.032410447,-0.018961594,-0.04065993,0.03349812,-0.013902464,-0.023818858,-0.02197479,0.020391008,0.03359705,-0.0014884141,0.02908151,0.0020036555,0.05292265,0.011185145,0.029308066,0.046032988,-0.019109057,0.020535182,-0.008677476,0.011614914,0.021692758,-0.0032716298,-0.015908979,0.047606893,0.016529158,0.017824925,-0.047157876,-0.0018601522,-0.03245303,-0.003003311,0.03917345,0.013392644,-0.08053108,-0.020275777,0.018131046,0.014211258,-0.015182108,-0.028389383,-0.027442781,0.02803092,0.0007823327,0.0015039413,-0.029556464,-0.0061916527,0.02844676,0.00280763,-0.019592548,-0.0007931041,0.018761529,-0.012144832,0.041763395,0.007983593,0.022582194,0.004767352,0.0057569807,0.044455815,0.009386723,-0.014115802,0.0041944897,0.02409473,-0.028632702,-0.0425248,0.037070464,-0.02771131,-0.031323705,0.031606037,-0.035138812,0.02492903,0.0060529653,-0.029160758,-0.03417509,-0.053003766,-0.00014434794,-0.009694244,-0.04594603,-0.11438954,-0.04212743,0.0012349561,0.027090475
-0.006540313,-0.013852395,-0.0029787552,0.020706512,0.007439737,0.0151388645,0.02651159,-0.018596115,0.010898284,-0.048646577,0.016684696,-0.029837681,0.023715476,0.010834722,0.027540596,0.007301197,-0.0217309,0.0327525,-0.018515358,0.053171873,-0.0050823884,-0.0012303763,0.013902169,-0.011358261,-0.044000916,-0.023002826,0.022751583,-0.015801389,-0.015576085,0.044637013,-0.009138667,-0.016899476,-0.031413864,-0.032806136,-0.022403426,-0.0018672588,-0.0123546515,-0.03498413,-0.029401273,-0.009508289,-0.019385278,-0.0017768671,-0.0188546,0.048429325,0.008522783,0.047615368,-0.011409881,0.019616315,-0.012808492,0.027962964,-0.019630635,-0.05479783,0.020788368,-0.010284959,-0.015812796,-0.034824405,0.0064635645,0.044770475,0.02330094,0.042359263,-0.0060190298,0.022597875,0.028550426,0.03640576,0.04665317,-0.01243322,0.03087912,-0.018636128,-0.007161596,0.021536814,-0.002317268,-0.02089329,0.053813614,0.018125791,0.00090592355,-0.04332422,-0.018191945,-0.045767143,-0.012592424,0.02823629,-0.004131448,-0.05673953,-0.035576545,0.022125432,0.022558862,-0.018458776,-0.031098282,-0.018673414,0.013042264,-0.003539016,0.013764829,-0.04917681,-0.005199724,0.014219609,0.019294057,-0.024876058,0.011896343,0.018233992,-0.013544101,0.0482904,-0.005924982,0.013319008,0.008665852,0.0035295228,0.053425323,0.020021567,-0.017414002,-0.002938229,0.01851139,-0.02758007,-0.011026625,0.023874916,-0.030915176,-0.015795112,0.018964829,-0.020419855,0.010431557,0.02029566,-0.016905809,-0.03924075,-0.054729234,-0.018993346,-0.0074960403,-0.06825982,-0.10630463,-0.05083882,0.011199162,0.024425063
0.0066359323,-0.0035426705,0.0035529162,0.017115925,0.015557701,0.036893018,0.025122829,-0.008687409,0.00014245212,-0.053563762,0.0137412865,-0.01672594,0.027517684,-0.016299227,0.024259552,0.0027907381,-0.017250786,0.03999297,-0.014427397,0.046359614,-0.0020591149,-0.017339556,0.012260126,-0.017898956,-0.05170489,-0.003409371,0.034618445,-0.02807077,-0.0267231,0.03974225,0.001656304,-0.024496049,-0.02345459,-0.044851385,-0.015617752,0.0035724405,-0.00059844856,-0.024791563,-0.044714194,-0.008752656,-0.0018761744,-0.008789259,-0.01553558,0.04285568,0.0021244471,0.016739815,-0.01183832,0.009531908,0.00031293905,0.00582543,-0.008685964,-0.05312979,0.0039254627,-0.012456194,-0.017050728,-0.028999891,-0.0012424375,0.048636604,0.036225326,0.03264004,-0.0022578011,0.018557029,0.038082015,0.027465839,0.03403472,-0.033947613,0.029637417,0.0020645412,-0.013551573,0.014420058,0.0041212714,-0.0078090075,0.038310554,0.017647484,-0.009754495,-0.05219839,-0.025921399,-0.03493762,-0.0068789213,0.042562243,-0.010535416,-0.038326368,-0.044298284,0.019580094,0.038928315,-0.017127635,-0.04915152,-0.013757082,0.0003605837,0.0042951354,0.03438367,-0.07336669,-0.00467195,-0.008546309,0.039288085,-0.021826804,0.010499467,0.004274224,-0.02944182,0.016571794,-0.015170965,-0.00017694253,-0.008772074,0.008138912,0.056502193,0.002872341,-0.015827,-0.0056982515,0.050163843,-0.017820839,-0.0045634722,0.024736535,-0.032770142,-0.015962273,0.014707925,-0.016417403,0.0038212507,0.020446057,-0.008316629,-0.026291965,-0.032895807,-0.037489485,0.013791448,-0.046894867,-0.106968544,-0.047992323,0.017086087,0.022769628
0.018358024,0.0062672026,0.0035243996,0.020237003,0.03753541,0.051484533,0.029072165,-0.00025555742,-0.011513416,-0.050354924,0.024383606,0.022806287,0.037836134,-0.033340458,0.011392728,-0.006524959,-0.020396294,0.04552066,-0.006096027,0.022927234,-0.005757113,-0.022209516,0.0118883345,-0.00017045061,-0.036188442,-0.000469987,0.014062444,-0.029951002,-0.034660786,0.04460292,-0.005726586,-0.01680229,-0.019460268,-0.021772064,-0.02609735,0.0089924745,0.0021166303,-0.014430331,-0.04126393,-0.004524341,0.020576267,-0.012173638,-0.010072666,0.050738126,-0.016729746,0.00044668175,-0.015991576,0.011694873,-0.0045922874,-0.0140692545,-0.005103898,-0.033703696,-0.005837296,-0.016036227,-0.012566126,-0.020705197,-0.012001013,0.05906241,0.043589182,0.026937224,-0.0034850542,0.02273567,0.061569814,0.021453194,0.015365175,-0.064987324,0.016317513,0.02021397,0.006771297,0.01913861,0.008540675,0.0025225661,0.024979996,0.01615234,-0.007929549,-0.043267168,-0.010202292,-0.027289335,-0.011963215,0.039165232,0.0012249745,-0.025479212,-0.029437259,0.022907725,0.03830382,-0.019839382,-0.049861904,-0.015740119,0.005618408,0.003586242,0.048086606,-0.07403125,0.00607398,-0.013322093,0.023293551,-0.025661165,0.011224069,-0.013473572,-0.03308307,-0.013527236,-0.017162507,0.0038467578,-0.011946239,0.0168205,0.033862557,-0.008810092,-0.011056265,-0.0054765316,0.063903846,-0.007931526,-0.02068298,0.030413512,-0.031426217,-0.025843441,0.019439485,-0.02697541,0.0094428025,0.0060633565,-0.019442873,-0.010869952,-0.020085933,-0.02699349,0.037505075,-0.020578442,-0.11451226,-0.03844541,0.0032124766,0.010427827
0.03486153,0.013246118,0.0005860024,0.013281151,0.054274566,0.044356357,0.007670181,-0.0031632825,-0.032627,-0.04463243,0.032453757,0.046659816,0.034894012,-0.038277075,0.0072998013,-0.010120175,-0.029293837,0.043149907,-0.0032329287,-0.0015192042,-0.011661824,-0.027365334,0.006581577,0.017385922,-0.026677232,-0.008118611,-0.014769411,-0.012397402,-0.037818473,0.05015895,-0.008787296,-0.008970609,-0.021939903,-0.001529392,-0.038476944,0.017395252,0.0006499529,-0.006109561,-0.0332841,0.009167521,0.034316745,-0.025665361,-0.009919329,0.052733,-0.030799264,-0.022626845,-0.028115058,0.01910105,-0.0022680254,-0.01379391,-0.01532835,-0.029810788,0.010750293,-0.00047487748,-0.008153408,-0.012615646,-0.003489766,0.059108146,0.0316063,0.02823757,-0.0071989866,0.020232223,0.057603776,0.0057603423,-0.0027978357,-0.07875766,0.0026429063,0.043936923,0.01490277,0.017853895,0.020743454,0.013272161,7.499668e-05,0.017404748,0.005290997,-0.034284517,0.013751269,-0.018714929,-0.016940726,0.04226906,0.023439176,-0.033530194,-0.020020677,0.030235615,0.03436619,-0.019413777,-0.04976921,-0.0014454721,0.01347294,-0.0041174246,0.03710598,-0.05594744,0.003582487,-0.0055621457,0.016116353,-0.03485165,0.0072147576,-0.030090842,-0.03386365,-0.027847616,-0.00069250783,0.020433234,-0.03323285,0.0062935255,0.007595469,-0.005493413,0.0012862848,-0.004369482,0.045188393,-0.010526299,-0.041590996,0.031054476,-0.03694769,-0.0326711,0.04833649,-0.043626226,0.008304386,-0.02074654,-0.035998303,-0.009663558,-0.015731428,-0.017372832,0.032566514,0.0006525319,-0.095645286,-0.022637155,-0.011317551,-0.0019398893
0.035837494,0.013221982,0.00061748613,0.01164833,0.054531343,0.014494737,-0.017940309,-0.021719787,-0.040860824,-0.04150573,0.022869086,0.039916363,0.033178147,-0.022905273,-0.0053583803,-0.0059813927,-0.044719324,0.03759346,0.0017329443,-0.0034178533,-0.0010737409,-0.02525729,0.017906908,0.03178336,-0.022184104,-0.026623037,-0.03447155,-0.0087680705,-0.037899073,0.043190952,-0.014534388,0.008145905,-0.028794175,0.023815593,-0.021328283,0.024833733,-0.006769724,-0.008097577,-0.016631737,0.01885642,0.036319844,-0.020727059,-0.008538405,0.052252106,-0.031898852,-0.04951436,-0.023156084,0.014488341,-0.008204588,0.014091205,-0.023456996,-0.03736133,0.042089105,0.020024102,0.0069041224,-0.017140975,0.008191821,0.058398847,0.023952767,0.041988127,-0.010736113,0.00795596,0.056111738,-0.009531999,0.007535268,-0.054075558,0.010981513,0.048412714,0.02510478,0.021841342,0.019326432,0.024336021,-0.019150743,0.023406986,0.005137163,-0.016195841,0.031749375,-0.016008992,-0.036651045,0.03883321,0.0375362,-0.04463757,-0.0048606526,0.03725818,0.040202923,-0.009724776,-0.03019523,0.009830338,0.0071223653,-0.022401774,0.025049085,-0.033753086,-0.00020509308,0.0107124755,0.0029307234,-0.04222371,0.0037991845,-0.036821205,-0.012140382,-0.027571453,0.012335544,0.039328672,-0.03529179,0.0018157281,-0.011805441,0.0020130312,-0.0022254763,-0.01436372,0.021104818,-0.032114282,-0.041895628,0.011803825,-0.031190718,-0.036613513,0.06597466,-0.054323528,0.008244283,-0.028179523,-0.038601466,-0.010150035,-0.016461832,0.005198932,0.0074895658,-0.013087922,-0.08472445,-0.023569554,-0.031560972,-0.012099067
0.022811254,-0.014191132,0.0035843109,0.008916333,0.038033,-0.014600224,-0.032552212,-0.02926234,-0.028945625,-0.03724812,0.007009033,0.0112137925,0.024547676,-0.006415703,-0.0041396595,-0.0062504564,-0.044634122,0.035056617,0.0012098962,0.010769185,0.0104059605,-0.01737658,0.018083656,0.031211207,-0.018596858,-0.026254185,-0.03339721,-0.007459805,-0.031700924,0.031782694,-0.006547639,0.015022027,-0.029607318,0.017545113,-0.0074520404,0.02535861,-0.010303605,-0.008799503,-0.003621052,0.023357475,0.037387315,-0.019556712,-0.0015005098,0.044351693,-0.017328614,-0.05320906,-0.0058902856,0.019090084,-0.009310552,0.044210333,-0.018975627,-0.046321843,0.056758273,0.028438173,0.019520748,-0.012239613,0.00647216,0.040437333,0.01363617,0.0670841,-0.011786586,-0.011149587,0.050951198,0.0048176865,0.019021899,-0.021235578,0.013164682,0.051851034,0.020089006,0.018572804,0.019065663,0.030326163,-0.017520092,0.018689753,0.0020550168,-0.0106191235,0.019989336,-0.012706066,-0.05200774,0.03428161,0.0405041,-0.051347654,0.0021521992,0.039149005,0.054782726,-0.008955379,-0.015717449,0.022200271,-0.0037957854,-0.042498276,0.0065717925,-0.016144527,-0.012302471,0.025102794,0.006796802,-0.05323489,0.008329098,-0.03210732,-4.9770897e-05,0.0039034723,0.021866877,0.05996082,-0.035296015,-0.0069065834,-0.008972002,0.016925493,-0.010663219,-0.023809616,-0.0015800527,-0.057249192,-0.014031288,-0.011400579,-0.02709021,-0.01398473,0.053732432,-0.050149336,-0.00018014072,-0.033401366,-0.031436365,-0.021742139,-0.017187437,0.0077180727,-0.017999258,-0.04276293,-0.086129665,-0.027258571,-0.034854475,-0.0140476115
0.011902638,-0.033846684,-0.0031363557,0.0062211235,0.025419764,-0.015595621,-0.020999255,-0.031829473,-0.015830066,-0.038252346,-0.021415563,-0.035819076,0.010168339,0.00399318,-0.007026317,-0.008026298,-0.02703548,0.021935841,-0.0022585576,0.04284582,0.019197904,-0.014464997,0.025213996,0.023251867,-0.022761706,-0.02380064,-0.011229876,-0.026374923,-0.02560851,0.025982883,0.01564432,0.013881891,-0.03011489,-0.00034152172,0.011501513,0.02730891,-0.0070394706,-0.012116939,-0.009848774,0.019215314,0.03419736,-0.010100571,-0.00084870536,0.030741906,0.002966957,-0.06110301,0.012403103,0.008183,-0.0028010076,0.052705172,-0.0161365,-0.06478181,0.048290133,0.031110462,0.02230426,-0.0063016657,0.007120204,0.033701204,0.017545752,0.07491059,-0.0055547603,-0.022483427,0.038146168,0.014709899,0.030916799,0.009876544,0.027035655,0.028645057,-0.0015803672,0.0130371135,0.014575348,0.013686391,-0.0011901862,0.0122466255,-0.018257994,-0.019215766,0.002373713,-0.017096769,-0.049103938,0.038668536,0.02464242,-0.0419213,0.0075377217,0.0391607,0.07447279,0.0029744853,-0.0061195185,0.02641513,-0.013044139,-0.04896811,0.0014693595,-0.010433634,-0.02425264,0.013166344,0.010332784,-0.05258298,0.010891408,-0.0142542375,0.0037264368,0.03105935,0.021124855,0.054254547,-0.031204976,-0.006518259,0.0023963905,0.022725085,-0.03648363,-0.028617905,-0.007222669,-0.082785085,0.020839635,-0.0313331,-0.008399285,0.016168345,0.02999761,-0.024669737,-0.012735869,-0.022839263,-0.00479529,-0.016763384,-0.012360768,-0.00922928,-0.032214373,-0.06464372,-0.092472844,-0.039897174,-0.020411571,-0.012053697
0.005713535,-0.04335618,-0.0031350025,0.001200972,0.030971153,-0.0024833267,-0.016253062,-0.032536183,-0.0087541,-0.049097057,-0.046053328,-0.047770396,0.0048608226,-0.020053098,0.0005249572,-0.008976249,-0.01578138,0.018469404,-0.00677247,0.055761702,0.012931773,-0.007516478,0.01575892,0.009816194,-0.032684095,-0.004159206,0.009127926,-0.048957363,-0.01939964,0.015039558,0.030279472,0.0020912038,-0.0279783,-0.0337317,0.026273333,0.029148001,0.01025388,-0.0071146423,-0.030688353,0.0037179356,0.03395021,-0.020173205,0.00071106467,0.016508399,0.011126172,-0.0573815,0.020510998,0.0030070893,0.008199947,0.04417936,-0.014491957,-0.07113677,0.017380463,0.025558233,0.016023995,0.0003348746,-0.0053024166,0.031044979,0.034528397,0.055046286,0.003927102,-0.031005662,0.050223846,0.021462655,0.0305484,0.005208576,0.04240828,0.023771077,-0.01103507,0.0042383294,0.011894491,0.0054114014,0.007996931,0.009450234,-0.03774678,-0.02632992,-0.027191492,-0.0063540125,-0.051925637,0.027710646,0.009014648,-0.031354927,0.013958663,0.035163198,0.09287888,0.012377227,-0.013210067,0.01952808,-0.0172979,-0.039145086,0.02210966,-0.027926698,-0.024138663,-0.008978705,0.017062034,-0.044937152,0.017477214,-0.0029657038,0.0075676893,0.03784548,0.006144169,0.040758163,-0.03029408,0.009881467,0.0114274435,0.014971993,-0.049226977,-0.044308193,0.015899898,-0.08184234,0.046919703,-0.03053249,0.0020165548,0.03305179,-0.002054611,-0.0040284623,-0.020264555,-0.0029158304,0.013299521,-0.0013054975,0.004772184,-0.018699875,-0.01197154,-0.06439178,-0.107175544,-0.036297634,0.0056832465,-0.0074471813
-0.0064015826,-0.03802979,-0.0086162565,0.0059422767,0.040715132,0.027422598,0.0026458816,-0.02495427,-0.018294202,-0.04695776,-0.054734737,-0.019487431,0.006978296,-0.02921273,-0.0052230516,-0.01686244,0.004275876,0.024243644,-0.0041494328,0.04777042,0.006906328,-0.008126268,0.014846516,0.0071960343,-0.03777196,0.02815994,0.025045965,-0.06324391,-0.01532697,0.006625287,0.04218833,-0.0065395334,-0.030735359,-0.037364062,0.02427512,0.03929294,0.037585203,-0.00856576,-0.0397495,0.0059614154,0.05124147,-0.020900328,0.0009869944,0.017467918,0.004928179,-0.055290453,0.025762033,-0.004586299,0.026382435,0.015574024,-0.0014858521,-0.061076127,-0.014265068,0.008959764,0.0055262367,0.020521924,-0.010877596,0.03523814,0.053210575,0.027955985,0.0014204052,-0.014416914,0.046173885,0.015423852,0.006546433,-0.02147431,0.03743316,0.03099703,-0.01591413,0.007940343,0.01725836,-0.005487816,0.0023065142,0.0062804935,-0.044599827,-0.034726746,-0.045471914,0.012406667,-0.044827756,0.03728507,-0.013282791,-0.012258765,0.023801146,0.03427814,0.09838578,0.013447474,-0.019354662,0.012182291,-0.015089342,-0.0142158475,0.03190528,-0.031229785,-0.025912002,-0.034383386,0.0075597297,-0.03681127,0.025188256,-0.016239827,0.00070990087,0.011366499,-0.0018988868,0.02675018,-0.030653551,0.022581102,0.013115047,0.0024097278,-0.05391156,-0.04166498,0.047983114,-0.07577133,0.05424993,-0.019114094,0.0167545,0.041362632,-0.020653104,0.008336545,-0.025043307,0.004504424,0.027042743,0.021365104,0.027034517,-0.034245085,0.009705297,-0.039938565,-0.09457307,-0.03138473,0.010419576,0.0020480515
-0.0038494156,-0.023212897,-0.005777718,0.0035738342,0.05264444,0.03906232,0.021903004,-0.011990949,-0.033766396,-0.044195186,-0.042588413,0.018022703,0.010148953,-0.04485748,-0.0025495547,-0.019405235,0.019927057,0.032736674,-0.0036066195,0.015584549,-0.010184128,-0.005808062,0.013335044,0.007952834,-0.044488188,0.030982535,0.014033185,-0.05804539,-0.002442698,0.017717876,0.03132343,-0.013516081,-0.021568814,-0.030898884,0.0054713464,0.052762404,0.053891234,-0.007639277,-0.043266334,0.008239071,0.060086023,-0.019754946,-0.008167097,0.012177329,-0.020215329,-0.045919806,0.007212133,-0.00863623,0.025577517,-0.009760497,-0.008774299,-0.03949456,-0.040121198,-0.0042387294,-0.009322318,0.045895733,-0.021211646,0.036060218,0.03832404,0.0018975185,-0.0067788027,0.015624194,0.03945997,0.00838453,-0.0098236445,-0.040549792,0.02766549,0.032389503,-0.01359863,-0.006783361,0.015572768,-0.011072733,0.017298441,0.01026996,-0.0491003,-0.02765169,-0.04610269,0.01930974,-0.026817475,0.041852634,-0.015324975,0.012434306,0.023538278,0.03417063,0.0823885,0.029817693,-0.039809007,0.003984471,-0.01237999,0.0084561305,0.051487487,-0.03987973,-0.017893055,-0.040201835,-0.0026399987,-0.026924307,0.023144782,-0.015830217,0.005915135,-0.015555435,-0.003143195,0.012970776,-0.025918467,0.034672335,0.012074717,-0.016626049,-0.064681716,-0.037510153,0.06929936,-0.06634351,0.044715013,-0.012544489,0.021016201,0.0370229,-0.028262742,0.0018367848,-0.02460948,-0.0006583088,0.0132766785,0.052080475,0.031822618,-0.044433903,0.04201387,0.003322225,-0.06912998,-0.020080468,0.0054942267,-0.007015998
-0.002709653,-0.0066849515,-0.012081462,-0.0051647634,0.053165987,0.026484035,0.007610809,-0.005469835,-0.05951655,-0.026612317,-0.032302324,0.057329733,0.0134759545,-0.050373655,0.004425689,-0.017164128,0.007097216,0.036402024,-0.004577063,-0.01789241,-0.012613566,-0.0064353594,0.015321461,0.0059922845,-0.049194347,0.02073207,-0.011024885,-0.05541729,0.0037316906,0.012771717,0.014059036,-0.014957889,-0.025734996,0.0034023481,-0.011157932,0.04563509,0.040233716,0.0016290477,-0.03195068,0.016859634,0.062049184,-0.021369955,-0.009382602,0.018166041,-0.04372542,-0.040982824,-0.018010661,-0.019874558,0.017295491,-0.035659093,-0.009162803,-0.020160334,-0.036045704,-0.0037377106,-0.019729635,0.064664915,-0.018118583,0.033552732,0.013512303,-0.018872224,-0.01006423,0.038284358,0.026130183,-0.013806814,-0.024142994,-0.06090851,0.008448302,0.037691604,0.0013138208,-0.006202687,-0.010879452,-0.012836088,0.008556343,0.0013052612,-0.04035056,-0.018818388,-0.028337331,0.032711484,-0.04643018,0.028744036,-0.008299516,0.016269375,0.033794142,0.023320276,0.07395695,0.034070704,-0.051822655,-0.0053881,-0.00990254,-0.0025091763,0.05263453,-0.017331518,-0.011336013,-0.029043274,-0.025998602,-0.030346692,0.02029155,-0.016645335,0.0075124567,-0.04722047,0.007669553,0.0073111514,-0.033909168,0.029247418,-0.018077614,-0.02574872,-0.059539862,-0.04480455,0.0671755,-0.07038963,0.015502127,-0.014557849,0.020960838,0.031497013,-0.009362252,-0.019830115,-0.013375692,-0.015288144,-0.01638119,0.07123963,0.029906949,-0.022291303,0.058425788,0.037695717,-0.07539573,-0.0037390043,-0.013491457,-0.0051173875
0.004821817,0.0080160005,-0.005413345,0.000715791,0.06376397,0.0025307992,-0.0040941243,-0.020538956,-0.07917891,-0.0075978395,-0.013889587,0.091138445,0.021899382,-0.039476357,0.005113218,-0.011427147,-0.0013292897,0.044166118,0.004037158,-0.042840578,-0.011542363,0.0016554035,0.00665663,0.024322642,-0.04950972,0.013213356,-0.027023822,-0.032166477,0.013894637,0.016635891,-0.01820831,-0.004672805,-0.024645092,0.033935472,-0.009465818,0.043791626,0.026539858,0.008491289,-0.0045372313,0.0317847,0.079730585,-0.0171353,0.00092105276,0.016444674,-0.049586195,-0.036157142,-0.0253523,-0.016154366,0.0052466965,-0.0109880995,-0.008866644,0.00077301176,-0.011115086,-0.010179947,-0.015801348,0.074085176,-0.014157572,0.032442898,-0.01346812,-0.00558751,-0.01745494,0.053539895,0.022605304,-0.029446872,-0.017287761,-0.052942228,0.010301917,0.051903788,0.01464104,-0.00465886,-0.009998015,-0.0005561893,0.00022758784,0.0031934043,-0.01874566,-0.0062373476,0.00077086117,0.026174376,-0.032187756,0.02317765,0.018298322,0.00607092,0.046198048,0.028222173,0.0668883,0.035383243,-0.049235187,0.0001975517,0.008357982,-0.017200178,0.037693396,0.009618763,-0.012296598,0.0058995313,-0.03879404,-0.031163638,0.010699288,-0.021780847,0.020852303,-0.046818588,0.030725695,0.0352937,-0.031468164,0.023398954,-0.036277298,-0.022107936,-0.05398367,-0.037497003,0.042262115,-0.07551765,-0.010167122,-0.00714063,0.013067055,0.01627601,0.017309709,-0.033868324,-0.0052072215,-0.029143838,-0.039735366,0.071599975,0.023510981,-0.004384624,0.033738498,0.06143479,-0.06974896,0.0022005031,-0.028558357,-0.007829161
-0.004502226,-0.0017308665,-0.0071761864,0.0032754608,0.05098375,-0.03408776,-0.023448203,-0.022330621,-0.07099325,0.0044652997,-0.010608877,0.0705963,0.013714128,-0.019815061,0.01669803,-0.0065267542,-0.0077609275,0.04375586,-0.0061686607,-0.038848434,0.008001738,0.0065110438,0.011891126,0.026040055,-0.05061724,-0.017246388,-0.035481308,-0.012923566,0.026563872,0.015059765,-0.029629586,-0.006675015,-0.03102871,0.053421948,0.002508282,0.035037715,0.0032507519,0.017541194,0.01930868,0.0351311,0.070246935,-0.011554112,-0.0047915396,0.02521733,-0.047882713,-0.030035505,-0.032621857,-0.00660813,0.00074373983,0.0186968,-0.015687443,-0.021299647,0.023103327,-0.0041708187,-0.004315788,0.075844966,-0.008941338,0.023766939,-0.0379451,0.009775962,-0.011881896,0.05025669,0.015468779,-0.036562897,0.0032176531,-0.015853561,0.015414608,0.026337428,0.016524347,-0.005752875,-0.010808935,-0.0028530848,0.0010380594,0.006808025,-0.015680993,0.00820617,0.017565282,0.032202743,-0.04879231,0.018370863,0.01846045,-0.0149107985,0.04216501,0.026574198,0.067884535,0.032187667,-0.027213022,-0.0068927063,0.0076458277,-0.04061228,0.008121969,0.03831073,-0.023217633,0.031932935,-0.042136837,-0.047693115,0.003929354,-0.0067128865,0.036899935,-0.010637371,0.05466098,0.046627812,-0.025070755,0.00647529,-0.045993604,-0.0077417158,-0.051290568,-0.037728757,0.0070399456,-0.09289024,-0.014100747,-0.029217761,0.015501566,0.019853393,0.02420968,-0.047114246,-0.0057125106,-0.03364804,-0.040236652,0.05420679,0.0159742,0.016367704,-0.0044966214,0.030298136,-0.09470645,0.0043918095,-0.0396648,-0.006781036
-0.015042614,-0.012198641,-0.01064902,3.6255408e-06,0.022288803,-0.05386807,-0.0023801324,-0.021527002,-0.058159735,0.020211216,-0.025061095,0.03311413,0.0048954133,0.0073611536,0.022062857,-0.0017105264,0.0090637,0.036510665,-0.014899264,-0.008312465,0.016685901,0.020462763,0.009178316,0.0063848477,-0.06244321,-0.010322607,-0.017429262,-0.019718857,0.042513505,0.008705452,-0.047038123,-0.007104746,-0.012900016,0.05123997,0.018332534,0.026420137,-0.014141155,0.00093141716,0.03297438,0.037106056,0.04684871,-0.00044634874,-0.00064399856,0.023771884,-0.030583084,0.018815389,-0.025622485,-0.0005358131,0.013684137,0.048106667,-0.021228386,-0.041452017,0.025368506,-0.005194145,-0.0082116835,0.07661805,-0.0089695295,0.012048115,-0.048979387,0.018304184,-0.015533391,0.0427279,-0.005873734,-0.015280651,0.021876452,0.008726748,0.031010455,-0.0048355665,0.010028821,-0.006486048,-0.01125791,-0.019010631,0.03127153,0.014832856,-0.015909739,-0.00023324312,0.005629524,0.019069323,-0.049915083,0.011955457,0.012119293,-0.028707137,0.034047868,0.021938508,0.06057587,0.029661763,-0.0031220003,-0.019538194,0.013948658,-0.04428816,-0.016108667,0.049449258,-0.035899635,0.043683793,-0.049691368,-0.046238996,0.0035481183,0.016990807,0.064248666,0.02380966,0.07217998,0.04605173,-0.0013749414,0.0009215894,-0.04100372,0.003547608,-0.05343111,-0.03686535,-0.00069355394,-0.10937861,-0.003973457,-0.0214081,0.008949353,0.040764775,0.014931827,-0.046617955,-1.1892011e-05,-0.02329486,-0.038826384,0.042075142,-0.0059199505,0.013122815,-0.024529813,-0.014788255,-0.11789897,-0.006561834,-0.030099483,0.008361729
-0.0111124255,-0.005483949,-0.011643484,-0.0003667671,0.021137528,-0.036339894,0.027153797,-0.009694767,-0.043775156,0.029990416,-0.010022519,0.009092917,0.020933524,0.009855126,0.053562745,0.0077487123,0.021196263,0.03427044,-0.037800267,0.008569273,0.030277053,0.02932325,0.005167912,0.0014144903,-0.067868106,-0.015610207,0.007453744,-0.005188032,0.046283964,0.018575855,-0.051340718,-0.022419984,-0.014085453,0.034022156,0.010431284,0.017498055,-0.019806169,0.011627633,0.033296227,0.03042901,0.029696573,0.0125548495,-0.007569221,0.031641234,-0.019624546,0.048434522,-0.027700152,0.004461379,0.0057294923,0.03808786,-0.025156246,-0.04458571,0.0069776108,-0.028644932,-0.028626932,0.077705756,-0.02088569,0.03122877,-0.050817546,0.030703446,0.0026331933,0.052577153,0.0019803485,0.00030310528,0.043562055,-0.0067303646,0.039444476,-0.027060974,0.0033014128,-0.006131602,-0.010894972,-0.030861609,0.07506743,0.021153327,0.0033678273,-0.025042638,-0.0033183785,-0.0019284711,-0.038105525,0.01248122,-0.004722707,-0.011872659,0.011290602,0.012176451,0.053524088,0.0058878786,-0.01805214,-0.034466024,0.007840069,-0.03152626,-0.008455496,0.0139904255,-0.018008254,0.037938938,-0.026291773,-0.03134697,0.006784856,0.060513657,0.04487726,0.04584945,0.057588913,0.020631678,0.018648755,0.002642873,-0.020654432,0.013999833,-0.043558024,-0.017181505,0.017130686,-0.08313249,-0.01661074,-0.0029494397,-0.01848545,0.037066456,0.002454705,-0.023955338,0.011025818,0.013078908,-0.03201222,0.031018907,-0.024289038,-0.014700551,-0.026670715,-0.02443266,-0.14170149,-0.0039293785,-0.026179386,0.041468225
0.0070926286,-0.005960216,-0.005254079,-0.0016520784,0.01556026,-0.041308925,0.021626081,-0.027333198,-0.05764278,0.026617048,-0.020447623,-0.023351746,0.028253637,-0.008055962,0.053880855,0.0018462887,0.018149184,0.017078739,-0.05782374,0.03351039,0.038906343,0.02966487,0.0150529435,-0.024506954,-0.049098305,-0.030687908,0.022401338,-0.0019262143,0.012246616,0.020883698,-0.05414478,-0.020592952,-0.023461366,0.012469434,0.003446964,0.015921019,-0.04591186,0.030574678,0.02959184,0.03432255,0.029826406,0.024317766,-0.00852578,0.025481988,-0.0013694401,0.030405547,-0.019222721,0.0030368043,-0.007885915,0.026483247,-0.020153686,-0.04911962,0.012644511,-0.026652202,-0.019573066,0.040338725,-0.031859472,0.044768933,-0.036117047,0.058302954,0.007684943,0.007890181,0.02831771,-0.003615725,0.057096977,0.0057874643,0.05594706,-0.02225732,-0.0037861564,-0.008804989,-0.014000793,-0.013625611,0.082572386,0.009228769,0.009299572,-0.024691954,-0.0051784134,-0.034491774,-0.018154226,0.02087928,-0.015345317,0.02318319,-0.034125414,0.02369735,0.05088041,-0.014019615,-0.018324854,-0.0011529244,-5.459263e-05,-0.040616747,-0.0014347115,-0.018737908,-0.0052095,0.019855756,0.002463167,-0.03576827,-0.002929247,0.071113676,0.0217381,0.03325408,0.04432965,0.021059146,0.03934969,-0.036509283,-0.012561133,0.03939119,-0.02198107,0.004170179,0.0010319076,-0.06401149,-0.01663167,-0.014275797,-0.037163336,0.037059627,0.019222295,-0.02901816,0.00645935,0.0282483,-0.03490525,-0.004606136,-0.030061446,-0.036838636,-0.042241294,-0.04470122,-0.115960106,-0.0078050145,-0.029816123,0.06145187
0.017196916,-0.0077145924,0.00031021217,-0.006882202,0.013947735,-0.018931115,0.034596063,-0.0120566245,-0.04933794,0.012933213,-0.037888117,-0.051216796,0.015170116,-0.025915533,0.040839557,-0.0029658594,0.019263174,0.014523384,-0.05836463,0.04471186,0.048454527,0.01549116,0.028483119,-0.038539894,-0.026932523,-0.005681745,0.04348761,-0.020501642,-0.009834184,0.012516676,-0.019763619,-0.015081952,-0.007999393,-0.0038891605,0.015449451,0.017220732,-0.035786744,0.03689458,0.0043451376,0.023539454,0.030797869,0.03516864,-0.005335359,0.016940579,0.01997606,0.00024535423,-0.005571354,-0.010278075,0.00453338,0.027969955,-0.02723628,-0.052596636,-0.004231092,-0.032539304,-0.010309261,0.05120953,-0.03236982,0.04376838,-0.003921925,0.057645068,0.010843488,-0.015141179,0.06264081,0.005010823,0.057798278,0.0006768443,0.04920441,-0.0113422675,-0.015000415,-0.013086178,-0.002598183,-0.0065258965,0.0732694,0.010629796,-0.0070825466,-0.0113219805,-0.026830457,-0.02015435,-0.011939439,0.028629936,-0.02888893,0.04981091,-0.037868403,0.02766058,0.06332321,-0.014536406,-0.0073844325,0.007717187,-0.026849948,-0.023971932,0.010337173,-0.05815172,-0.0056373924,-0.0024661922,0.027123807,-0.044102684,0.007605615,0.050277345,0.009904657,0.027762715,0.022149522,-0.00076903665,0.034777645,-0.03278685,-0.011414988,0.03713475,-0.022513172,-0.003050095,0.01999704,-0.054762397,-0.0014525497,-0.015639285,-0.025530042,0.050858006,0.0010955436,-0.010602461,-0.017353104,0.046119995,-0.0073201815,0.005960639,-0.013845359,-0.045708645,-0.009715643,-0.06737676,-0.12155288,-0.0132522015,-0.018080028,0.050417557
0.022107411,-0.0020417108,0.00092730543,-0.004412372,0.032508694,0.0023611737,0.04518035,-0.0036985613,-0.061205108,0.011081018,-0.031422686,-0.024107272,0.008497314,-0.045174588,0.027433217,-0.016311005,0.024699025,0.008785496,-0.05601983,0.035756093,0.030574283,-0.00031328594,0.023363119,-0.04777804,-0.037001293,0.014349549,0.05143482,-0.024176544,-0.033538166,0.017384414,-0.015178383,-0.02553955,-0.009140142,-0.018252114,-0.008633608,0.022115007,-0.015436138,0.05679001,-0.015214202,0.020086303,0.040838014,0.04348244,-0.0013045471,0.0060373144,0.0155791445,-0.0036866951,-0.0059261643,-0.018326402,0.009040588,-0.002840161,-0.021216884,-0.031277522,-0.04024619,-0.045296673,-0.014544925,0.06960765,-0.032754753,0.049843866,0.017297477,0.024543703,0.007920456,-0.010680865,0.07156021,-0.0006870463,0.046464283,-0.03838413,0.038592074,-0.009814968,-0.020263648,-0.0014061924,0.0014297385,0.0030936848,0.071583696,0.0047007226,-0.021103075,-0.0075231055,-0.032301717,-0.008076874,0.0021347157,0.024068236,-0.04369626,0.06770162,-0.02703344,0.025098106,0.05652003,-0.016140899,-0.016714389,0.009043966,-0.03849086,-0.009107648,0.019308602,-0.074829325,0.0034877341,-0.031206027,0.020456214,-0.047723293,0.0029323488,0.035543997,-0.00061908667,-0.008570352,-0.002732393,-0.02277813,0.03226133,-0.020196086,-0.007688724,0.022512546,-0.013994987,-0.0023750253,0.049679205,-0.03360173,-0.009415154,-0.010903782,-0.013876231,0.042022873,-0.019309347,-0.015622522,-0.02134123,0.037113726,-0.00013536855,0.020634873,0.0047268025,-0.061812352,0.0129949935,-0.040817916,-0.13730109,-0.021996234,-0.008657377,0.039447535
0.03972561,0.025046749,0.0025251913,-0.001941043,0.049621638,0.014675794,0.045750145,0.008304833,-0.0702547,0.014530358,-0.01105659,0.025994955,0.018105576,-0.0538506,0.0134688765,-0.015103662,0.017605506,0.022314098,-0.041874565,0.005519662,0.020929242,-0.019448781,0.026787084,-0.038413167,-0.024727749,0.022199187,0.040949088,-0.026334671,-0.03774005,0.02594258,-0.019591527,-0.016310673,-0.0030549178,0.0064247814,-0.025723154,0.025785472,-0.0021788313,0.06007541,-0.016212327,0.021052403,0.05987311,0.048154492,-0.01283878,0.01203725,-0.007320347,-0.015134484,-0.015851991,-0.017928192,0.014115641,-0.021685833,-0.023347996,-0.011300445,-0.042516936,-0.049047973,-0.011753069,0.07611587,-0.019717595,0.05414641,0.021863956,0.01741993,-0.002689096,0.0039393124,0.073096044,-0.013448276,0.027445469,-0.066029534,0.017530132,0.012447039,-0.0008278765,0.0062348223,0.0040254076,0.017182393,0.046795037,0.008269515,-0.011144352,0.0023570822,-0.015040936,0.011838651,0.018753666,0.025673358,-0.031763557,0.07274062,-0.015042168,0.030129317,0.038595866,-0.0151074715,-0.021673508,-0.0042409203,-0.034756675,0.0027261402,0.024781039,-0.07189716,0.009277777,-0.031026775,0.00958371,-0.045529846,-4.104575e-05,0.0156829,-0.009027613,-0.040207457,-0.008814431,-0.02515604,0.018855907,-0.0065810676,-0.016107788,0.012261062,-0.002569948,0.0032741851,0.067713186,-0.02009006,-0.03581205,0.01061868,-0.014742919,0.024186166,-0.009534654,-0.031656645,-0.015682349,0.030357555,-0.014350772,0.032177705,0.010686082,-0.052097447,0.03541536,-0.015436684,-0.13868198,-0.017504428,-0.020342896,0.023251161
0.0381419,0.0380824,0.006280205,0.0073683397,0.05540874,0.0033293595,0.016504318,0.0003950184,-0.08053325,0.018493168,0.00783075,0.05285587,0.015043648,-0.057592083,0.006681629,-0.010469638,-0.0041075237,0.022400038,-0.029409632,-0.02394717,0.018656554,-0.026740393,0.027597005,-0.021788007,-0.014307816,0.009145478,0.010454295,-0.0061828094,-0.045673035,0.02404224,-0.02904027,-0.0060379626,-0.017514402,0.029079592,-0.035557654,0.035501536,-0.0079569565,0.07449779,-0.009602946,0.029292349,0.06004025,0.04505591,-0.008907793,0.020882592,-0.018082082,-0.035208695,-0.018091848,-0.009258453,-0.0017000309,-0.012624855,-0.028295407,0.0013158704,-0.022744931,-0.043903388,-0.0043150824,0.065234795,-0.0016394744,0.048964947,0.016532226,0.014732121,-0.012739545,0.016489921,0.06655499,-0.02257051,0.029519912,-0.06956675,4.542813e-05,0.036739245,0.021612387,0.015269242,0.0071584973,0.038498662,0.017793931,0.0123881325,-0.0023222656,0.026080674,0.016726054,0.015347641,0.013512045,0.027498007,-0.008262453,0.055630185,-0.007842106,0.028475344,0.030480077,-0.016289543,-0.017491132,0.011694299,-0.027564425,-0.0029129835,0.016466612,-0.05289483,0.01771242,-0.011215101,-0.00014446466,-0.046298772,-0.003520263,-0.012799486,-0.007839443,-0.06145844,-0.010770162,-0.00541822,0.009669913,-0.01021863,-0.029969973,0.012156523,0.013073757,0.0008609398,0.042331375,-0.018838692,-0.06867123,0.0058840225,-0.023569431,0.004665059,0.019406665,-0.048546903,-0.021834446,0.0026788027,-0.031639077,0.023779022,0.009931373,-0.026949923,0.028946487,0.010724365,-0.12761958,-0.017246421,-0.039172366,0.005069212
0.026272237,0.039661054,0.002207633,-0.0066655283,0.036669467,-0.032900866,-0.0087892525,-0.0053903568,-0.09184359,0.021629594,0.00030100901,0.03863813,0.006935812,-0.042281996,-0.008489209,-0.010146141,-0.012051699,0.009965827,-0.024681684,-0.023969753,0.012161809,-0.031279076,0.03207603,-0.019214213,-0.016610047,-0.00017027269,-0.02069148,-0.0013709909,-0.045795426,0.019606315,-0.036614556,0.0036651888,-0.022346083,0.054695405,-0.03326789,0.034327764,-0.016874364,0.074846216,0.006930468,0.032753646,0.045818083,0.05556137,-0.00997543,0.011052752,-0.010906603,-0.04890205,-0.0132165495,-0.0064217295,-0.012374232,0.010295557,-0.037288927,-0.0019298707,0.0071887313,-0.017746037,0.014222684,0.061641645,0.008079147,0.030488057,-0.0048167845,0.025570309,-0.01435699,-0.0005357195,0.044366565,-0.043456167,0.030769283,-0.04700499,0.0025695944,0.03449279,0.027170513,0.01300625,0.009068168,0.042978432,-0.0054411544,0.003835732,0.0100172665,0.042918276,0.035357423,0.010545969,0.003525677,0.028530732,0.0030787045,0.036341712,0.0076598763,0.03805307,0.029321184,-0.0027966648,0.006857062,0.039205674,-0.034020852,-0.02165113,-0.017342541,-0.034711573,0.007824719,0.0074902233,-0.007960695,-0.06956464,-0.010011178,-0.025044868,0.017987654,-0.0519564,-0.00017549196,0.009359075,0.010114277,-0.027259782,-0.05017457,0.021569006,0.016373897,-0.0072484054,0.008035312,-0.037182666,-0.07919878,-0.011300743,-0.026182864,0.0011308518,0.040816274,-0.06961772,-0.01946294,-0.022265691,-0.046010546,0.022241155,0.0061770044,-0.0068959766,-0.012457008,-0.014494883,-0.12399121,-0.01561988,-0.058985867,-0.009397969
0.010715593,0.020304024,-0.00028702943,-0.002498303,0.01301477,-0.05421987,-0.019197984,-0.027311841,-0.0727003,0.023787022,-0.015596907,0.005842598,-0.0132747935,-0.021824187,-0.011981484,-0.010227982,-0.024588976,0.0060820384,-0.014632334,0.0014148029,0.015923768,-0.030044766,0.03328742,-0.02364395,-0.0115062995,0.0026713563,-0.016059976,-0.0058390545,-0.03024726,0.018191746,-0.01814324,0.009210332,-0.015448541,0.050727107,-0.012895473,0.036656316,-0.017753664,0.06363452,0.014349764,0.034935802,0.04104719,0.053126976,-0.0089160865,0.0015600824,0.014062829,-0.060061146,0.008095747,-0.008795935,-0.0037808572,0.051460482,-0.035761274,-0.014085518,0.03233137,-0.0060240324,0.017775798,0.04168559,0.01940632,0.014136576,-0.004410397,0.045113944,-0.00798435,-0.013883496,0.032071736,-0.031165596,0.047468264,-0.0034976974,0.012073383,0.02257452,0.018763442,0.020232355,0.012368454,0.041118264,-0.011389775,0.011222423,-0.0070111654,0.05797035,0.044515207,0.015604338,0.000110154426,0.027976023,0.012420066,0.01479115,0.015969321,0.04074736,0.036249164,0.015918722,0.02851032,0.0518166,-0.036108684,-0.037109286,-0.04230018,-0.0012254087,-0.012290147,0.022257814,-0.00050976797,-0.076972365,-0.009004925,-0.023461401,0.0393383,-0.013338146,0.005706017,0.027702808,0.014803295,-0.030222785,-0.04395391,0.028680459,0.012720154,-0.016919397,-0.016599886,-0.060592223,-0.055959865,-0.027017323,-0.019639224,0.018948328,0.041633505,-0.063581236,-0.030104997,-0.021277575,-0.030129896,0.011628394,0.016268633,0.0050330684,-0.030875832,-0.035276476,-0.12250418,-0.024953237,-0.05555133,-0.011790348
-0.007139777,0.00057792384,0.0018860172,-0.0024276404,-0.004839924,-0.048049808,-0.0015172288,-0.02185455,-0.053245317,0.019185267,-0.029726785,-0.038606435,-0.029898481,-0.01908915,-0.011421166,-0.010923491,-0.010746281,-0.0060819006,-0.017008211,0.03633202,0.026674854,-0.019562945,0.03322555,-0.034950543,-0.025912382,0.018344684,0.022552053,-0.022856541,-0.014271573,0.004527262,0.0011979722,0.0053974,-0.013743427,0.024522478,-0.0020133294,0.038458157,-0.013594572,0.06103846,0.013306049,0.028067973,0.030814048,0.0664364,-0.0039993813,-0.010470558,0.03956986,-0.051458158,0.028821575,-0.007139248,0.0093119545,0.07064044,-0.027421974,-0.025851991,0.023845255,-0.0009032087,0.025531672,0.033560745,0.025294755,-0.0021534893,0.001968113,0.050784837,-0.008502019,-0.019630283,0.017911261,-0.02061581,0.055904098,0.017739302,0.0269906,0.009685825,0.0033867855,0.030286396,0.022628048,0.03317662,0.0036647285,0.011572683,-0.01755797,0.052606076,0.016029809,0.016553616,0.0040622726,0.022632102,-0.012509558,0.009711354,0.024981927,0.04065558,0.051844545,0.024049398,0.044026352,0.048818197,-0.05048476,-0.02888273,-0.050060485,-0.012065782,-0.015557227,0.0102486955,-0.0055656154,-0.06828754,0.009106305,-0.01964541,0.059324857,0.020653479,-0.008091161,0.017901313,0.01928953,-0.034627825,-0.019240608,0.031540856,0.00799578,-0.02371516,-0.017436627,-0.07889235,-0.031248372,-0.034784358,0.00590906,0.031470418,0.018756732,-0.049876556,-0.033459794,0.00073788106,0.00059947633,0.0008292577,0.01793464,0.0043359324,-0.052599777,-0.08026643,-0.13100061,-0.039688922,-0.04245486,-0.007134077
-0.028003722,-0.004501467,-8.255139e-05,-0.00055729423,-0.011808713,-0.024243196,0.01635182,-0.010650963,-0.042825405,0.005286704,-0.04719171,-0.04285526,-0.040029414,-0.029245107,-0.021957314,-0.0075342483,0.008787542,-0.015709186,-0.011679788,0.059080105,0.017328147,-0.01883493,0.020233406,-0.054776397,-0.027305603,0.04255252,0.037709918,-0.044925295,-0.0073126163,-0.0070577622,0.012618207,-0.008502324,-0.0031908662,-0.003937805,0.0050757066,0.04288755,0.008583947,0.05738709,-0.0095938565,0.0064133173,0.021706661,0.068564706,-0.005274847,-0.017438961,0.04782159,-0.038207315,0.052947115,-0.011918661,0.020877292,0.053864963,-0.02794298,-0.030092448,-0.0073946994,-0.003164998,0.016896807,0.036045652,0.02922965,-0.011418385,0.022808487,0.026516387,-0.011964077,-0.00921367,0.006801511,-0.010223268,0.049551904,0.011838586,0.030793084,-0.006578011,-0.010791663,0.028713107,0.019123068,0.028035847,0.009435374,0.0140469875,-0.029377578,0.0433726,0.0010141177,0.025983004,0.010802615,0.020117328,-0.038559485,0.021938257,0.028618889,0.032566838,0.06320591,0.03319395,0.04879755,0.040167306,-0.05256513,-0.008816628,-0.045325574,-0.02348779,-0.023255834,-0.01564593,0.0030707482,-0.05064205,0.008986778,-0.021130376,0.064146504,0.023813432,-0.026271142,-0.005464166,0.023042936,-0.011348402,0.0031174156,0.024565132,-0.0068773977,-0.02378598,0.009239635,-0.0652801,-0.006205416,-0.02430183,0.016301,0.041924883,-0.017138558,-0.02432459,-0.04217655,0.01167035,0.026089646,0.010520865,0.03474414,-0.017043151,-0.029011784,-0.085820176,-0.14260392,-0.047376152,-0.023246689,0.0042807944
-0.040305376,0.000980263,-0.00993952,0.003607579,-0.002571258,0.009836079,0.033803664,-0.014782306,-0.040031806,0.01083208,-0.041322455,-0.020104388,-0.03708364,-0.04972111,-0.01696353,-0.0043361452,0.027323863,-0.010480532,-0.009253732,0.03391098,-0.0020869893,-0.013557446,0.015701666,-0.06041586,-0.04457319,0.06652969,0.051723067,-0.070688635,0.009392561,-0.0017723552,0.015981203,-0.009803401,-0.0016735996,-0.017292788,-0.0017605864,0.050939802,0.028524352,0.054907102,-0.02834944,0.011990021,0.028528152,0.06055357,-0.008112445,-0.0098413825,0.04096823,-0.020649625,0.040480666,-0.01213067,0.034644477,0.025202341,-0.020044869,-0.02313826,-0.03699724,-0.014241197,0.009102534,0.037658248,0.027881948,-0.010720404,0.04271026,-0.005822605,-0.0069215703,0.015620847,-0.004739154,-0.008853025,0.031911753,-0.007961718,0.025756195,-0.0044440543,-0.006007053,0.02947683,0.015334687,0.008242403,0.012373963,0.018042991,-0.027761774,0.042567674,-0.010014452,0.034723505,0.01864456,0.022918552,-0.050277896,0.018367069,0.036181886,0.026497323,0.06261219,0.046228748,0.035334617,0.028671809,-0.04431495,0.016478233,-0.034771524,-0.03154403,-0.009698779,-0.035077248,-0.004489513,-0.030536946,0.013740439,-0.017661385,0.053232696,0.0008659434,-0.038349345,-0.019163506,0.031200672,0.0027312736,0.014441416,0.0025924153,-0.0060447333,-0.030230654,0.0395872,-0.048322055,6.744839e-06,-0.011555854,0.027110416,0.03994044,-0.027953237,-0.029934831,-0.038411222,0.015119697,0.01700472,0.033982787,0.056159426,-0.027331516,0.007155369,-0.042735923,-0.13745193,-0.039346963,-0.010407921,0.012026556
-0.04824882,0.016930984,-0.01793942,0.0005514237,0.00091294904,0.02501128,0.048046615,-0.0005716438,-0.055966742,0.0065574283,-0.023164814,0.0064568664,-0.019739548,-0.058570344,-0.0039722226,-0.009886216,0.036260657,-4.3537486e-05,-0.003029057,0.0012788528,-0.02176505,-0.010011856,0.014283245,-0.060995873,-0.06253907,0.06494184,0.046655532,-0.0697253,0.023570517,-0.00032503653,0.012163525,-0.023411721,-0.0029461319,-0.015814133,-0.017944094,0.064457156,0.039463416,0.041804627,-0.025730811,0.013796296,0.029897144,0.049293645,0.0018786746,-0.00061462715,0.018432992,0.0005601541,0.031857647,-0.014668599,0.041390292,-0.00224312,-0.0070990236,-0.005482258,-0.065737404,-0.02981669,-0.012019047,0.038726628,0.023298407,-0.014780597,0.03260941,-0.031062914,-0.0063545755,0.051574826,-0.028052991,-0.024521552,0.007947401,-0.030323237,0.019810464,-0.008240718,-0.019512823,0.019957164,0.0046628634,-0.007964769,0.020465257,0.01936761,-0.0216593,0.020183958,-0.014011224,0.0348273,0.027889863,0.02588582,-0.054091435,0.029285392,0.041280728,0.023554243,0.05131219,0.054000273,0.009227351,0.026032532,-0.034473214,0.038872715,-0.01811654,-0.03270273,-0.004271909,-0.04039137,-0.01876503,-0.015002869,0.0123977745,-0.01597418,0.059219167,-0.027896602,-0.047641393,-0.038160633,0.0336033,0.012248483,0.011783617,-0.016356057,-0.011036123,-0.022505647,0.062223356,-0.038673554,-0.015066509,0.0061291778,0.024295727,0.023318773,-0.029522128,-0.0290708,-0.02633922,0.019516783,0.0052596023,0.056730278,0.049400397,-0.033478003,0.031256527,0.0007556786,-0.11196852,-0.024533764,-0.021172512,0.018896084
-0.053310245,0.041089587,-0.015844861,-0.0035357773,0.011669596,0.023628773,0.04439844,-0.0037789263,-0.06553223,0.011792354,0.0054685236,0.04222771,-0.0021698615,-0.06640673,0.005006719,-0.006965599,0.023527935,0.012287794,0.0019296615,-0.022707108,-0.031531494,-0.0037509836,0.012394372,-0.060109,-0.06483538,0.04794096,0.027098127,-0.058243025,0.035058297,0.020989496,-0.016216593,-0.025724515,-0.0059088194,0.0026339483,-0.038597874,0.05667675,0.024671331,0.033670932,-0.015038476,0.019566318,0.017280573,0.04840382,-0.0069791633,0.013324861,0.00072552846,0.01737003,0.014217812,-0.014023866,0.025094643,-0.017085655,-0.012865989,0.006157516,-0.04701047,-0.033940937,-0.022784483,0.02412555,0.022928892,-0.008604734,0.013532751,-0.0428583,-0.010417466,0.08318681,-0.044635687,-0.03294284,-0.008513929,-0.05415333,0.014516259,-0.008999754,0.0017935152,0.02012714,-0.011310032,-0.0109139355,0.028294494,0.012019466,0.0057788356,0.018330485,0.007875725,0.021414164,0.028050657,0.02786031,-0.048947643,0.0223306,0.020367071,0.012171919,0.031783856,0.05809152,-0.015920617,0.021827783,-0.011166239,0.0407094,-0.008210498,-0.024329454,0.0024009296,-0.023670824,-0.028336894,0.001444513,0.0109944055,-0.011758304,0.060391266,-0.047331896,-0.034451596,-0.041996095,0.03585157,0.005735923,0.00401791,-0.026354844,0.005038083,-0.013717769,0.06772635,-0.013568383,-0.039696112,0.022299187,0.0062083625,0.002371602,0.006454983,-0.055686668,-0.011041268,0.01798133,-0.029610902,0.05990879,0.03398469,-0.029689727,0.046611693,0.026062787,-0.11063749,-0.006151467,-0.04244401,0.021381656
-0.03518566,0.049917247,-0.013962456,-0.007697853,0.0019676914,0.0058817025,0.020473868,-0.011036637,-0.0745263,0.023585113,0.027575098,0.06492692,0.021186631,-0.06279358,0.0019570815,0.00082106143,0.003739172,0.0029190686,-0.00436417,-0.0417862,-0.027634107,-0.007992436,0.012457372,-0.049985867,-0.07459474,0.024300754,0.00830944,-0.043477155,0.026095467,0.024818651,-0.04834531,-0.019862216,-0.010887875,0.025846565,-0.040832516,0.054803614,-0.0030652743,0.041554384,0.013413662,0.03535374,0.013712389,0.041966412,0.0021119365,0.031832542,-0.011204953,0.022778166,0.002277577,0.0013991656,0.022189194,-0.0102827195,-0.015561743,0.005931049,-0.021608114,-0.03182291,-0.02011254,0.006526807,0.022535373,-0.00026829715,-0.009526087,-0.03322066,-0.0024477884,0.086583264,-0.05032265,-0.041271932,-0.0022779484,-0.04616303,0.01113064,-0.006142641,0.013102647,0.018953856,-0.0013510414,-0.0033135186,0.021240462,0.018032718,0.029130507,0.015677972,0.0327911,0.0010682542,0.025930755,0.020917602,-0.023151392,0.0065367017,0.01364047,0.01786869,0.016633835,0.03785703,-0.017836971,0.027215315,0.00995521,0.015138012,-0.02545284,-0.017771713,0.0083822,-0.0055947425,-0.03593684,0.0012688003,-0.002520089,-0.0074533084,0.04021387,-0.06023985,-0.02770987,-0.02419854,0.038549654,-0.011973486,-0.017181924,-0.01821722,0.019915776,-0.0013904907,0.038407214,-0.013540459,-0.072490156,0.023689235,-0.013990335,-0.011807686,0.03614367,-0.075555176,0.0008142218,0.004661975,-0.056657188,0.03973992,0.012960942,-0.010098008,0.022082804,0.04073644,-0.122633845,0.00520845,-0.06719071,0.027981082
-0.03614655,0.046400502,-0.014093359,-0.00045514636,-0.004887876,-0.022511847,0.012425244,-0.013012614,-0.07456149,0.030196272,0.042580772,0.038499758,0.016699182,-0.03692887,0.012643158,0.008936653,-0.0076954504,0.006886365,-0.0008683313,-0.030792432,-0.013872975,-0.014579805,0.019399503,-0.052145556,-0.05584172,-0.0023955689,-0.009590935,-0.02286622,0.024422847,0.028300542,-0.055477694,-0.012498585,-0.009909772,0.039021734,-0.037501793,0.039502017,-0.022654029,0.034111757,0.028126754,0.03501725,0.011517203,0.0442483,0.0048434227,0.046099648,0.0017327396,0.022750093,0.00329191,0.016610336,0.014484514,0.014447683,-0.024133654,-0.0071676755,0.01580898,-0.018028881,-0.0010310523,-0.01748713,0.030935455,0.011547444,-0.022559244,-0.0050054,0.0050213556,0.07624388,-0.053718388,-0.042136904,0.009370266,-0.015808403,0.010915536,-0.0032788622,0.023916151,0.021281645,-0.0028982512,0.0022168423,0.019319104,0.010365621,0.050164748,0.024818193,0.05609419,0.0015684566,0.025518483,0.031510312,-0.0040916433,-0.013687755,0.0035016823,0.02244017,0.009414642,0.032530747,0.0024460934,0.034755576,0.01861658,-0.00065836863,-0.041162547,-0.0040043634,0.011664373,0.016083654,-0.02975899,-0.008071991,0.0027925754,-0.0043640793,0.05450155,-0.029933931,-0.015393671,0.00876995,0.043098602,-0.02618082,-0.014531279,-0.012836917,0.03833717,-0.0023330864,0.014686377,-0.023247845,-0.08869445,0.029618941,-0.028304596,-0.0254844,0.057371385,-0.07855007,0.011055342,0.0020233472,-0.055694625,0.0076000043,-0.003610066,0.008515428,-0.010533137,0.010711504,-0.13340522,0.0047216923,-0.07829738,0.039474506
-0.033704296,0.028241655,-0.01643102,-0.0032767414,-0.025407033,-0.028567975,-0.0009146197,-0.028606165,-0.043398477,0.021613732,0.026277179,-0.0113683455,0.022820963,-0.029827515,0.011308037,0.017251343,-0.019653087,-0.01056721,-0.011835677,-0.0030704078,0.0034295786,-0.008069532,0.023150742,-0.042840336,-0.05060772,-0.01730228,-0.0023319828,-0.0211375,0.024581635,0.018721862,-0.047505263,-0.0049281055,-0.014375982,0.027833324,-0.020594977,0.043643184,-0.04225988,0.036947403,0.02875797,0.036365386,-0.0105566485,0.041841365,0.014943653,0.040304024,0.021510808,0.018155755,0.01199476,0.024902534,0.011373614,0.041874897,-0.029072715,-0.034692243,0.039163508,-0.0016164532,0.0072742007,-0.046085224,0.029669164,0.008972089,-0.010977244,0.022896202,0.01791707,0.043982364,-0.057477966,-0.026680717,0.021220531,0.011659682,0.02410749,-0.021476764,0.0206677,0.013376271,0.0038057028,0.015936835,0.0193094,0.011179524,0.05723129,0.013044198,0.0487608,-0.023430524,0.007836161,0.022899332,-0.0034705175,-0.039875787,-0.016764125,0.011143091,0.019745767,0.017756535,0.021061052,0.04621311,0.006353898,-0.014184555,-0.06272215,-0.013267132,0.011074111,0.020648295,-0.007874574,-0.010803602,-6.72235e-05,0.003801412,0.045958195,-0.0050127725,-0.017838363,0.016726714,0.040782135,-0.040381946,-0.013014436,0.0038452602,0.045909062,0.0036358219,-0.013342522,-0.02576014,-0.07043232,0.014299266,-0.03435903,-0.02791728,0.070438035,-0.067495726,0.007642429,0.008166682,-0.048705168,-0.023977928,-0.016376693,0.010695879,-0.046301633,-0.032653786,-0.14142556,0.001037996,-0.07559009,0.045424834
-0.04111267,0.013964714,-0.0131483115,7.9166006e-05,-0.037099324,-0.021279499,0.0105983,-0.031060448,-0.024623442,0.014255527,-0.002912609,-0.060944222,0.015363349,-0.03000568,0.011589403,0.01301274,5.7201225e-05,-0.017619452,-0.019231496,0.038230896,0.010817877,-0.0023636,0.02335071,-0.055765174,-0.04705822,-0.014981956,0.019346189,-0.033010446,0.019404253,0.0101399105,-0.023946214,-0.004169834,-0.014121936,-0.006719673,-0.010642331,0.04300825,-0.04300122,0.029298905,0.018505206,0.030103672,-0.01930844,0.03842266,0.010460088,0.034762517,0.048758976,0.01140544,0.026589647,0.037160367,0.021289222,0.062358107,-0.0192919,-0.059851423,0.040136307,-0.005372405,0.013762673,-0.07042526,0.023205172,0.0089539355,0.012705103,0.038884938,0.030937504,0.014646682,-0.046535403,-0.017250873,0.034200706,0.02613596,0.04147125,-0.0251082,0.00014310869,0.009997665,0.019462237,0.013557849,0.029866153,0.015035004,0.049376845,0.002223941,0.035455815,-0.03006793,0.005327098,0.027747553,-0.016307125,-0.033305317,-0.03317217,0.028147126,0.028886486,0.013208232,0.028395688,0.057986874,0.00095977006,-0.015189528,-0.06138725,-0.032908,0.016772043,-0.0065640355,0.005925348,-0.016756697,0.006472519,0.016521912,0.0382882,0.017495997,-0.022437636,0.00772911,0.048137452,-0.04478652,0.004966631,0.014746034,0.051523145,-0.0026359758,-0.013036468,-0.026304336,-0.04342961,0.0094681,-0.033054,-0.015015725,0.05286456,-0.05021227,-0.002594153,0.029472984,-0.02347051,-0.03638997,-0.0140877655,-0.010569833,-0.056581493,-0.074990235,-0.14011091,-0.008727804,-0.0578811,0.0472277
-0.046665058,0.0041343938,-0.01778727,-0.0022137791,-0.027892362,0.008545776,0.022035608,-0.028557887,-0.013513771,-0.002694272,-0.024140486,-0.08173401,0.010904555,-0.043453515,0.010316487,0.009820738,0.004673571,-0.012608765,-0.024620425,0.05555105,0.011299809,-0.007653563,0.020269994,-0.057455674,-0.03385672,0.005537929,0.041858755,-0.052370716,0.003923922,-0.0016449521,-0.0075499685,-0.0069686854,-0.014860125,-0.03459599,-0.0007452862,0.04453066,-0.01794302,0.03247017,-0.004603554,0.010471344,-0.016375273,0.024406623,0.0006169321,0.026116645,0.05786798,0.008859786,0.031955376,0.0379609,0.022746837,0.031045564,-0.019497113,-0.0693609,0.0065644854,-0.0017871704,0.012196967,-0.08100533,0.006852415,0.006654706,0.035105485,0.025582368,0.043198004,-0.0031470782,-0.037922017,-0.011381706,0.022528939,0.009847382,0.04803896,-0.02536273,-0.0074463473,0.0064712255,0.014306117,0.012663132,0.034476783,0.017709158,0.03698042,-0.0064434465,0.0074316887,-0.02886421,0.015296417,0.023424726,-0.029585483,-0.022401052,-0.04391379,0.025771333,0.044388562,0.020274604,0.020065846,0.054871853,-0.002142294,-0.0016055146,-0.050296824,-0.059700042,0.018892147,-0.034431085,0.02993306,-0.004009426,0.0113844415,0.012323618,0.015598417,0.014827953,-0.045430504,-0.013680469,0.043752372,-0.02795326,0.015621907,0.0027260566,0.04117534,-0.011722271,0.0056412574,-0.019978615,-0.018953193,0.011275976,-0.028088862,-0.0014797066,0.030405775,-0.022425648,-0.008360875,0.03289313,0.00267599,-0.036051463,0.0077895015,-0.032739148,-0.036000594,-0.08044444,-0.13518664,-0.0092237005,-0.03258689,0.05771408
-0.040750246,0.0057470943,-0.017455446,0.0019147851,-0.014049181,0.03387229,0.026204286,-0.02565241,-0.011132678,-0.011551031,-0.035067864,-0.060419824,0.013893899,-0.06760068,0.004442482,-0.0017148603,0.018460868,-0.021223588,-0.016709888,0.046130076,-0.004453107,-0.022140738,0.014029721,-0.06235141,-0.031426013,0.020269083,0.051989436,-0.073501654,-0.0021629469,-0.0063387854,0.011431588,-0.024078598,-0.01045192,-0.05684872,-0.009822324,0.05539187,0.00034412212,0.028347757,-0.034951426,0.009100538,-0.008562,0.027637914,0.020906433,0.024020432,0.04413504,-0.0125445025,0.02653739,0.031578593,0.035050925,-4.82559e-06,-0.014429279,-0.0582681,-0.019847782,-0.0059754755,0.006871166,-0.0789854,0.0021463702,0.0065844916,0.06311338,-0.004945881,0.046308804,-0.0011524091,-0.026160536,-0.01363813,0.0020615992,-0.012383984,0.03832377,-0.014660682,-0.016391447,0.007982345,0.028922664,0.012158006,0.034394212,0.00875312,0.026366295,-0.017198682,-0.009815576,-0.015428522,0.017687222,0.041700557,-0.03706475,-0.0047285035,-0.044268943,0.02849016,0.04579246,0.01915491,0.005067778,0.05487761,-0.0085228635,0.009268162,-0.0150763225,-0.081017345,0.034508023,-0.06918224,0.024105646,0.0001291168,0.017193796,-0.0062352424,0.009248039,-0.016292362,-0.059541196,-0.017574707,0.033367462,-0.014552077,0.02271623,-0.011866932,0.05091864,-0.013855801,0.04335901,-0.005464537,-0.0072830096,0.023661608,-0.012656335,-0.012103001,0.012742497,-0.0097241495,-0.016357303,0.038081627,0.015659725,-0.01912038,0.01812914,-0.04158095,-0.0024248138,-0.052560788,-0.13796426,-0.001504652,-0.020771679,0.04966782
-0.033079766,0.021017442,-0.011702631,-0.0016816849,0.0141399065,0.055993803,0.029301759,-0.005837226,-0.0129726175,-0.023937313,-0.034405537,-0.025745941,0.018353384,-0.08654789,-0.011148586,-0.010025898,0.019755589,-0.0117315855,0.0065993834,0.011084849,-0.017264646,-0.03286124,0.021106312,-0.04735654,-0.017387988,0.031752132,0.037681915,-0.07973431,-0.011202339,-0.0048768125,0.025909476,-0.016983496,-0.0034276608,-0.046550732,-0.014008089,0.06263232,0.0165731,0.032377202,-0.0375591,0.0039133015,0.014068724,0.013341459,0.00020012775,0.030411601,0.022343915,-0.029369634,0.01472973,0.036702197,0.034920096,-0.024681993,-0.01557074,-0.04648641,-0.03900792,-0.0036229256,0.010042612,-0.06859664,0.0017553188,0.01834726,0.0725115,-0.022816524,0.054640934,0.012701101,-0.011865747,-0.013292957,-0.023222907,-0.045054063,0.026373757,0.0061968206,-0.009927864,0.014239346,0.025522463,0.026321467,0.010204953,0.021465763,0.02290344,-0.0039625065,0.0047357487,0.010493914,0.011527424,0.0407257,-0.031709272,0.001480382,-0.034488264,0.029978544,0.052682366,0.020252522,-0.017189335,0.05479092,-0.002915572,0.026764004,0.0027638362,-0.086003624,0.041827716,-0.08875553,0.01840557,0.0105550615,0.017988684,-0.02333752,-0.011376539,-0.038026776,-0.06599167,-0.026647208,0.011240238,0.006266517,0.013348274,-0.031029899,0.0392698,-0.016372157,0.06199471,0.0048253625,-0.01179095,0.02917805,0.0020673613,-0.024184335,0.017417341,-0.0057640458,-0.021200595,0.029485367,0.017845493,-0.002057068,0.04001618,-0.04230199,0.03992984,-0.020568063,-0.1024735,0.0086239055,-0.015650569,0.025260776
-0.03504812,0.029555833,-0.006741643,-0.0063726692,0.035472173,0.053193834,0.0071948054,-0.014235906,-0.022860887,-0.028858751,-0.034633737,0.015317646,0.01720874,-0.08885836,-0.033195883,-0.015541134,0.005241308,0.0020551172,0.011976079,-0.01683002,-0.024427656,-0.0571398,0.013121888,-0.015683517,-0.013300632,0.03709168,0.012514465,-0.0772427,-0.009204327,-0.0035533954,0.02522333,-0.0027402611,-0.004423187,-0.019311953,-0.010535445,0.062330455,0.019545365,0.030711014,-0.034308646,0.00096216844,0.027938187,0.00164868,-0.0034542144,0.030667178,-0.0069926702,-0.05006944,0.005382398,0.037005655,0.035414625,-0.023207972,-0.015702132,-0.03134335,-0.022402845,0.0013165115,0.016594693,-0.055724822,0.0036527177,0.00837396,0.066366196,-0.04297008,0.043729473,0.018551616,-0.025118567,-0.039718978,-0.044672668,-0.07421376,0.008882657,0.026095014,0.0035802627,0.006992751,0.031742703,0.043159775,-0.028579203,0.01689937,0.01941065,0.0056130174,0.01600203,0.0319428,0.015338899,0.04033998,-0.009840157,-0.01883761,-0.016665833,0.0420936,0.047173306,0.033876095,-0.0039191786,0.05297235,0.006609001,0.02753758,0.0044302405,-0.061410774,0.042084426,-0.070305794,-0.0016699778,0.00801587,0.01385884,-0.05378146,-0.01243287,-0.064463876,-0.05798179,-0.0075461217,-0.012323626,0.021520186,-0.014261353,-0.05187175,0.042679884,-0.031716987,0.058641996,0.0008682094,-0.025274497,0.03598106,0.009424075,-0.035156947,0.026154764,-0.02352524,-0.012412219,-0.0014233235,0.0029909725,0.015339067,0.053687304,-0.0198877,0.05332167,0.006750346,-0.10004475,0.01817123,-0.024989119,0.008497469
-0.0300414,0.03782933,-0.009512147,-0.0054392223,0.035406515,0.030230727,-0.011501923,-0.006932742,-0.021225624,-0.0034464987,-0.029951999,0.04553629,0.014942613,-0.066261515,-0.032893702,-0.004620407,0.0016213754,0.018210074,0.021895453,-0.04092681,-0.015123534,-0.04285512,0.014387066,0.009068682,-0.011901587,0.026948536,-0.01167081,-0.05556811,0.007560683,-0.0035029466,0.010263289,0.010055836,-0.0067023793,0.013901459,-0.0065528713,0.062359326,0.023035673,0.03609492,-0.012230726,0.009906222,0.034931093,-0.009029274,0.0129275145,0.032447137,-0.010576214,-0.058552943,-0.012569325,0.049315657,0.039254338,-0.0024033287,-0.010197952,-0.035312783,-0.0022952827,0.011047259,0.02400516,-0.037368286,0.016782504,0.009114072,0.052781563,-0.032830514,0.04140551,0.032389637,-0.030744897,-0.03864876,-0.045841325,-0.056219567,0.001736281,0.034950487,0.022790255,0.009392099,0.0344761,0.055275965,-0.044089694,0.024826456,0.029885996,0.024406146,0.034120303,0.041780453,-0.0060176295,0.03763447,0.014578139,-0.04130584,0.007896232,0.036051705,0.050519153,0.043357726,0.004883959,0.049137037,0.01487607,0.0028726053,-0.019106148,-0.02718338,0.038942598,-0.046058398,-0.02393158,-0.0040951204,0.012801831,-0.057727765,0.0022868863,-0.05944946,-0.031002922,0.020178406,-0.026177404,0.014852927,-0.0401047,-0.05278163,0.046761908,-0.04322545,0.030096933,-0.019495301,-0.041036222,0.025270807,0.0155764315,-0.027849551,0.048756007,-0.034290303,-0.011593479,-0.023986284,-0.01753108,0.021826588,0.05689081,0.008596288,0.03743595,0.022325056,-0.104883894,0.02943813,-0.031403936,-0.007839612
-0.03907777,0.023233306,-0.005507496,0.006911886,0.02267831,-0.0075294496,-0.03480877,-0.02120108,-0.023940902,0.0012100852,-0.03021129,0.038061846,0.008989181,-0.039708935,-0.033606905,0.00081635045,-0.016607378,0.0032426368,0.017764691,-0.038702287,-0.007013964,-0.039655853,0.005915024,0.018705154,-0.014484187,0.00463256,-0.03395829,-0.03787952,0.020009436,-0.0040383628,-0.010604541,0.01674677,-0.013717202,0.03081347,0.0059340023,0.055247545,0.0013365815,0.020160407,0.009594309,0.02000613,0.027284045,-0.011406804,0.0032483535,0.0299114,-0.019631028,-0.050721526,-0.008598762,0.05826137,0.023420352,0.028085366,-0.017102495,-0.049403463,0.03565619,0.025653895,0.028476344,-0.050391786,0.013573572,-0.011574988,0.020522652,-0.022643413,0.043401476,0.03514308,-0.053605925,-0.05178027,-0.043578032,-0.02857995,-0.0104579665,0.01678562,0.02125066,0.0009849309,0.03208952,0.045709945,-0.048748083,0.016271383,0.031354543,0.021888273,0.051860683,0.04661097,-0.019561974,0.02313885,0.030163324,-0.06736035,0.01451635,0.036621273,0.043594114,0.04443969,0.01857619,0.042487152,0.022983931,-0.020038264,-0.053115435,0.0050043976,0.033748977,-0.01667882,-0.03765845,-0.01564867,0.0053429957,-0.05472625,0.01824683,-0.03350822,-0.0039032537,0.032937106,-0.019613335,0.0048968378,-0.049185745,-0.047486227,0.038042083,-0.045091912,-0.0066545815,-0.050966714,-0.04684808,0.012334598,0.015863415,-0.041453063,0.05913798,-0.051003523,-0.005432815,-0.04461072,-0.02073368,0.011653439,0.034810662,0.031743206,-0.0048405784,-0.0054214527,-0.12853096,0.026486939,-0.053309567,-0.010947344
-0.046303798,0.0070778676,-0.012115589,0.0059740674,0.0125184255,-0.028894015,-0.03416257,-0.02173471,0.0009766062,0.004957506,-0.035380058,0.0034444625,-0.004437345,-0.011476768,-0.017670956,0.00530542,-0.0040375725,0.0017608127,0.01248111,-0.010491163,0.004213194,-0.020650495,0.005010828,0.022188729,-0.01786197,-0.001529953,-0.021400264,-0.033737585,0.046413556,-0.015947657,-0.003952002,0.018275304,-0.012321196,0.033249248,0.024376322,0.048881155,-0.016220234,0.0046625305,0.03548062,0.012361878,0.01514821,-0.0094153285,0.014654419,0.02488232,-0.0058812248,-0.0382169,-0.00044376595,0.060467128,0.033432025,0.060338683,-0.016101848,-0.056165595,0.06228945,0.037096698,0.032498624,-0.047228754,0.014672505,-0.019866196,0.0051536453,-0.0036952465,0.04604003,0.026906265,-0.06882699,-0.031628728,-0.025647582,0.008295748,0.003290966,-0.0010706112,0.016035141,-0.0015744991,0.027641613,0.038682714,-0.03334712,0.018921224,0.033029113,0.023847291,0.042969167,0.040616322,-0.028261716,0.019922195,0.03174229,-0.08685486,0.022423204,0.030149506,0.05718893,0.04987078,0.04678198,0.037404314,0.031082101,-0.025505405,-0.06674552,0.026458973,0.020403622,0.0041278317,-0.037297968,-0.017608425,0.0140494155,-0.025940882,0.040132727,0.014088798,0.01916284,0.05253857,-0.015306606,0.0073979907,-0.039805196,-0.028232096,0.026630715,-0.04288895,-0.032795623,-0.059131008,-0.024577308,0.009386611,0.02224839,-0.025704334,0.055091966,-0.031324126,-0.0030689756,-0.027808808,-0.013852659,-0.0030884878,0.028723128,0.0402071,-0.028077325,-0.026762823,-0.12738706,0.023859594,-0.04204656,0.0024074654
-0.06859846,-0.015745526,-0.019030813,-0.0026016096,0.00052751537,-0.026632804,-0.028871154,-0.020449696,0.012028661,0.0057682926,-0.0655959,-0.031653844,-0.011301008,-0.009903416,-0.0027439122,0.0101073645,0.013340794,0.0042228173,-0.004105834,0.0134014925,0.018760644,-0.010704135,0.0018983926,0.0092995055,-0.018473592,-0.0033614535,-0.0010385859,-0.04368998,0.052046277,-0.0338668,-0.0053848317,0.0023886939,-0.0099505,0.013236448,0.042961724,0.039489053,-0.016728405,0.0013621121,0.016696235,0.005692335,0.0060532987,-0.0067248996,0.010508087,0.017672567,0.009041671,-0.021073839,0.003354593,0.057856668,0.031699885,0.06857929,-0.015632762,-0.073261924,0.04039923,0.03069577,0.019930156,-0.044225127,-0.00038018276,-0.025197845,0.0052505503,0.007265084,0.055002753,0.015151826,-0.07631125,-0.011668283,-0.012166692,0.034661278,0.021466684,-0.021009568,0.0055769407,-0.008998811,0.018353693,0.020318251,-0.0020418577,0.013754882,0.011387048,0.0077355434,0.012895446,0.036273025,-0.030964958,0.014949923,0.00629819,-0.08223161,0.0033459577,0.025569044,0.06400731,0.044770285,0.034433346,0.025409322,0.017619228,-0.027387166,-0.06757405,0.013860808,0.011972329,-0.012821135,-0.02190961,-0.00379015,0.019530775,-0.0020198943,0.041067302,0.049749948,0.02126492,0.0448543,-0.0054231873,0.0037381162,-0.024649318,-0.02443356,0.0047170296,-0.05209542,-0.03304867,-0.086163126,0.0083614,0.004464276,0.02552841,0.0036633338,0.015035219,-0.0038518936,-0.009992188,-0.009773633,-0.0005834491,0.0009197198,0.03441924,0.020770896,-0.04463089,-0.060478263,-0.13044867,0.017888578,-0.021012377,0.01823472
-0.07394727,-0.020537738,-0.028152145,0.0009924411,-0.004415375,-0.0015185854,0.010428019,-0.010713129,0.023318833,-0.00011692274,-0.071684964,-0.044401284,-0.008076804,-0.009389465,-0.0014041271,0.012627055,0.032749437,0.0071369438,-0.010835289,0.027466455,0.021979388,0.0020834315,-0.0040564826,0.0063597113,-0.028551841,0.010753787,0.03134075,-0.052873697,0.06172392,-0.04023835,-0.0011116572,0.00019262744,-0.009767517,-0.014509792,0.04568688,0.034596957,-0.012600202,-0.01234011,0.010435196,0.0049396264,-0.0026767415,-0.01013254,0.011281677,0.012997008,0.016858453,0.0020587202,0.0014141131,0.056260698,0.043180447,0.049974654,-0.012016053,-0.08531104,0.006360506,0.02325304,-0.0017950864,-0.040285174,-0.020751836,-0.023365632,0.016850673,-0.01800673,0.055163354,0.021287551,-0.07872191,-0.008872912,-0.028182756,0.018908072,0.02641549,-0.039451126,-0.015447951,-0.019222163,0.016817067,-0.004101959,0.028949978,0.014825439,0.00056357105,-0.010633702,-0.017754499,0.030506901,-0.024452915,0.016316244,-0.013595641,-0.06405379,0.005627819,0.015743466,0.07683304,0.04861353,0.027005939,0.0066141714,0.011855677,-0.018106245,-0.042139776,-0.0034289348,0.013488422,-0.024317035,-0.026088351,0.00537218,0.022241866,0.021140266,0.034493335,0.057120137,0.019731112,0.012682966,0.0012842003,0.014725067,-0.008160177,-0.035077315,-0.0076624453,-0.042815357,-0.008322927,-0.07677317,0.028208807,0.015141592,0.04108244,0.011870427,-0.0061182044,0.014859268,-0.010250057,0.019902015,0.017645037,-0.0031337033,0.028488968,0.0018174411,-0.014508417,-0.06285449,-0.14199139,0.015970642,-0.0019534037,0.04091037
-0.06792512,-0.009132875,-0.01892418,-0.0062595406,0.009254611,0.03022589,0.02686567,0.001550421,0.01814767,-0.0016199184,-0.06561219,-0.016801385,-0.00069110666,-0.020801026,0.017992537,0.002457426,0.05060313,0.012280468,-0.0104203215,0.012582621,0.014978259,-0.0038143983,-0.012102395,0.0045244046,-0.033942718,0.01549349,0.038949475,-0.06031658,0.059608668,-0.035078373,-0.00042904724,-0.015248117,0.0062863547,-0.024918398,0.032779094,0.037054524,0.0017477983,-0.014555491,0.0028836364,-0.00089997944,-0.0022803892,-0.012234053,0.0057279286,0.023181347,-0.0061270413,0.029952217,-0.018144717,0.0633022,0.048820615,0.016234038,-0.012627929,-0.0669787,-0.026685327,-0.003937449,-0.015053743,-0.0236737,-0.030299567,-0.014111077,0.0248758,-0.040527746,0.06837797,0.035616387,-0.07001311,-0.0072970847,-0.036560804,-0.023316316,0.026280832,-0.045598283,-0.012610776,-0.02185674,0.01085598,-0.010931611,0.04370396,0.014973984,0.0066791256,-0.03247348,-0.032263722,0.03487199,-0.018120352,0.01344843,-0.027783418,-0.046270534,-0.01864669,0.014991571,0.06400053,0.03440617,0.006307257,-0.022699825,0.020042744,0.0043883263,-0.02138552,-0.029004157,0.016125008,-0.04758694,-0.03393503,0.033810504,0.024568351,0.025037905,0.010299901,0.039527196,0.014943047,-0.0055750418,0.004466766,0.029189024,-0.0070087393,-0.043326333,-0.008906127,-0.039882194,0.030533167,-0.05396833,0.022848975,0.029943632,0.03761813,0.0017074839,-0.020501787,0.025869789,-0.0038024697,0.02755651,0.00861131,0.02103921,0.028271938,-0.017778633,0.01474461,-0.033183806,-0.15203492,0.02576006,0.012434485,0.045895115
-0.052575327,0.012766778,-0.024720965,-0.0017298193,0.02926133,0.043897383,0.028079566,0.020391647,-0.00416918,0.011195713,-0.044465292,0.025173329,0.008552529,-0.033331845,0.018978978,-0.0010372865,0.04287422,0.031002415,-0.013289003,-0.01898279,0.007741547,-0.0036084687,-0.0089428155,0.01386893,-0.02855169,0.019665185,0.02201022,-0.04124609,0.05670759,-0.029715914,-0.023331637,-0.02046368,0.0006710047,-0.0014318589,0.008867014,0.029884102,-0.0053977696,-0.005091777,0.0023561276,-0.008994636,0.008724541,-0.02007156,0.0049994783,0.032971647,-0.023315076,0.038695827,-0.042928282,0.07378181,0.036337983,-0.014502874,-0.015621691,-0.06318038,-0.037461363,-0.01679323,-0.034843527,-0.025001492,-0.039945718,-0.002500601,0.016932854,-0.065241285,0.056197233,0.060045462,-0.06905504,-0.017993828,-0.058665916,-0.05539218,0.009365527,-0.043303,0.0011424297,-0.028109677,0.0031747848,-0.009403057,0.035594393,0.017785782,0.022395935,-0.02896033,-0.017034043,0.038765907,-0.0070093796,0.018665675,-0.0047849216,-0.039197747,-0.031116692,0.010988507,0.03614604,0.017766442,-0.010794642,-0.04245747,0.030347323,0.016702903,-0.013351372,-0.03295925,0.03606159,-0.045986935,-0.0362879,0.03829031,0.017984351,0.019879693,-0.0092149945,0.0009687277,0.016246757,-0.0063938117,-0.006866396,0.02499905,-0.022915034,-0.07028452,-0.0070196297,-0.036156703,0.035704967,-0.033452783,-0.0143813165,0.05820566,0.03704811,-0.0119910985,-0.009952275,0.009033071,0.007881818,0.019623766,-0.009353292,0.031365618,0.02000891,-0.009552256,0.042009164,0.005430292,-0.15845498,0.037867725,0.007776486,0.04429004
-0.032334253,0.026989672,-0.01205905,-0.0039404933,0.034996763,0.024860086,0.012919707,0.019115862,-0.012412226,0.021113802,-0.023875521,0.058637302,0.02229533,-0.031363606,0.028998801,0.015752224,0.029345842,0.041888844,-0.011073229,-0.046938505,0.012334599,0.006553771,-0.009052918,0.038585838,-0.025452267,-0.009623737,0.0007029827,-0.015461333,0.061950617,-0.012252367,-0.03781011,-0.008585272,-0.0033704122,0.030662902,-0.0012102638,0.025822181,-0.017925624,-0.0029268723,0.0246707,0.015803505,0.022785602,-0.0132606635,0.008731456,0.045061782,-0.042647485,0.031613752,-0.05795488,0.07136941,0.029650671,-0.012784609,-0.010333323,-0.045682296,-0.0050596073,-0.015903698,-0.022540307,-0.017219895,-0.032713953,0.010616411,-0.009193095,-0.04579383,0.060621936,0.07416179,-0.052875698,-0.019780379,-0.06004814,-0.053429607,-0.005300929,-0.035083044,0.016450105,-0.03584568,0.002385874,0.003460355,0.033238053,0.022131205,0.038572397,-0.019937005,0.004682331,0.027650936,-0.014149242,0.02846697,0.0037368692,-0.029206686,-0.024080101,0.010005738,0.034431573,0.008909615,-0.007878454,-0.03897566,0.050824642,0.0062701474,0.00093840325,-0.020416798,0.04164945,-0.019598495,-0.04210077,0.045245357,0.01341873,0.022034902,-0.00481594,-0.014597884,0.033781916,0.014803147,-0.01728935,0.014114256,-0.040905047,-0.05723403,0.019451626,-0.026085973,0.022832226,-0.023688633,-0.03268722,0.053917706,0.015227307,-0.020209506,0.014281235,-0.005490447,0.023181695,0.016021442,-0.039617628,0.027467594,0.014692297,0.0011328355,0.03022908,0.030253613,-0.13696136,0.056617938,-0.01827019,0.046543434
-0.021918206,0.023258137,-0.013304661,9.51254e-05,0.03777505,-0.004858009,-0.0029849336,-0.00025356002,-0.029754505,0.025920246,-0.02091148,0.040161595,0.033125322,-0.025770845,0.03138757,0.010399286,0.012120294,0.04113779,-0.019458989,-0.04709637,0.023853188,0.015548978,-0.013126368,0.03789524,-0.012998777,-0.033271037,-0.02788716,0.0054779206,0.05427143,-0.011640985,-0.050003804,-0.003480076,-0.0070016664,0.04949413,0.0009076537,0.021674339,-0.046396986,0.006536303,0.03683616,0.02799703,0.00881383,-0.018306037,0.011899941,0.043053355,-0.035948325,0.013357397,-0.06976175,0.076622695,0.011373873,0.003930226,-0.01841243,-0.055219565,0.023329323,-0.0007618006,-0.023279432,-0.04152175,-0.04534044,0.010597206,-0.027778082,-0.016401429,0.05877884,0.046519935,-0.04744183,-0.030938338,-0.046221502,-0.02787041,-0.0077155475,-0.022511303,0.027535457,-0.04389033,-0.007987084,0.008079082,0.023756098,0.015053745,0.03866602,-0.012673253,0.02047204,0.007152632,-0.02284019,0.030041536,0.017594958,-0.039382257,-0.03720051,0.015709892,0.038254768,0.0070441333,-0.017352566,-0.022772582,0.0458904,-0.012924066,-0.011674785,-0.013602718,0.04704134,0.0036759204,-0.030170368,0.019425817,0.0055292724,0.026469823,-0.010096355,-0.014809141,0.04831058,0.030694522,-0.014174145,-0.011003039,-0.049690433,-0.03420232,0.01474581,-0.017512338,-0.014397985,-0.029413942,-0.052774128,0.03664491,-0.007559389,-0.044957794,0.057580758,-0.017149631,0.028018622,0.005439393,-0.062307637,0.0057545435,-0.0058163153,0.014489536,-0.0025668186,0.01103563,-0.120497346,0.063556366,-0.036976807,0.047292165
-0.012442935,0.0074858754,-0.008051887,0.0015660009,0.015851226,-0.030296553,-0.015066894,-0.010252095,-0.02741449,0.024561808,-0.036938872,-0.006349669,0.036871478,-0.018282287,0.0336605,0.015054722,0.006326333,0.034349952,-0.025008632,-0.016107904,0.044307176,0.023651052,0.00070948375,0.045729376,-0.0025108207,-0.056345724,-0.0200883,0.016063023,0.052662242,-0.015826896,-0.039085113,0.0070235305,-0.013912344,0.042344794,0.021145985,0.01490572,-0.067296736,0.013106552,0.046102375,0.038273484,0.007268476,-0.010682174,0.0184668,0.037725735,-0.013913145,0.0054118666,-0.061621793,0.07694466,-0.0016544487,0.018526146,-0.019117331,-0.07318273,0.05799616,0.0051065264,-0.003900315,-0.05569468,-0.05257002,0.0236603,-0.03386961,0.014551142,0.065484084,0.0051315753,-0.030429563,-0.01703198,-0.032277804,0.010084586,0.00522195,-0.033632778,0.013540988,-0.044266567,-0.008491206,0.013118147,0.025572572,0.014221756,0.047546044,-0.011462149,0.009144822,-0.0026216751,-0.016293278,0.036771934,0.02046834,-0.025711307,-0.05199943,0.021880032,0.043140493,-0.0017765721,-0.005007411,-0.009455187,0.03520422,-0.03700362,-0.018819071,-0.01973573,0.040041815,0.01394839,-0.0036237768,0.01670698,0.0007610493,0.043821502,-0.013787257,0.015340555,0.061155282,0.044225805,-0.013095587,-0.036326375,-0.047404923,-0.015360928,0.017960878,-0.010767526,-0.034484707,-0.042985458,-0.021243805,0.023727538,-0.019028133,-0.01770184,0.06358078,-0.005230769,0.018250672,0.006961078,-0.050098438,-0.019152442,-0.021650568,0.012451307,-0.035304885,-0.02728244,-0.10376127,0.069355465,-0.035875525,0.054645747
-0.009990983,-0.010155193,-0.0014520976,0.00030193603,0.018021187,-0.02548347,-0.0064748703,-0.00847288,-0.014726605,0.011336583,-0.058914047,-0.046570893,0.016769348,-0.014720311,0.0358154,0.018228685,0.012812589,0.022169607,-0.037273336,0.011826241,0.06402399,0.021707576,-0.0035422437,0.034573067,0.00817118,-0.053779375,0.0034151608,0.0032983867,0.032138955,-0.029707856,-0.013886127,0.0067021926,-0.0074451235,0.01370402,0.032171678,0.006918022,-0.072152115,0.009883377,0.031414617,0.021800617,-1.0348325e-05,-0.0065383427,0.014825238,0.028085548,0.0075191325,-0.006924782,-0.055908162,0.07850051,-4.6219247e-05,0.032169525,-0.018513154,-0.094121814,0.043387387,0.014897727,0.00094731693,-0.06114288,-0.066244416,0.01578383,-0.017235473,0.03245459,0.07100383,-0.028308906,-0.015259836,-0.0016190533,-0.021024171,0.030154774,0.024584513,-0.043743875,-0.0015186281,-0.05719978,0.00063736754,0.012869859,0.03259001,0.0155942915,0.024292344,-0.0068264445,-0.010431178,-0.004734098,-0.025988152,0.03644918,0.008486032,-0.0149527425,-0.06820275,0.026649494,0.05670131,-0.010530781,0.0019396975,0.0025817102,0.017652545,-0.042300723,-0.019155506,-0.04223782,0.037333425,-0.0054500336,0.012308696,0.0054182294,0.007244302,0.055768028,-0.021032352,0.03625927,0.047152378,0.035110842,0.0007308656,-0.045375984,-0.033173095,-0.007821366,0.014012705,-0.016783534,-0.038492728,-0.042606223,0.002921197,0.010659553,-0.01212206,-0.0022575087,0.03626864,0.01617337,0.007325723,0.02707768,-0.028304659,-0.037686918,-0.011245178,-0.008237848,-0.048524108,-0.05870228,-0.1112595,0.054963525,-0.010918522,0.0634029
-0.011717397,-0.0151156485,-0.006738906,-0.0022103093,0.01521975,-0.0015999797,0.005671992,-0.0075763525,-0.002978511,0.006322097,-0.08193783,-0.070599854,0.008524036,-0.022850022,0.024862949,0.0040895953,0.03629784,0.023750165,-0.03120973,0.030941786,0.06356062,0.027756372,-0.0051107616,0.01619416,0.018599661,-0.02003543,0.02752002,-0.013005057,0.022203542,-0.034436643,0.01083134,-0.0022069553,-0.009595751,-0.008097307,0.038298372,0.005115549,-0.049138386,0.021932418,0.010253143,0.010091108,-0.0011108973,0.0029229186,0.015938945,0.016632415,0.02716186,-0.012590665,-0.038162403,0.063973576,0.0081076035,0.0059434124,-0.009432594,-0.093240924,0.012521444,-0.001012702,0.0012925761,-0.05132753,-0.06550725,0.025947837,0.0118145365,0.01463872,0.073641255,-0.042583607,0.01541259,0.009279377,-0.022704368,0.01291246,0.025268322,-0.041982677,-0.009073309,-0.051186103,0.0030698706,0.011985323,0.045887824,0.016594442,0.012090845,-0.010893493,-0.031950958,-0.0038165646,-0.008832614,0.032171924,-0.010061867,0.0065014986,-0.06652742,0.024937082,0.06531674,-0.0073788106,0.006991349,-0.0031227171,0.008659285,-0.02553441,-0.00524545,-0.06534636,0.03946716,-0.03192532,0.025809566,0.0067542153,0.0069416105,0.05969855,-0.032100987,0.035004307,0.026410107,0.011852377,0.009525242,-0.03304777,-0.01973151,-0.0077412087,0.013349734,-0.019209517,-0.00638536,-0.03105433,0.019093668,0.013565062,-0.0060145427,0.012223997,0.011514289,0.04404756,-0.0007463227,0.04004208,0.0019388463,-0.033015087,-0.002805028,-0.025993107,-0.021232001,-0.06950071,-0.12051478,0.050909344,0.009758912,0.05767538
-0.001306692,0.0005146626,-0.007819362,-2.93604e-06,0.030478878,0.028333776,0.018652197,0.016172128,-0.0077771544,0.0059227734,-0.072034694,-0.04031549,0.007002233,-0.03884435,0.0113462685,-0.003595817,0.037582066,0.028114451,-0.030074678,0.013725502,0.052273106,0.0038206344,0.0016576633,0.020349992,0.02570874,-0.007973084,0.03426815,-0.016950602,-0.0011200067,-0.028565317,0.022402074,-0.006047878,-0.0050286828,-0.01784077,0.014945675,0.0021064375,-0.032942582,0.033315778,-0.013640302,0.0049683843,0.012290018,0.0054502157,0.011501135,0.014069763,0.010088142,-0.024160296,-0.043086205,0.05718618,0.008691238,-0.01939788,-0.013599028,-0.06972273,-0.020733984,-0.015288953,-0.006820499,-0.026191399,-0.07039899,0.023826571,0.028826443,-0.0055727744,0.062469825,-0.036852602,0.025993574,0.008210996,-0.036524173,-0.022926793,0.008995408,-0.028434178,-0.010698497,-0.04920836,-0.0011160452,0.02131552,0.03678057,0.012801872,0.0009970071,-0.013875047,-0.045490243,0.015355316,0.0059175524,0.038609035,-0.025372641,0.028863573,-0.06468076,0.025087899,0.05946167,-0.012770506,-0.006115269,-0.016361186,-0.00082873815,-0.0010298106,0.013066404,-0.08946386,0.047567416,-0.057396263,0.02533413,0.021434432,0.009963487,0.040202044,-0.05442475,0.014719243,0.009162248,-0.005327324,-0.012968429,-0.023953123,-0.011374515,-0.014382511,0.011237867,-0.021245882,0.016007867,-0.015367011,0.018338297,0.025902793,0.005714324,0.012142604,-0.006737834,0.04646376,-0.0090297805,0.032783367,0.006419768,-0.01447685,0.011731931,-0.040409412,0.009331974,-0.039020415,-0.12777607,0.046432447,0.026766952,0.046085987
0.014552661,0.017081685,-0.006962069,-0.004661727,0.05597149,0.031590946,0.009772827,0.040815044,-0.028536577,0.0064456947,-0.06060426,0.006866022,0.011612481,-0.052297335,-0.0005023089,-0.0063901083,0.03540736,0.0378129,-0.018444259,-0.02145588,0.04740325,-0.0075730975,0.0046614697,0.041008912,0.04128989,-0.0019229106,0.017675553,-0.002524928,-0.0116578555,-0.030868003,0.0065837917,-0.0029417416,-0.0031765937,0.015365705,-0.010474202,0.005883591,-0.021625891,0.04832182,-0.01105513,0.0010451111,0.030598754,0.00966984,0.005750468,0.009658655,-0.008832146,-0.027095672,-0.0706928,0.05670011,0.00023693126,-0.041815896,-0.014381915,-0.050553605,-0.029109452,-0.027724175,-0.004934351,-0.003534377,-0.06669021,0.025451377,0.032273944,-0.026358455,0.045924474,-0.023379477,0.041051332,0.0018173116,-0.054599416,-0.06758243,-0.010988308,-0.012439468,0.0076696863,-0.04736644,0.0033420008,0.035573717,0.018875865,0.0070200795,2.6009488e-05,-0.0010744102,-0.035947807,0.03593659,0.014459288,0.037859637,-0.011908997,0.036720533,-0.051578473,0.012704498,0.04789407,-0.021909406,-0.013428594,-0.024793807,-0.005155971,0.016844204,0.02343795,-0.083731666,0.05860481,-0.050317377,0.015743567,0.018401299,0.0058990153,0.017177694,-0.0659648,-0.02768589,0.008039433,-0.003647284,-0.02483222,-0.017850254,-0.033659004,-0.03230981,0.024218766,-0.018596724,0.028028868,-0.0009427807,-0.02021806,0.04552796,0.010240666,-0.0057885414,-0.002390491,0.03617985,-0.010984336,0.018260112,-0.011242899,-0.006831547,0.022775441,-0.031920306,0.032385547,-0.009320597,-0.13041092,0.051124092,0.016125731,0.027360277
0.02724143,0.03679572,0.0037009267,0.002560615,0.059886385,0.013144268,-0.0077092177,0.0377715,-0.0486247,0.01493301,-0.050558817,0.041375805,0.010978072,-0.052033596,-0.010044054,-0.00975824,0.016712839,0.047304496,-0.0037648513,-0.044753753,0.043980207,-0.012427209,-0.0022602903,0.05256795,0.038994893,-0.0043570995,-0.016318107,0.0077076037,-0.018333111,-0.013554226,0.0005460734,0.008137532,-0.006127156,0.05114396,-0.02365701,0.010213205,-0.019846711,0.058698155,-0.0006884633,0.02092288,0.046235252,0.014900077,0.008224757,0.015377426,-0.02514511,-0.053471554,-0.07103961,0.059536252,-0.02143877,-0.031582367,-0.019196477,-0.03623096,-0.0041540083,-0.012873561,5.1362782e-05,0.004575047,-0.048502207,0.0301832,0.010494022,-0.023714626,0.04327377,-0.007844081,0.045481037,-0.015193252,-0.05042316,-0.056101374,-0.020852624,0.008312353,0.022118278,-0.03935573,0.0021608432,0.049165316,-0.0062186355,0.010290297,0.004114118,0.028067544,-0.0026812598,0.035924025,0.016769249,0.047131326,0.009229112,0.04717465,-0.034917064,0.032170333,0.04012428,-0.0057385266,-0.012131579,-0.015567455,0.001970349,0.0032999644,0.02119934,-0.070301704,0.06227382,-0.03206654,0.00031240264,0.0019305528,-0.0044630505,-0.0022378007,-0.054648317,-0.048615362,0.017574428,0.016044773,-0.040415734,-0.020828472,-0.050317273,-0.026233811,0.03955781,-0.013204777,0.018881503,-0.0012158696,-0.037589792,0.039071403,0.010234457,-0.011199565,0.023536986,0.008260955,-0.007684145,-0.007559571,-0.03288964,0.00059325853,0.019036021,-0.010599319,0.030515334,0.014820524,-0.113570295,0.059107985,-0.0025899943,0.0038408737
0.022017369,0.03338293,0.0070353313,4.3125798e-05,0.052329794,-0.023859262,-0.025751323,0.023434525,-0.052158892,0.0223842,-0.053018097,0.036373835,-0.0038624494,-0.03683181,-0.024606884,0.0040052026,1.5628111e-05,0.04662024,0.0050552352,-0.053564023,0.048404995,-0.011899965,-0.0006357833,0.05891745,0.042780694,-0.012917726,-0.030948956,0.029768184,-0.009719485,-0.014837155,-0.0013687339,0.029063053,-0.013337007,0.07388045,-0.0075111366,0.010147139,-0.030231068,0.0631899,0.0127990525,0.022174135,0.044111095,0.020455249,0.01648745,0.0056409296,-0.010078202,-0.07525807,-0.06800816,0.056191865,-0.024282675,-0.0077488855,-0.01899332,-0.04046196,0.033111006,-0.00055303966,0.01360933,-0.003956875,-0.03658978,0.023684973,-0.0074644308,0.0032378086,0.03340696,-0.02436098,0.030588968,-0.02732249,-0.044694472,-0.015498381,-0.025776783,0.0048915693,0.033875406,-0.031131724,0.005279387,0.061295155,-0.03140231,0.014280986,0.003448049,0.05159983,0.01610026,0.047080774,0.0069313184,0.05205346,0.028733118,0.031026486,-0.008266984,0.036362052,0.039999772,0.0047752718,0.008948621,0.0027288182,-0.0027566215,-0.009155114,-0.0028970512,-0.03702734,0.04835353,0.0018751615,-0.00074494135,-0.019240588,-0.009406879,-0.005398329,-0.032029293,-0.033178937,0.039908215,0.039499495,-0.042898804,-0.030723725,-0.06333036,-0.017456451,0.033922672,-0.022930428,-0.022595854,-0.022647489,-0.04376406,0.020011757,0.005070635,-0.008685839,0.043146987,-0.008338291,-0.0018364582,-0.025040356,-0.039573345,-0.0024304532,0.03055644,0.016532578,-0.0012957974,-0.0048475727,-0.090733826,0.05779785,-0.010813521,-0.0031082658
0.018433712,0.01042853,0.0014834352,-0.00153504,0.0325656,-0.034243938,-0.047333352,0.018422274,-0.049787384,0.013714081,-0.06741648,-0.0038037847,-0.025781529,-0.011604873,-0.027018363,-0.003437949,-0.009116941,0.02981921,0.004211145,-0.019559182,0.060909208,-0.0023401177,0.0028384784,0.060555257,0.043668598,-0.023741812,-0.032659095,0.030820329,-0.0045867395,-0.029062523,0.0112000955,0.034533277,-0.011830597,0.06493292,0.0008214431,0.0034806984,-0.037992585,0.053365935,0.026476664,0.021143546,0.032804206,0.02108077,0.008323346,-0.004227355,-0.0016543843,-0.08558771,-0.050997,0.05039137,-0.031507295,0.027774565,-0.027398396,-0.054262385,0.046629205,0.024929387,0.026241915,0.004490035,-0.032003924,0.0018816438,-0.020146206,0.017941643,0.025705468,-0.033347916,0.0260301,-0.01666283,-0.030455131,0.013593565,-0.017406903,0.006563748,0.0268675,-0.035614047,0.007587328,0.047736354,-0.03117432,0.012569909,-0.010983554,0.06705609,0.007524519,0.04888967,-0.01075609,0.047956135,0.026389312,0.028376864,-0.0017807131,0.035132002,0.051416483,0.01562828,0.03477406,0.007451994,-0.017865246,-0.03039845,-0.025588851,-0.018210413,0.02912576,0.009062552,-0.00021444004,-0.023030864,-0.013577169,0.00038692952,-0.021593405,-0.003900516,0.03990538,0.047859445,-0.039138686,-0.04228237,-0.05903516,-0.0019461447,0.021308053,-0.031732745,-0.05930014,-0.04622963,-0.020414377,0.0021624877,0.01906589,0.0069818837,0.03018357,0.002712224,-0.024446482,-0.015988097,-0.036237225,-0.010119325,0.021034822,0.026787747,-0.045855068,-0.040501706,-0.08450952,0.047746,-0.011226159,-0.0072518033
-0.0055011846,-0.0013813379,-0.005283809,-0.0011481241,0.0015915899,-0.03947738,-0.029903581,0.024732547,-0.03401111,0.012984467,-0.0955631,-0.037226334,-0.0465144,-0.00048497287,-0.021935048,0.00081520114,0.012513021,0.032762505,0.0025871096,0.017481241,0.06317726,0.0021755584,0.002756245,0.046919763,0.039385855,-0.0025316265,-0.007072465,0.025287753,0.010582965,-0.035358746,0.029831711,0.02595439,-0.005453109,0.04224461,0.015482218,-0.0043400507,-0.02886931,0.05051087,0.01714926,0.0040355287,0.023480436,0.038447212,0.014499613,-0.023140872,0.024372926,-0.06335362,-0.038260147,0.041659813,-0.025306066,0.042366393,-0.019596353,-0.06095516,0.039753158,0.017897487,0.030029705,0.0064693997,-0.027211716,-0.01894711,-0.00805012,0.027009463,0.017730163,-0.052134633,0.011676074,0.003028409,-0.013782777,0.050459977,-0.009562063,-0.016995663,0.0066619003,-0.032798216,0.0034717182,0.02631364,-0.016908636,0.0077233193,-0.03062952,0.06716668,-0.018827906,0.05632411,0.00186335,0.04275915,0.010590397,0.025328508,0.0057381317,0.042679872,0.060494915,0.02727074,0.05041853,0.0016006808,-0.032102846,-0.022676544,-0.03646512,-0.014742961,0.018246926,0.0073081157,0.007759627,-0.028119883,-0.009206949,0.012903008,-0.0025622272,0.03568947,0.038467966,0.030983375,-0.020976989,-0.037985563,-0.038494308,0.0035156885,0.008109289,-0.03421285,-0.05769104,-0.056345034,0.020328943,-0.009915883,0.03880659,0.041446336,0.0027381957,0.025703812,-0.024075327,-0.014608057,-0.0110935,-0.012381264,0.029308781,0.009071048,-0.055964425,-0.071176626,-0.094209224,0.029402,0.015531789,-0.00893212
-0.017283157,-0.019599667,-0.011802066,0.0064419527,0.007072076,-0.018908717,0.0020880362,0.029178763,-0.028568408,0.012522529,-0.097194135,-0.04204946,-0.061976835,-0.008725599,-0.0244042,-0.0026384252,0.03622585,0.035521258,0.0040206164,0.02641215,0.059450813,0.009435598,0.0031655682,0.033130493,0.031165594,0.027911773,0.022738855,0.00015150245,0.020171702,-0.04237762,0.043087065,0.017124237,-0.0064851856,0.025523182,0.013521914,-0.0024389215,-0.014367012,0.04649019,-0.009087969,-0.006852717,0.010832511,0.042757206,0.01904408,-0.032475222,0.04241613,-0.045479346,-0.028407019,0.03649552,-0.01005389,0.024923652,-0.02280294,-0.06567644,-0.0013657721,0.0030075696,0.013384302,0.02314734,-0.032228217,-0.017517652,0.007421948,0.0023896608,0.01617792,-0.039588813,0.009582575,0.014815025,-0.021583254,0.041076876,-0.007860404,-0.027014418,-0.009508609,-0.025315845,-0.0023944108,0.011609838,0.008310583,0.014191759,-0.049219266,0.058942832,-0.046364762,0.061598003,0.017271735,0.03768387,-0.015537923,0.03951475,0.0158312,0.034995873,0.0701227,0.03513158,0.04357317,-0.008181076,-0.042174853,0.0008253596,-0.028727535,-0.03573347,0.01482644,-0.018091444,0.0058297236,-0.0008406137,0.004674936,0.016195307,0.004749856,0.037988763,0.027168145,0.019607395,-0.009889457,-0.01893361,-0.008997593,-0.00017429369,-0.0011437107,-0.037258264,-0.029021638,-0.057988483,0.030774288,-0.0030498866,0.06291042,0.05754783,-0.03328481,0.038055874,-0.03619921,0.0066403826,0.0016334429,-0.0039286106,0.03804686,0.001377325,-0.028566254,-0.07869139,-0.11305444,0.022109171,0.041057855,0.004338007
