-0.059850432,-0.0023820684,-0.058854934,-0.02803262,0.025484804,0.02464124,0.05095149,-0.06706435,-0.02338857,-0.14378934,0.04593845,0.04540274,-0.072285615,0.055903513,-0.12060562,-0.03257704,-0.032688424,0.03838653,0.019368825,0.01669545,-0.0036150226,-0.055518523,-0.062189393,-0.013555948,-0.18456127,-0.06612843,-0.06549782,0.07700154,-0.08244938,-0.03110516,-0.0034840954,0.022567803,-0.091139495,0.06092788,0.051758353,-0.09990306,0.09165759,0.09519101,-0.049731568,0.0031271018,-0.02501286,-0.026642257,-0.015046518,0.015641913,-0.049531072,0.08058241,0.068722546,0.016488384,-0.12781534,-0.054448705,0.07649199,0.036825076,0.045337863,0.08896192,0.03019187,-0.07631084,0.03953073,0.16917254,0.02854547,0.017203445,-0.05917386,0.023242025,-0.12299655,-0.15314701,-0.047198944,0.035624925,-0.06721386,-0.26504675,-0.19642662,-0.05651508,-0.10847977,-0.13105921,-0.033198033,-0.054971937,0.08463183,0.038299236,0.12395595,-0.053701084,0.050337326,0.012730655,-0.0013922227,0.0687583,0.035333566,0.059646394,0.05149289,0.060698155,0.020981073,-0.019119553,0.012183718,-0.07462676,0.050291248,-0.00563038,-0.07755526,0.024168076,0.09779823,-0.016262246,0.06068837,0.020875305,0.052425545,-0.015986867,0.027130984,0.054745883,0.030391736,0.14825888,0.06312795,-0.1586527,-0.12628451,0.107108496,-0.08183109,0.059662357,0.055595692,-0.046786115,0.023197062,0.12498252,0.077255495,-0.0380855,0.14467107,-0.07748596,-0.04505585,0.087740615,-0.03636724,0.014252937,0.09780268,0.107306756,-0.040012535,0.09973916,0.22772911,-0.049306527
0.016392846,-0.13971655,-0.030735113,-0.0087555,-0.19155806,0.0020679622,0.0010805784,0.0023045891,0.018321548,-0.074370004,-0.033120606,0.028291766,-0.030637624,0.063431956,-0.03117508,-0.020200156,-0.0446065,0.18786237,-0.103292406,0.049092293,-0.024174366,-0.08260035,0.08941459,-0.0066111702,-0.065653235,0.10431075,-0.01876241,0.16377248,-0.08769085,0.005783289,-0.012000113,-0.0052762534,0.11361603,0.05370689,-0.060351282,0.02144702,0.078059636,0.0024735753,0.03689509,0.08092855,0.08461586,0.16555351,0.01903539,-0.10408629,0.02909551,0.014772659,0.103749506,0.018061176,-0.030729234,0.09464545,-0.0011901403,0.031328965,-0.1698542,0.1088351,-0.06720398,-0.011672093,-0.2584884,-0.07909422,-0.013146355,0.075543955,0.06824898,-0.010822359,-0.058677375,0.030547757,-0.0032223698,-0.15637372,0.023147333,0.14083552,0.026463475,-0.017875377,0.15640289,-0.079371415,0.12584318,-0.026144149,0.0169451,-0.07968783,0.08276376,-0.14888056,0.0045444,0.020514535,0.034261074,0.0974821,-0.0130462125,0.030486535,-0.089660846,0.060140904,-0.07952747,-0.060897112,-0.1409994,-0.013338531,-0.04685894,-0.00506096,0.0956068,0.030671943,0.13962898,0.02489365,0.09001131,-0.091895424,0.022959992,-0.103551134,-0.14113411,0.20903523,-0.07683636,-0.033448238,-0.064967155,-0.026083672,-0.18583313,-0.21105927,-0.029577047,-0.10581367,0.028264752,0.022463186,-0.028017053,-0.13890672,0.11673822,-0.01961583,0.098359846,-0.018648319,-0.06957181,0.02101532,0.027159048,-0.002228628,0.07580497,-0.071877226,0.041777533,0.0200962,-0.017460853,0.069899276
-0.012061961,-0.15638274,0.018680612,-0.038378794,0.08827024,0.058305398,0.21929972,-0.015545995,-0.04661622,0.01317213,0.14397804,-0.11899042,0.06648313,-0.09208371,-0.0053988933,0.052216273,-0.03940676,0.08696168,-0.09562954,-0.13854393,0.027533233,0.15484363,-0.04371456,-0.021325203,-0.010349371,-0.044934105,0.012091665,-0.08160654,0.07586292,-0.06544466,-0.07971805,0.04850843,0.050943997,-0.115680635,0.00023258754,-0.057592265,-0.1224556,-0.061467215,-0.12276422,0.047740757,0.13469902,-0.11918915,0.09803168,0.027736297,0.018699698,0.086326644,-0.10749234,-0.041077834,0.14124835,-0.001150287,-0.012754142,-0.11005919,-0.15357964,0.116980106,0.10758424,-0.07328428,0.0016647791,0.082716174,0.040225454,0.02252823,-0.07210144,0.009395604,-0.06712658,-0.11955037,0.03896285,0.046003498,0.11528337,0.04228841,0.059538696,-0.11913876,0.0120172845,-0.047276266,-0.04727638,0.008611388,0.0862931,-0.089975,0.004325217,0.011810139,-0.027686635,-0.021060474,-0.067203924,-0.009430414,-0.101868644,0.043891214,-0.017367328,0.06026978,0.07615802,-0.17307372,-0.093773514,0.13067083,-0.0024750314,0.064030886,-0.026800316,0.10010643,-0.012669315,-0.013906075,-0.006058959,0.0025682775,0.0050464156,-0.0011573451,0.011437251,-0.028743243,-0.03413164,0.029360661,-0.0162301,0.06169133,0.025473913,-0.103629716,-0.064921886,0.058778618,-0.009422394,0.011406431,0.08666731,-0.011137086,-0.0065855784,-0.047176838,0.037014704,-0.09932182,-0.12979715,0.019506862,-0.030276103,-0.05747985,-0.018257419,-0.042185336,0.080272205,0.006256528,0.13558815,0.10317358
-0.008841407,0.05349425,0.097572975,0.012217814,-0.100524284,-0.070974566,0.21230817,0.083737694,0.0003988635,-0.17287077,0.060482167,-0.073513255,0.024553638,-0.07628727,0.08530206,0.106028765,0.15338403,-0.029529557,0.120049894,0.06018856,0.017258577,-0.10314362,0.13433926,0.036947433,-0.10148723,0.073750205,0.018748868,0.071902536,0.10505485,-0.2105364,-0.022302847,-0.03531818,-0.13788256,-0.036792133,0.08147061,-0.009908401,0.13414516,-0.03736265,-0.03058691,-0.051516727,0.061299,0.028664991,-0.047720596,-0.03584406,0.05617284,0.026333058,0.06477849,0.013795122,0.02633814,-0.114797905,0.045304324,-0.1356639,0.03689898,0.034978203,-0.14002542,-0.020291507,-0.004530541,-0.0016656079,0.07214296,0.09919089,-0.06840706,0.0051377835,-0.0040919348,-0.010163168,-0.055745076,-0.030119825,-0.08726151,-0.11539238,0.15822901,-0.03455264,-0.0674533,0.022224441,0.1337292,0.047890004,0.009370379,-0.052823894,-0.1211579,-0.15878038,0.0775316,-0.041519735,0.1415348,-0.013697125,0.08991267,-0.05617514,0.110040374,0.04247329,-0.08797362,0.13533518,0.06429174,-0.04710177,-0.0076426985,0.10598494,0.019332241,0.01598081,-0.06875201,0.023025863,-0.09093277,0.06061833,-0.0063688983,-0.049317785,-0.07723476,0.07714532,0.12365477,-0.029828764,0.0040405663,0.06677433,0.01897826,0.005678182,-0.00042304187,0.11143659,0.043016236,-0.072140336,-0.031190576,-0.12555866,-0.0033186954,0.009354758,-0.05045224,0.016819919,-0.0672638,-0.02313699,0.11149271,-0.03251578,-0.050158385,-0.054550383,0.13619623,-0.048526347,-0.018391252,-0.14118095
0.042325947,-0.15782705,-0.008236065,0.03649318,0.00084291876,-0.028590912,0.031150997,-0.047140773,-0.062379524,-0.021174269,-0.027056973,-0.0011591628,0.032469314,-0.028110448,-0.03712317,-0.02789926,-0.0010609153,0.03437826,-0.006568696,-0.1110437,-0.116068326,0.09794958,0.07144566,-0.09217158,-0.011485446,-0.05427415,0.07046926,-0.015925309,0.13334982,0.068065375,0.06666261,0.027559604,0.12101008,0.15689233,0.096612155,0.09001681,-0.116327465,0.069374315,-0.048539035,0.12067538,0.16650139,0.043043252,-0.0725107,0.03972996,-0.08658137,0.082976006,0.040705085,-0.2430025,-0.07833752,0.07742244,-0.021546226,-0.047910064,-0.014628871,0.0072207064,-0.0335843,-0.03740985,-0.14207746,-0.0028649569,0.015955124,0.013836794,-0.0681086,-0.07558519,0.053733572,0.03802568,0.0060771387,0.12988426,-0.20663221,0.001089172,-0.09402094,0.0962319,-0.11880159,0.0404893,0.009667771,-0.06349133,0.18140088,-0.051940616,-0.10626265,-0.0077877985,0.14894159,-0.14116937,0.06477002,0.15363592,0.011828827,0.06499434,0.0018828753,0.006127142,0.08056245,7.555571e-05,0.074106224,0.081005886,-0.07651759,-0.04728416,0.11578415,0.090728,-0.032874882,-0.07454882,0.06823525,0.06565916,-0.06832837,-0.061088223,0.10460954,-0.15432692,-0.033302654,-0.04027204,-0.025370285,0.06555497,-0.19784178,0.094913006,0.066856064,-0.025792405,-0.027163103,-0.03539835,0.05899375,-0.039884493,-0.10966786,0.034281712,-0.06008905,0.12531528,0.018888086,-0.025892217,-0.12077738,0.0317284,-0.05169691,-0.025856756,-0.024749883,-0.013971092,0.012514445,-0.07894994
0.06589626,-0.031215016,0.006997947,-0.057881247,0.002269968,-0.0033465892,-0.010095174,0.25518417,-0.00085557974,-0.12134976,-0.034072183,0.1501853,0.17097022,0.08280127,0.061954875,-0.054454446,0.054301552,0.008971196,0.14417991,-0.0035627808,-0.048523653,-0.14345078,0.032382697,-0.014745162,0.058043912,-0.102027394,-0.17245913,-0.07838885,-0.07848222,0.09074777,0.06295259,0.101075925,0.03759656,0.0453517,-0.031911023,0.02729489,-0.075078756,0.08255308,-0.057806157,-0.016189102,-0.09875143,-0.03794958,0.051711526,0.010170354,-0.050196525,0.025689367,0.024305042,0.02750831,0.09587482,0.06088189,-0.094452254,-0.0021234269,-0.056368116,0.057251614,-0.025955105,0.10377491,0.009323102,0.067489766,0.035568126,0.06831883,0.092248864,0.040814847,-0.034772594,-0.01328715,0.0035766873,0.010636383,-0.012694132,-0.042447012,-0.0068163387,-0.096552536,-0.2064694,0.113324724,-0.016349908,0.0681611,0.06989098,0.05551651,-0.28752127,-0.040067293,0.015370747,-0.050680257,-0.106684275,-0.106759526,-0.009451484,-0.06463563,-0.11234084,-0.005721947,0.0777135,0.06356715,0.10840284,-0.013410274,0.044244885,-0.07495335,0.095987245,-0.10363672,0.038200535,-0.0832528,0.15975888,0.083595976,0.041085776,-0.03235454,-0.09223683,-0.03401199,-0.0015212195,0.06617525,0.081302345,-0.09165993,0.014609161,-0.030848404,0.02583455,-0.08219767,0.059508886,0.020698598,0.032557607,0.019649439,-0.043023143,-0.058483798,-0.11922532,0.12724037,-0.17019837,0.072683595,-0.09810582,0.1038595,-0.058423623,-0.006957066,-0.021714538,0.024485761,0.048700348,0.093501404
0.028523246,0.06992885,-0.045206018,0.07440743,-0.023030916,-0.07826292,-0.02157434,-0.043605007,-0.05501726,0.096544765,-0.06877381,-0.15157084,0.10355314,0.004933409,-0.011100088,0.1331055,0.007977993,0.14288017,0.036168788,-0.02471052,-0.084749855,-0.01981825,-0.045983687,-0.1349399,0.020206412,0.14787495,-0.04346902,0.014983073,-0.050844092,-0.00802126,0.014245354,0.01090542,-0.101528056,-0.023655977,-0.04052624,0.25895697,0.012315545,-0.058006126,-0.060960185,0.20241235,0.1036151,-0.12284962,-0.09641272,-0.07939827,0.0877084,0.04512668,0.00051966956,0.102993436,0.13501427,-0.08871613,0.10786921,0.022469569,-0.02428422,0.06793376,-0.029067146,-0.008431376,-0.07784637,-0.0439415,0.04960793,0.10513621,-0.051793147,0.053345464,-0.0067125326,0.05624593,-0.007989945,0.2411118,0.01949855,0.0032093897,0.107752964,-0.090942234,-0.024376107,-0.0039560823,-0.11739562,0.050088968,-0.09469599,0.004169768,0.018003387,0.11172876,0.17717215,0.015400117,0.062449273,0.059590053,0.0016129578,0.09676936,-0.07822444,0.10166826,-0.033315737,-0.13883463,0.032443676,-0.08684525,0.018281372,0.0005950903,-0.07363525,-0.11670144,0.045356695,-0.07941553,0.11274635,-0.008710568,0.040507168,0.048859328,-0.001974958,-0.15664697,-0.048294924,-0.23610234,-0.015318022,-0.10171918,0.053068936,0.026232783,0.05232587,-0.0024147488,0.0772467,-0.0013379761,-0.12928995,0.058299802,-0.015915243,0.035467383,-0.043076236,-0.029602218,0.04147834,0.062117428,-0.04442674,0.027636725,0.19008774,0.035549898,0.22236454,-0.017050728,0.085536815,-0.088261515
-0.09668803,-0.020017171,-0.073056564,0.00044247607,0.014962605,0.039028652,0.022337245,-0.10958213,0.02356709,0.031678937,0.039921075,0.016256394,-0.054795478,0.03218244,-0.018040916,-0.01944528,0.0723898,0.04220618,-0.10338764,0.085045174,-0.17171334,0.08139972,-0.07595506,0.08806819,0.06791283,-0.113674894,0.1342698,-0.039165895,-0.026300853,-0.07951259,0.106238894,0.04739395,-0.085378826,0.14997081,0.0957115,-0.09134067,-0.023335226,0.05247089,-0.12353686,0.018284276,-0.049381237,-0.20352149,0.024689535,-0.08078169,-0.057939146,0.04951162,-0.0056914445,-0.012336796,-0.01883113,0.14183114,-0.051064372,-0.1275648,-0.015364519,0.07979807,0.07100024,0.02054114,-0.009645327,0.10314492,0.098543026,-0.019289803,0.12981974,0.037128262,0.13061258,-0.13324158,-0.039638735,0.0013275507,0.13431633,0.034831267,-0.009172238,0.17767344,0.115676254,-0.18833515,0.069693245,0.102088235,0.12454316,0.06163691,-0.021058165,-0.11573146,0.20764738,0.006025933,0.07513165,0.039649278,0.01364723,0.00774666,0.0394229,-0.010475349,0.03614254,-0.048203528,-0.0037925362,0.038087375,0.05441551,-0.01753353,0.0007838042,0.024383586,-0.076593004,-0.08036856,-0.2048871,-0.15692437,-0.054924905,0.0019259483,-0.018214101,-0.11472223,-0.04866329,0.013759015,0.03373416,-0.14369896,0.0676817,0.114796296,-0.07588037,-0.02190425,0.028155416,0.03713033,-0.050281662,0.051165827,0.10745411,-0.01597563,-0.07820285,0.1389066,-0.1316787,-0.15227577,-0.023099583,0.03327342,0.04382221,0.009711497,0.007774636,0.108549796,-0.16117305,-0.13860682
-0.06767787,0.06491345,-0.07340005,-0.092369094,0.04409819,-0.15649201,-0.0873083,0.09148985,-0.0835045,0.14271733,0.017980935,0.017198212,0.08444329,-0.13571355,0.02561519,-0.16564338,0.10746084,-0.07953577,-0.057144143,0.042848658,-0.07213149,-0.018682264,-0.13593532,0.0016922208,0.024686132,0.042698734,0.07531487,0.02493212,-0.0042445837,0.023886679,0.016696611,-0.15713121,0.033207174,-0.033141382,0.01898217,-0.013531063,-0.19680503,-0.04199923,-0.027022325,0.034523204,-0.028820768,0.032149073,-0.007972078,-0.0409935,-0.11845662,-0.09804938,-0.06602787,0.027003963,-0.11001684,-0.013908031,-0.009897842,-0.10347929,-0.007513847,0.019984702,0.04993495,-0.03714316,0.15619549,-0.041152216,-0.07941865,-0.02107705,0.008732324,0.0062692696,-0.14184861,0.1413108,-0.011716305,0.065812245,0.22005123,-0.005309688,-0.1564739,0.015613969,0.15308736,0.0005023109,-0.03317379,0.01071263,-0.090765975,0.026007952,-0.023668386,-0.050720673,0.057452343,0.05328756,0.015244431,0.12862873,0.06851034,-0.08246593,0.023414968,0.107187554,-0.07168609,0.116997905,0.07836758,-0.078839734,0.13096766,0.0110835405,-0.063885316,0.07059364,0.029688114,-0.05512848,-0.04148069,0.14966282,0.07375133,0.06702409,-0.05554971,0.054049708,-0.015434998,0.0098750405,-0.010491055,0.06783556,-0.12868656,-0.0246289,0.028722653,0.00475639,0.09846957,0.052971464,-0.14853288,0.11689447,0.022501655,-0.07461597,0.05739653,0.041629355,-0.023925405,0.085117616,0.02019491,-0.072468676,-0.031355128,0.14047347,0.13260183,0.05686011,0.04909836,-0.0058703325
0.013735242,-0.053252593,-0.083303206,-0.05559937,0.1618543,0.059800852,-0.09334038,-0.011782633,-0.078995556,0.016946027,0.112196475,-0.012884813,0.0042941896,-0.029579677,-0.0076995865,-0.026993465,0.12649713,-0.07210156,0.009525762,0.029695773,-0.0067407573,0.22907165,0.056195147,-0.07456935,-0.08800481,0.18936545,0.067784466,-0.01075979,0.013833774,-0.018060464,0.12496909,-0.031527944,-0.05300761,0.12311002,-0.1375242,0.049434498,-0.13723555,-0.058588095,0.110972516,-0.022797592,-0.044492077,0.099999286,0.016838072,0.16906627,0.026371105,0.08893381,0.04086227,0.08341844,0.005769346,-0.04235945,0.056750525,0.031593375,-0.043854978,-0.006784868,0.017299792,-0.017395135,-0.017825874,0.0069782287,-0.07435769,0.0020697503,-0.032605156,0.040402144,0.038430676,0.08194007,-0.01759927,-0.11676328,0.0427339,0.009878666,0.21675509,0.049782947,-0.066608004,-0.014907113,0.06952459,-0.05136739,-0.06708623,-0.012203723,-0.020015076,-0.036605414,-0.15776922,-0.015405864,0.042516872,0.09315712,-0.002158318,-0.0955242,-0.000107144384,0.048536066,-0.057860695,-0.061401967,-0.11634971,-0.00021835836,-0.116454184,-0.012501119,0.11990573,-0.02694044,0.01877398,-0.08790499,0.016147338,0.071850374,0.07546156,-0.104511134,-0.061366476,0.10879222,-0.026447987,-0.07671283,0.0038509113,0.039390415,0.0026628633,0.12269901,0.018047463,-0.0054402673,-0.06654148,-0.07065411,0.027833708,0.011398886,0.07907853,0.05918522,0.057100546,0.077609874,-0.11088966,0.058567204,0.07083197,0.0075628823,-0.08929523,0.013948219,0.11678868,-0.01853566,-0.00866894,-0.06204827
0.07431373,0.03594532,0.047542986,0.010199631,0.02499845,-0.055087898,0.0431775,0.045800257,-0.0062745013,-0.015409073,0.021880185,0.024626132,0.02168156,0.045703102,-0.14337571,-0.046371628,0.05116054,0.009765368,0.038804628,0.02893271,-0.06066358,0.05359192,0.060219362,0.08694506,0.06271017,-0.14330965,-0.019917166,-0.055382382,-0.061530612,0.123498574,-0.06619073,-0.090077415,0.019539025,0.08142435,-0.05980998,0.07328738,-0.027037848,0.00966259,-0.0114900395,-0.035860885,0.052506164,0.043515872,0.016713634,-0.12292442,-0.025511757,-0.108160466,-0.036170818,-0.12573805,0.019324709,-0.020276759,0.12575069,0.052049816,0.023293193,0.07512781,0.11915873,-0.0057271104,0.015950806,-0.046326764,0.04932932,-0.089855775,-0.05177544,0.061399627,-0.1412048,-0.21510792,-0.008601367,0.13199174,0.13318801,0.10240736,0.10728012,-0.030893553,0.06717947,-0.14238425,0.12787111,-0.03744923,-0.036113232,-0.06424208,-0.0005221647,-0.017521612,0.07382886,-0.00962662,-0.1526015,0.017599998,0.07432822,0.015355087,0.0172125,0.042948347,0.027930683,0.17966326,-0.046700396,-0.0029800336,0.004822615,0.08817309,0.017247463,0.0003347183,-0.08155135,-0.11950698,0.010186094,-0.02732307,-0.019261507,-0.05885766,-0.026518002,-0.047520995,-0.08062578,-0.04604894,0.07748562,0.097310655,0.015552086,0.1649346,0.011625455,0.022718573,0.043569777,0.01900053,0.022281539,0.09264151,0.085858315,-0.023580091,0.004166246,-0.026193632,0.03429802,0.007799228,0.015829597,0.153474,-0.08809119,-0.0040907837,-0.02037605,0.047936723,0.015880164,-0.03088217
-0.01004925,-0.10581998,0.012622136,0.08672237,0.013084935,0.042883784,-0.09617176,0.047942158,-0.04457922,-0.02057829,0.08215131,-0.027988013,-0.008070351,-0.15487437,-0.15965234,-0.010788674,0.051135607,0.08728165,0.038390968,-0.03518859,0.110667296,0.0691306,0.027256917,-0.07985001,-0.011241996,-0.057028398,0.07150201,0.07324483,0.009508025,-0.18558794,0.07856695,-0.114615366,0.09075358,0.052629955,0.044602007,0.07701009,-0.030035324,0.080833204,-0.05172232,0.052623235,-0.026923366,0.017945116,-0.06018013,0.10444185,0.10476379,0.02773913,-0.07118928,0.07048336,0.114158444,-0.06593666,-0.120455995,0.06214499,-0.10147615,-0.08066528,-0.10910328,-0.077222005,0.1441659,0.01671763,0.06907476,-0.039628193,0.091715574,0.02435806,0.054841686,0.10230578,0.11509253,0.063712955,-0.050139695,0.06065366,0.038847603,-0.032104257,-0.12659232,0.12008536,-0.013136184,0.045529805,-0.055290677,0.11565599,0.05966494,-0.110388875,0.01755607,0.024100732,-0.12025202,-0.07006591,-0.023607198,0.017218491,0.044884093,-0.058401152,0.002372911,-0.10791813,-0.048372485,0.012174649,0.08444612,0.0069867875,-0.36138785,-0.09302088,0.002702228,0.01543242,0.11661621,-0.04387484,0.03597723,0.0019008168,-0.0142480135,0.021795494,-0.07621404,0.012675677,-0.08401975,0.05901511,-0.038552538,0.09016456,-0.011044504,0.012708766,-0.06974631,-0.026129663,-0.022065053,-0.042517148,-0.07578356,0.0067437436,-0.016609868,0.03520544,-0.081852295,0.023211988,-0.043506604,0.08547192,0.014510777,-0.05987658,0.12320426,0.04135105,-0.000816287,-0.008664577
0.0030036813,0.1007387,-0.040908962,0.032965012,-0.010367636,0.07061934,0.14222234,-0.07745939,-0.06933762,-0.03510544,0.11666006,0.002351287,0.1476663,-0.12167186,-0.098015,-0.13803971,-0.16571856,-0.038916603,0.063005805,0.066664375,-0.016716164,0.0325812,-0.02767144,-0.018813055,0.018993413,0.098903306,-0.052875806,-0.10662223,0.10810829,0.117929794,0.08686357,-0.04026756,0.0362509,-0.06241863,-0.0007216704,0.009277204,-0.023627743,-0.05498663,0.001507458,0.07673712,0.043844096,-0.0064528584,-0.0433491,0.017543577,0.04623069,0.06901321,0.051408418,-0.03534212,0.023553379,0.10363614,0.049784116,-0.064976804,-0.08124614,0.028242983,0.09104035,-0.043705672,0.018601542,0.012061075,0.18842864,0.085877165,-0.017750181,-0.027120724,-0.040346924,0.10875853,-0.016123433,-0.03855419,-0.22063448,0.14254886,0.06464031,-0.011833187,-0.04337045,-0.06225607,-0.16582188,-0.006532528,-0.063078575,0.055315394,0.0016101194,-0.01405932,0.009044433,-0.09488674,-0.015882248,-0.12647739,0.068960086,0.0018531048,0.015981838,-0.015274805,0.24435075,-0.015050041,-0.026178403,0.08642693,-0.054114383,-0.08679542,-0.0027655195,0.080910124,0.015789108,-0.048440643,-0.0448794,0.017381916,-0.057112407,0.022211712,-0.030016614,0.106522255,-0.0368497,-0.06361426,-0.03645521,0.0727973,0.09279421,-0.106787406,0.008489309,0.0730462,-0.15938081,0.005577026,-0.15320925,0.047935948,0.019672763,-0.07781232,0.08796004,-0.05942381,-0.0005970892,-0.10564119,-0.07120735,-0.07020367,0.0242711,-0.018908149,0.098897606,-0.037132196,0.019584836,0.10859049
0.05409192,0.035730146,-4.828852e-05,-0.012999142,0.04699889,0.10296225,0.10537418,-0.034624614,0.05727696,0.018818276,0.11053175,0.058104094,-0.08829591,0.05457945,0.07865875,0.054020774,-0.16331862,0.035089027,0.067886345,-0.009956338,-0.0020508217,-0.29187256,-0.025961792,0.07062394,-0.047656175,0.19186158,-0.010248382,-0.157633,-0.0008705808,-0.06046896,-0.1109852,0.032356165,0.000404911,0.1944951,-0.0031652907,0.089297384,0.08043735,0.01075713,0.12016105,0.078156,-0.06537999,0.014942523,0.035756197,0.007662126,-0.17206483,-0.04969858,-0.1646506,0.11725536,-0.004405583,-0.06835064,0.050112907,-0.059614062,-0.08851695,0.104273826,0.04305895,-0.027851298,-0.019210236,0.049599674,0.040002245,-0.067453735,0.022135155,-0.07099891,-0.07455109,0.10882772,0.0019691586,0.088669896,0.078786165,-0.1476381,-0.008513808,-0.08132591,-0.01581211,0.010960553,0.03926303,0.018839352,-0.10469344,-0.08549948,-0.075164944,0.09819712,-0.0012120327,-0.024920104,0.14986108,-0.03506683,-0.13883238,0.031861905,-0.052004233,0.027443178,-0.11846352,-0.011944813,-0.059191532,-0.06298901,-0.022370145,-0.063971296,-0.1471589,-0.013522029,-0.015787061,-0.13722478,-0.009440159,0.11283299,-0.22612786,0.041818313,0.028782696,-0.11758945,-0.04401222,0.013584916,-0.039668567,0.20136231,-0.12416086,0.14504251,-0.034993086,-0.006405194,0.08629061,0.025068056,-0.05069081,-0.077343956,0.21349032,0.09424877,0.0730581,0.06800265,0.124966085,0.06180393,0.01634859,-0.0027110926,-0.07471236,-0.05555391,-0.21415009,0.003916029,-0.030215152,0.06444107
-3.6593876e-06,0.003939525,-0.022975286,0.012861073,0.026265701,-0.0420995,0.07125926,-0.0746854,0.11584805,0.06003902,-0.02241729,-0.03690712,-0.011516906,0.08128432,-0.024982283,-0.06942163,-0.011142535,-0.08171768,0.17014883,0.029576737,0.038339425,0.030923026,0.05966842,-0.035530068,0.022868792,0.03442592,-0.0950943,-0.131034,0.023609962,0.07044743,-0.02813257,0.005742572,0.15240844,0.023432707,-0.011647783,-0.07564713,-0.029794913,-0.012020466,-0.019031463,0.1153067,0.055264458,0.08932696,-0.029027555,-0.05367005,0.13024154,-0.046427317,-0.069481835,0.225142,-0.03447127,-0.025420299,0.046670984,0.015782462,-0.01249781,0.10131637,0.034141906,-0.01706672,-0.087689124,0.06408137,0.036840625,-0.15518682,0.030177027,0.018981863,0.18798788,-0.006337287,-0.09363773,0.013552539,-0.03746734,0.011875126,-0.11443171,-0.013747097,0.041176826,-0.005882324,0.12293653,0.054202013,-0.049297675,-0.0075142374,-0.020605072,-0.098144,0.028600482,0.044331774,0.06075082,0.004565341,0.11030365,-0.116809934,0.009472298,-0.019298054,-0.044746324,-0.110007085,0.033856805,0.07932006,-0.062377263,0.020625526,-0.07283268,-0.004916004,-0.13635857,-0.11384755,-0.14497504,-0.17813465,0.15657629,0.05340098,-0.007810949,-0.09660032,0.0022072967,-0.025369713,0.09593034,-0.0071723456,-0.13369045,0.008620458,0.066337675,0.067626245,-0.028211223,-0.009344999,-0.03726533,-0.12906772,-0.024826929,-0.05520446,0.055106353,-0.082370974,-0.00817506,-0.08150992,-0.06494302,-0.1261579,0.00827571,0.032457113,-0.012102127,0.02995479,0.11915637,-0.1496556
0.0022734136,0.117599025,-0.01423292,0.11584446,0.0026184,-0.09059608,0.049051613,-0.06907168,0.024890294,-0.08672677,-0.012098195,-0.051348682,-0.1337808,0.0779793,-0.12849697,-0.12412056,0.062173393,0.017959759,-0.021392848,-0.047971066,-0.070067234,-0.06280516,0.008645915,-0.05813021,0.073722996,-0.06409613,0.014063399,0.013373905,-0.09196471,0.070372805,0.028169941,0.054482713,0.07123211,-0.015520251,-0.12682256,-0.028614398,0.026768923,-0.13610648,-0.015828311,-0.11072988,0.014565224,-0.037519705,-0.048717577,0.08445466,-0.04300258,-0.025051137,-0.0022523738,-0.047076855,-0.062039062,-0.09283826,-0.15340868,-0.0013526673,0.075467534,-0.051146317,0.08884188,-0.13311304,0.0073267715,-0.013955462,-0.12187566,0.06796544,0.10775528,-0.018177068,0.061823204,-0.0021299545,0.024436735,0.004434795,0.1761112,0.0069010225,-0.033900853,0.17013456,-0.04670342,0.051571887,-0.025632104,0.08056481,-0.033913076,-0.01558618,-0.065534174,-0.031100478,-0.0704025,0.02062902,-0.035565324,0.069390126,-0.009206426,0.04078248,0.0057684556,-0.034616124,-0.03156282,-0.02796688,-0.082631655,0.048994385,0.10952021,-0.11331363,0.010915786,-0.019605957,-0.056237485,0.1302734,0.0011905807,0.011775559,0.06375972,0.041548345,-0.040016036,0.06691922,-0.015814558,-0.013511209,0.15962568,0.07940428,-0.07044926,0.16631585,-0.09972901,0.0011631676,0.0017246224,-0.033494033,-0.09666617,0.034978095,0.09936081,0.046662353,-0.00913365,0.059361193,0.031833947,-0.0023330254,0.07511778,0.007842951,-0.010232846,-0.0072804037,0.006594736,0.0057594813,0.12330789,-0.024319476
0.025466364,-0.048762955,0.046016965,-0.00073327584,0.020402191,-0.15649241,0.2369523,-0.04832339,0.063706264,0.12471842,-0.002449661,0.005017093,0.06377177,-0.09908845,-0.043511916,-0.055257548,0.054334898,0.036937587,-0.054388225,0.033351433,-0.15569502,-0.1654463,-0.06795585,-0.056070734,-0.05490887,-0.002327598,-0.018784055,0.15293679,0.06297284,0.02733334,0.036653984,0.008144933,0.116481155,0.14898297,0.1169272,-0.068243556,0.0056784106,0.026051497,-0.058382355,-0.16506113,0.016807053,-0.1051957,-0.00713006,0.07986308,-0.03391773,-0.0038716504,-0.07678277,-0.023310708,0.20607124,-0.006965715,-0.08740047,0.034344967,-0.015227229,0.0035626625,-0.2979553,-0.026779097,-0.0142657235,-0.05578662,-0.029327756,-0.06776516,-0.08666328,-0.02631541,0.015398003,0.1149776,-0.01191099,-0.10761656,0.010520571,-0.05352108,0.11720449,0.06361626,-0.07035836,0.01376491,-0.055613615,0.0120744305,-0.13303956,0.09207659,-0.0005772116,-0.014408579,-0.015036215,0.0042366316,0.14736935,-0.06331946,-0.039047506,-0.06265316,0.0005162132,0.022964338,0.04529215,-0.061163966,-0.010817362,0.09550631,0.025702253,-0.038015947,0.047341544,0.034817006,-0.09694067,0.0032271903,0.14651108,-0.11738248,-0.0056706103,0.041861378,-0.0020594555,0.0029662647,-0.04509273,-0.09115769,-0.048056252,-0.0032146298,0.045314256,-0.030403992,0.004062297,-0.0193129,0.048418615,-0.022004968,-0.010231236,-0.0514909,0.065283395,-0.05002382,0.094791934,0.02972881,-0.037724648,-0.058437403,0.08642014,0.021001754,-0.028385105,0.028098727,-0.014054175,0.010721853,0.09559663,-0.07541316
-0.06314913,0.03118118,0.07129631,0.06739222,-0.12379267,0.074290894,-0.011568238,0.023072992,-0.0025911129,0.08425235,-0.014882758,0.06421184,-0.06873823,-0.05417946,0.12889218,-0.063090354,0.02025194,-0.061722375,0.013687344,-0.021939974,-0.10940276,-0.062294845,-0.105952844,-0.110546134,-0.012087424,0.05895092,0.018383462,0.010238961,-0.11396124,0.06523471,0.024764542,-0.08006417,0.022222595,0.030377073,-0.0028323343,-0.03694685,0.050641242,0.0032261114,0.07266618,0.049333826,0.106793255,-0.02260999,-0.08194508,0.0538576,-0.092029475,-0.0013546039,0.05477604,-0.061623473,0.049391516,0.0019457492,0.038208395,-0.00784955,0.017790273,-0.055018455,0.0494457,-0.03892077,0.1399697,0.025968773,-0.034530267,-0.067136034,0.040886387,0.047133096,0.11753375,-0.16059335,0.0038213567,0.02003927,-0.03258418,0.07319236,0.049584255,-0.05993364,-0.09451638,-0.009782606,0.060822282,0.093709774,0.020248668,0.0011208095,-0.036243647,0.053702343,-0.019996988,0.040171057,0.034392107,-0.027727066,0.028341174,-0.10687264,-0.016335135,-0.07344495,-0.089343004,-0.07269528,0.031620327,-0.13502005,-0.053283058,0.12358515,-0.038524006,-0.06335752,0.009643881,0.0139598595,-0.17313874,0.05381208,-0.10114524,0.099150084,-0.06535995,-0.009190055,0.021855304,-0.010325819,-0.027674098,-0.0071243327,-0.11862355,0.038399402,-0.050120298,0.0299977,-0.10879742,0.05766105,0.013258241,-0.023638714,0.047620974,0.1007716,-0.008909098,0.07236681,0.15821911,-0.016312163,0.16361293,0.08249878,0.09051535,-0.037392486,-0.03923022,0.04650445,0.055084642,0.07848859
-0.012569653,-3.6108315e-05,-0.018544203,0.01726341,0.048378687,0.01973861,-0.07581757,0.034586716,0.06720868,0.016432274,0.045500644,0.08784938,-0.04537422,0.016440151,-0.008346646,0.02536837,0.053203017,-0.0019975542,0.06259421,-0.051178373,-0.12234178,-0.016574908,0.10332735,0.06871439,0.05649892,0.063143544,-0.0009647961,0.06156562,0.11441186,0.018828498,-0.118345946,-0.070173785,0.057563517,-0.07462392,0.038363583,-0.101608396,-0.04890868,-0.1448728,-0.1257781,-0.04953518,0.04412577,-0.07714415,-0.04069405,0.04464393,-0.008406506,-0.11898499,-0.10057088,-0.078577176,-0.10280328,-0.031704728,-0.07391094,-0.0069599943,-0.054367293,-0.050293714,0.07080853,0.032705855,-0.13256016,0.038333938,-0.0063563036,0.015948474,0.098195754,0.101533495,0.011711356,-0.07492013,0.117700376,0.092720896,-0.11852108,-0.022441968,-0.054474354,-0.001457344,-0.10362333,0.0012693193,0.08780047,-0.013502892,-0.09061782,0.004374834,-0.07842487,0.124544114,-0.077730976,0.036093153,-0.14786234,0.07152696,0.013476768,-0.016435884,0.083139375,0.07463759,0.16191028,-0.031472918,-0.035602767,-0.0380997,0.08359616,0.030384252,0.091927394,-0.12275586,-0.019259281,0.03133175,-0.2164358,-0.0029342074,-0.048979234,0.06175199,0.1325284,0.15437461,-0.089860804,0.016866742,-0.007531221,-0.030322688,0.12132741,0.029164368,-0.0017437345,-0.022108505,-0.10039001,0.004690742,0.010557528,0.10203962,-0.16099067,-0.026521401,0.032499574,0.122693606,-0.010046146,-0.06533155,0.13831042,0.0071826195,0.07411931,0.0028564064,-0.06697245,-0.05805241,-0.08111083,0.022121156
-0.061250888,0.041826412,-0.01990655,-0.04261772,0.026887432,-0.07392798,-0.1455361,-0.21283716,0.06926129,-0.08317351,0.024973806,0.012751867,-0.06607737,0.016248707,0.022270638,0.1465973,-0.013047131,0.07030198,0.023098953,-0.03449225,-0.012808913,-0.031685237,0.048299275,-0.04723151,-0.06895139,-0.042582374,-0.023035018,0.033815984,0.050666593,-0.050518185,-0.07935927,-0.29658183,0.07120784,-0.019696064,0.13319622,-0.09387274,-0.070683666,-0.07548235,-0.06647859,-0.14553893,-0.00950545,0.02714679,-0.0135384835,-0.046449427,-0.08300476,0.06326759,0.053900048,0.062825024,-0.03962359,-0.037134938,-0.10521012,0.028669195,-0.0316583,-0.02397401,0.123270564,0.03139436,-0.046735514,-0.0848906,-0.035064604,-0.010424184,0.13022739,-0.03133143,0.09248813,-0.010758664,0.14305322,0.042930134,0.08249435,0.119303845,0.2393257,-0.1253101,-0.043979805,0.02558642,0.077254035,-0.05950614,0.06681909,-0.02034906,-0.0060962266,-0.08722138,0.021820964,0.054853715,0.09632947,-0.07492227,0.09531843,-0.06996073,-0.02257908,0.06627435,0.058700666,-0.022345588,0.17385374,0.08286081,0.05648594,0.055880927,0.084882505,-0.06587775,0.16847262,-0.014361032,0.06535341,-0.016885273,0.0074053137,0.029268695,0.011309364,0.11303415,0.11350466,-0.0024198736,-0.04453996,-0.1013425,0.00044079334,0.19463147,0.022086183,-0.05052553,0.0056217955,-0.02185999,-0.12975469,0.0014910095,0.0057054507,0.019973675,-0.06291799,-0.11519093,0.09492119,0.030192645,-0.24099973,-0.040579528,0.115454085,0.038379718,-0.046623237,0.082709245,0.012776339,-0.041763872
-0.049937315,0.014484028,0.0074630463,-0.018292116,0.047711406,0.06288046,0.01809751,-0.010648622,-0.08334158,-0.021222923,0.08277703,0.05306059,-0.06633831,-0.03733607,0.09095607,-0.033525225,0.08751741,0.06343595,0.02007019,-0.08970251,0.07036977,-0.10764793,0.0720625,-0.02795162,-0.10929082,-0.07625923,0.031192241,-0.076577164,-0.14583826,-0.033865485,0.08044002,-0.14508267,-0.059437443,-0.012822777,-0.15514386,-0.040165447,-0.010108854,-0.013732448,-0.07299209,0.043083563,-0.023388905,-0.08851366,0.036460966,-0.09234438,0.06316214,-0.051238656,-0.08639222,-0.11977399,-0.048573032,-0.04381411,-0.13112798,0.058980666,-0.13233565,-0.056115262,0.03141025,-0.033537183,-0.034708817,-0.019122772,0.08071465,-0.07523352,-0.034269884,-0.058054037,0.11481479,-0.015321106,-0.091916814,-0.026606217,-0.049425382,0.07231289,-0.052743584,0.030883843,0.20852633,0.06845707,-0.15194441,-0.036946237,0.022680745,-0.028503,-0.055170465,0.011255531,0.04703987,0.009474028,0.08823771,-0.09856894,0.051689655,-0.013330606,0.125767,0.08327652,0.032941487,0.0346282,-0.041461375,0.086541824,-0.019065635,-0.021414056,0.05153807,0.01795518,-0.006044539,-0.0029643604,0.028828796,-0.07430522,-0.042961508,-0.101068355,0.14607358,-0.021110272,-0.038078964,0.018530145,0.030822437,0.0023039929,0.010075637,0.02363704,0.033457313,-0.035099596,-0.016259667,-0.038408488,0.07649748,-0.020979965,0.013444269,0.13803524,0.040685788,0.04837254,-0.049731206,0.08803874,-0.046469785,0.025047604,-0.0060761585,0.028160976,0.021337852,-0.09675813,0.104109496,0.114736676
-0.03580294,-0.048816025,0.09436352,-0.042231344,-0.10547043,-0.050507564,0.0043161903,-0.0833134,0.055989955,0.0829203,-0.07155289,0.01075723,0.15325849,0.01480433,0.17306435,-0.06956199,0.036135726,0.085898414,0.11640611,0.07087038,0.09371463,0.03289117,0.019529894,0.0101806,0.03378409,-0.08732634,0.017531812,0.04520619,0.013090919,0.018045278,-0.18230158,0.009469236,-0.043176502,0.080592476,-0.10079789,0.116467126,-0.003984726,0.03873798,-0.032983933,0.036610242,0.013304535,-0.07855697,0.013095225,-0.08626855,0.11790468,0.09654167,-0.087688364,-0.024504667,0.11941272,-0.016437931,-0.05842383,0.07049853,-0.004272939,-0.052672494,0.028644923,0.039809555,0.11837629,-0.09264072,0.114503115,0.12521322,0.016302396,0.023498803,-0.05369059,0.10345919,-0.013577858,0.011505963,-0.037715513,-0.01477424,-0.11587361,-0.007494392,-0.014540473,-0.01936462,0.10142603,-0.062752426,0.0523018,-0.07482513,0.036704093,0.031089056,-0.046210345,0.021326477,0.108471386,-0.020819424,-0.018840935,-0.12941055,0.052800827,-0.06489672,-0.013465435,-0.019364351,-0.09361,0.013118997,-0.010209309,-0.0063424977,0.008890363,-0.014390058,0.02570835,0.026136635,0.07611737,-0.071548514,-0.050664455,0.06336081,0.26181203,0.052454766,-0.10940038,-0.1128579,0.034823485,0.008074723,0.07328131,0.06371129,0.08411359,-0.042017974,0.041515913,0.0024447169,-0.08720771,-0.029094763,-0.07034205,0.030433178,-0.0023321619,0.0007764621,-0.120350145,0.0599915,-0.029304784,-0.11438611,-0.16435768,0.025360487,0.04066462,-0.056376368,0.13591374,-0.07324161
-0.012824113,0.085810274,-0.0034220046,-0.0510945,-0.02778982,-0.03099177,-0.06024127,0.120354526,0.00023682888,0.03420871,-0.040609714,0.038559448,-0.098092936,0.15192208,0.19693875,-0.1659455,-0.2218441,0.10060959,0.043900385,0.080826215,0.0039172247,0.020778537,-0.08136219,0.00721904,-0.00064991385,0.013505167,-0.029395606,-0.03558995,0.0150454985,-0.022836367,-0.020701647,-0.159048,-0.053899895,-0.09650486,0.11998573,0.01859344,-0.05514447,0.014570038,0.016606253,-0.19651839,0.08960927,0.06974255,0.042470954,0.02121168,0.012518333,-0.13158317,-0.021402061,0.058212984,-0.085134394,0.068959415,0.16674452,-0.026063511,-0.06569462,-0.034663927,-0.037949402,-0.018933231,0.05334245,-0.01919277,-0.03747967,0.033655792,0.004715184,-0.051389366,-0.0021673453,-0.048072804,0.068199955,-0.0101202,-0.105781846,0.09289381,0.03389731,0.18416247,0.024908282,-0.13413963,0.0724924,-0.027786326,0.12996896,-0.08097206,-0.1910927,0.11043933,-0.017706174,-0.030026864,-0.00028847897,0.020299809,-0.124322996,0.044601038,-0.029331498,0.04946637,-0.121663146,-0.013456716,0.019581594,0.15475892,0.013973632,-0.0490107,-0.09398215,0.069162354,0.0998629,-0.14512596,0.051826008,-0.002549371,0.00090633973,0.062997244,-0.10834023,0.052070107,-0.15881225,0.022237634,0.0044476176,-0.063555144,0.08349988,0.013464738,-0.037685674,0.08981101,0.00785591,-0.025923785,-0.026092064,0.09436223,-0.046666287,0.08046615,-0.10375449,0.019524215,0.02204879,0.08905815,0.06711657,-0.010289594,-0.054412596,0.05728913,-0.03919198,0.050620545,-0.05077703,-0.01663743
0.057600368,-0.16279875,0.014300578,0.11587708,0.011429709,-0.17151956,0.081180416,-0.12923309,-0.058421683,-0.031456906,0.06527956,0.018953903,0.09868631,-0.043695163,0.025126915,-0.08889224,-0.13360982,-0.020042542,0.12128123,-0.07363044,-0.10943205,0.09726256,0.06795365,0.013702968,0.023442535,0.15868397,0.101368405,-0.19941786,0.05983056,-0.01774368,0.088040225,0.090441614,-0.01628656,0.0438627,0.021678647,-0.06798045,0.033369645,-0.09068498,0.095352374,0.009474586,-0.053300492,0.029169355,-0.16429223,-0.016830739,-0.08208723,0.042599186,-0.061146352,0.016347725,0.014180282,0.017003492,0.05883811,-0.029988637,0.03200767,-0.135048,0.03382398,-0.10908231,0.0077687753,-0.10985317,-0.0586635,0.07638368,-0.050546184,-0.13395382,0.048905183,-0.09051584,-0.0893993,-0.07548393,-0.041057847,-0.042641517,0.02406585,-0.037464432,0.08888601,0.032095645,0.093493275,0.049759626,-0.06522991,-0.04478861,-0.11663287,0.0059041567,0.11350612,0.07867138,-0.053313676,-0.069186665,-0.07177581,0.124179,-0.14435442,-0.04565595,0.09023739,0.0018325571,0.018492416,0.021089008,0.08152849,-0.013249855,-0.026344316,0.054236174,-0.112306304,0.09532529,0.122445956,-0.09472033,-0.07641662,0.043434236,-0.020858804,0.13666809,0.084409885,0.06476948,0.07969217,-0.07707599,0.061700426,0.00027287673,0.023785181,-0.049693644,-0.020891555,0.05025133,0.11157077,0.119271226,-0.00035712367,0.025525402,-0.03794572,0.014066592,-0.026379138,0.103866756,-0.011521916,0.09736181,-0.02152406,-0.019958884,-0.01406183,0.013818004,-0.11008162,-0.030380212
0.02705627,-0.20480095,0.039931003,0.11253387,0.054944616,-0.0226239,0.07738764,-0.07211431,-0.07296527,0.01870975,-0.0763703,0.1196249,-0.06866617,-0.051333677,-0.02863187,-0.041476153,-0.07421895,-0.015284041,-0.04673239,-0.02043903,-0.037205506,-0.09589038,-0.048964534,0.055354014,-0.13880028,-0.064322926,-0.08836494,0.101933144,0.004417817,-0.13440564,-0.06439445,0.1529098,0.041339256,0.064554825,-0.009471745,0.08335702,-0.19207686,-0.052523207,0.17248228,0.038386878,-0.031150885,0.12119701,-0.07029175,-0.18136056,-0.023126876,-0.012635453,0.051859405,-0.03221751,0.019826645,-0.012583595,0.040863004,0.15364783,-0.08840365,-0.14653847,0.061429605,-0.01923775,-0.033414684,0.04013543,-0.05312079,0.08077314,0.059942156,-0.07278095,0.071305454,-0.0979776,-0.011206913,0.094549276,-0.011872456,-0.01487454,-0.067731656,-0.19348301,0.108699664,-0.028238293,0.067621745,0.09196146,-0.12721178,0.018233413,-0.079833604,0.10300561,-0.052268382,-0.10887375,0.020323684,-0.042721543,0.1261914,0.07970386,0.037200026,-0.013062004,-0.12211222,0.0050201123,-0.046516538,0.18225136,0.034087688,-0.05526233,-0.08377923,0.11382215,-0.044579506,0.06555414,-0.15815078,0.083069816,0.035066932,0.08647497,-0.076894455,0.04578353,0.09391744,0.012896879,0.048225164,-0.017602244,0.04589152,-0.06584991,0.0766068,0.026754621,0.02415507,0.056729343,-0.062218096,-0.07545919,-0.14716226,-0.10706504,0.14037748,0.07015901,0.008142649,-0.12653652,-0.043277018,-0.20026201,0.03178766,0.013738281,0.13293338,0.056899942,-0.124743894,0.08321841
0.0075108223,0.06744565,-0.05592172,0.015263658,0.04852812,-0.061718035,-0.055225488,-0.0050350395,0.026977558,0.100338325,0.050142083,-0.06896988,0.07124922,0.014150439,0.15834841,0.11490358,-0.1632668,0.08396967,-0.078068785,1.9582489e-05,-0.04469236,-0.060121503,-0.0507632,0.013320642,-0.09022419,-0.042390026,0.00029147908,0.0018377993,-0.1052658,0.09360565,-0.06930782,-0.015656926,0.038635142,-0.01022702,-0.089765646,-0.11547687,-0.07899076,-0.109572135,-0.016270958,0.3287181,-0.044889823,0.049882304,-0.070820905,0.021843875,-0.026761504,-0.07276194,-0.019989837,-0.11017916,0.09006645,0.066204555,0.06428188,0.17920852,0.07868199,0.021645885,-0.1474739,-0.008082475,0.054580197,-0.0074648275,0.05501636,0.02848477,0.20621139,-0.051242463,0.040613823,-0.11467907,-0.085205846,0.04276297,-0.0039536725,-0.11336781,0.15914838,0.19647571,-0.19837534,-0.067194246,-0.05030402,-0.08955997,-0.039499734,0.07226871,-0.07188671,-0.06893919,-0.09506244,-0.016259218,-0.33864594,0.011324416,-0.10234491,-0.0066932,0.16119498,0.1198022,0.11356034,-0.01642092,0.12252904,0.0020448696,-0.0027055794,-0.08094552,0.03412166,-0.06562339,-0.06460273,0.078397155,0.10909627,0.029007189,0.10568872,-0.011051496,0.033045843,-0.23825175,-0.001814014,-0.09726616,0.03258629,0.20983662,-0.036559932,-0.12649399,0.03348201,0.010582962,0.037234303,0.07157266,0.26606607,-0.2771228,-0.009921813,0.0075945626,0.07221563,0.049376458,-0.044541884,-0.10369141,-0.043751378,0.0020304206,0.07833861,-0.09114046,0.12439052,0.017002959,-0.032628518,-0.05009696
-0.044899624,0.0073791314,0.014183649,0.07275998,-0.033875577,-0.19496498,-0.08030532,0.11781348,0.07721026,0.019884022,-0.06454898,0.0572422,0.08911457,-0.0117928265,-0.13143048,0.055236753,0.054357372,0.021335308,-0.0053003165,0.06109014,-0.08580532,0.14827372,-0.15808682,-0.038780615,-0.08621845,0.03559958,-0.023108976,0.10403952,0.062566265,-0.03218778,-0.1960387,-0.04655791,-0.09787006,0.024965828,-0.08274369,-0.009247218,0.115232594,-0.0329253,-0.0035889782,-0.05004272,0.061025478,0.1546106,-0.044154953,-0.14557683,0.019351091,0.1286234,0.035137635,-0.04756949,-0.026925713,-0.022265768,-0.088588625,-0.050988372,0.046559762,-0.08303505,0.08969042,-0.18458444,0.028149603,0.15752114,0.13855933,-0.09709769,0.16392785,-0.046684276,0.08970437,-0.03155389,0.0078890715,-0.027381487,0.047324732,0.050223514,0.112104475,-0.01255955,0.2563436,0.05035308,0.019787775,0.06875169,0.06752185,-0.08259118,-0.07425389,-0.14217801,-0.07372887,-0.11232916,0.12254531,-0.07303818,-0.101758376,-0.017762404,-0.04949133,0.05196843,0.18265724,0.010132173,0.1283606,-0.034195,-0.1007813,-0.016857475,-0.115470186,-0.04889834,0.011705206,-0.12390762,-0.06496068,0.028487409,0.062344857,-0.10010957,0.14624178,-0.05745486,-0.051887542,-0.07345833,0.072835974,-0.053300194,-0.15029758,-0.05115598,0.04249758,0.019169426,-0.062277906,-0.014042803,0.09818867,-0.031696137,-0.08877396,-0.009584271,-0.055242304,0.074227415,0.09164623,0.017384239,0.21594092,0.058793932,-0.026088871,0.10765863,-0.062359434,0.022642823,0.07565192,0.12696373
-0.104749195,-0.09403381,-0.109023266,0.06495702,0.08645888,0.13834305,0.112279974,-0.009466549,-0.056193713,0.13757077,0.013878769,-0.114844404,-0.0019623195,0.106042616,0.2075858,0.085267074,-0.12513475,-0.06848456,-0.07412696,0.1389587,0.08714076,0.07896368,0.14981367,0.081812754,-0.018066337,-0.07765765,0.043381207,0.013978407,-0.009929442,0.077933654,0.14448896,-0.034832284,0.030198442,0.035174668,-0.005346981,0.057258848,-0.116386876,-0.16926701,-0.0662549,-0.09439226,-0.017913353,-0.059344105,0.0923287,-0.026335226,0.028190654,-0.0067257546,0.054105014,-0.028515654,-0.13158257,-0.09766829,-0.2701395,0.008734902,-0.005472078,0.08616217,-0.08070493,-0.07401519,-0.0065123104,-0.049295753,-0.037525743,-0.02924865,0.05809627,0.021675248,-0.0078827245,0.053144306,-0.13092865,0.07548746,-0.15098615,0.11271742,0.11901028,-0.020564433,-0.1352457,0.04094816,-0.04788348,0.038594887,0.03140865,0.13596128,-0.08327173,0.039037433,0.080125056,0.01195039,0.10746549,-0.13538986,-0.02043588,0.1071639,-0.0221913,0.030784832,-0.105680645,-0.07775406,-0.09467982,-0.03636612,-0.056075975,0.13446513,-0.1097313,0.07879817,0.039395817,-0.008684856,-0.00024343962,-0.037089325,-0.001770726,-0.09314388,-0.028026221,0.097690694,0.047793183,-0.060602102,-0.01954087,-0.057265528,-0.14344604,0.004334086,-0.016989091,-0.025865106,-0.061977923,-0.06485714,0.14920999,0.03645885,0.05880766,-0.05624606,-0.014995785,0.08282446,0.011210198,0.0879721,0.021088995,0.034330133,0.006778822,-0.04261149,-0.010564583,0.008373838,0.015024622,-0.037426278
0.0014817283,0.0714217,0.039100498,0.04219274,0.21060857,0.03228932,0.100756876,0.16148123,0.027650451,0.06645275,-0.0008554826,0.052356023,-0.035548676,-0.0074412255,0.09537745,0.11553602,0.112809815,-0.07121069,-0.058221783,0.106678985,-0.08880233,0.07025314,-0.07118182,0.031963736,-0.0049613593,-0.04518371,0.038637053,-0.012105986,-0.06051299,0.034262273,0.096317016,-0.14144693,-0.039453622,0.08804107,0.052221086,0.0470193,-0.04984702,0.06674861,-0.043833975,-0.11876691,0.10848367,-0.11540224,0.010594815,-0.09085816,0.024320036,0.075899415,0.038325038,-0.06790271,-0.34465954,-0.062371045,0.028309844,0.071265295,0.10119475,-0.033229966,0.010042202,0.1314925,0.018251417,-0.03728747,-0.07853401,0.027476056,0.102566466,0.010854445,-0.027489427,0.02273365,-0.07786985,-0.1218345,0.0561831,0.13043435,-0.10765538,-0.045475136,-0.06930714,-0.14559498,-0.03315295,0.022267183,0.016375778,0.02747942,0.26220223,-0.08269224,-0.014345936,-0.06549766,0.036904637,0.033820335,-0.041313127,-0.02721305,-0.147721,0.026897695,0.043340158,-0.030214155,0.078314655,0.11748177,0.008302093,-0.051878076,-0.03217878,-0.12696199,-0.022405174,0.0060070204,0.26230952,-0.027243666,-0.0032260774,0.08412817,-0.031245232,-0.007224427,0.12823063,0.07526948,-0.07938556,0.14350466,0.052884538,-0.026983578,0.012092542,-0.04619668,0.006610877,0.07741392,-0.07805222,-0.022257341,-0.088276245,0.0027069848,-0.10544483,-0.03895681,0.07722571,-0.045058224,0.15817794,-0.14993064,-0.057810135,-0.10724596,-0.22674969,0.06270235,0.10518907,-0.09898902
0.048104607,0.066656165,-0.04792138,-0.02844633,-0.12902701,0.13441439,0.12756604,-0.032111604,0.016840564,-0.097092755,0.031171331,0.04168521,0.14318964,0.022757402,-0.11671813,0.117685646,-0.010505958,-0.011690159,-0.058781277,-0.017058244,0.13997816,0.0146414945,0.058630936,-0.05209893,0.07533862,-0.15235697,0.11513193,-0.038336966,-0.046614185,0.027017014,-0.08362464,0.15976663,0.06218857,-0.08444884,0.0075645563,0.048833415,0.025508177,-0.00910493,0.10009373,-0.12022301,0.07082967,0.07726303,-0.0037884298,-0.02367743,-0.12225653,0.012870387,-0.050256383,-0.09615877,0.024301838,-0.1126197,-0.17383587,-0.004806696,-0.07785434,-0.025263466,0.07286223,-0.006208151,0.16115895,-0.0064605875,-0.06377523,-0.008258488,0.05539014,0.08854937,-0.01749917,0.114304096,0.0061210236,-0.04559805,0.048760384,0.005982559,0.1095975,0.042109985,-0.05111379,0.0031828936,0.099993154,-0.012752272,0.0049056984,0.09411061,-3.551988e-05,0.16557819,0.023629041,0.020428637,0.07072246,0.016124252,-0.041014332,0.04369511,0.01583453,0.06668153,0.014730461,0.04723157,0.015546425,-0.086832345,0.060240965,0.00064741616,-0.094303794,0.08257895,-0.019568551,-0.08949545,-0.016103793,-0.031786222,-0.087911956,0.027266225,-0.032045163,-0.09711877,0.053403493,-0.0032919007,0.10855471,-0.14292766,-0.005353208,-0.073677346,-0.119866654,0.04512968,0.04490991,0.07628132,0.05404459,-0.005154839,-0.14822201,0.014882683,-0.038549952,0.05208378,0.055237275,-0.11052153,-0.07455934,-0.08914666,0.09645651,0.059646275,-0.12515864,-0.011786309,-0.05279129,-0.18928431
0.05298595,0.06597329,0.029161526,-0.044947863,0.04897919,-0.055081967,0.11379559,0.041517515,0.050080314,0.0025007944,-0.03174995,-0.022721345,-0.07755584,-0.13147062,0.015236995,0.16287711,-0.018416956,-0.012325433,-0.033477712,0.09284865,-0.0055757086,0.18088213,-0.041262917,0.081757545,-0.04748136,-0.024642652,0.01863224,0.00051232585,0.09006313,0.0043202583,-0.07385663,0.09994826,0.064225756,0.051688377,-0.04677439,0.044141885,-0.07721307,0.0057115653,-0.02857841,-0.0028374514,-0.11945322,-0.0077675325,-0.0028226618,-0.05474707,0.019240364,0.037895255,0.10643523,0.063578784,0.05290234,0.082890496,0.08373899,-0.14512806,-0.012363496,0.007122879,0.03316493,0.07666102,0.0014498772,-0.035490766,0.06843102,-0.017779615,0.050839107,-0.04855139,0.011781342,0.12630908,-0.08162684,-0.12737586,-0.074685946,-0.026078468,0.05167657,0.009958741,-0.02457165,0.008621023,-0.08492136,-0.025109747,-0.048207305,0.016024187,-0.07166828,-0.065434664,-0.042452417,-0.026961986,-0.09126093,-0.10133925,0.0131244445,0.074433595,0.12966856,-0.081650205,-0.04207837,0.004323252,-0.094202645,-0.0334014,0.04046828,-0.0010269055,0.09677138,-0.08034642,-0.029933488,-0.009815903,0.03280067,0.058918588,-0.04115454,-0.05217443,-0.019566793,-0.09396714,0.011346173,0.0038086132,-0.046634268,-0.009258498,-0.27395108,0.0039964765,0.016069718,-0.06789835,0.0034975337,-0.0068346253,-0.024506304,0.06354232,-0.016112996,-0.020848537,0.06666755,-0.17002115,-0.10993051,0.043063816,-0.15470387,-0.06039723,0.092499256,0.020664072,0.07817783,-0.047517445,-0.023711432,-0.052386004
0.05990843,-0.033280034,-0.05520608,-0.0053683557,-0.14548762,0.03732018,-0.08952232,0.07173342,0.01780871,-0.09996526,0.1088788,0.0012530759,-0.10364979,-0.08909307,-0.035748057,0.14780504,-0.19483426,0.023195913,-0.16474207,0.002901823,0.06421886,0.07400395,-0.035510447,-0.023478597,-0.03905452,0.11406795,-0.13991219,0.09343389,-0.0708407,0.117083006,0.2189765,0.012502329,0.15656908,0.05095525,0.052876253,-0.13407868,0.1255436,0.015510988,-0.033534016,0.15501752,0.033421263,-0.12030305,-0.00079294044,-0.007872727,-0.09558321,0.1740523,0.030740714,0.046518497,-0.1524808,0.04179298,-0.09707144,-0.10391235,0.009043882,-0.025558399,-0.013974957,0.10903321,0.16070154,-0.069447815,0.06577755,0.031010995,0.02911638,-0.04051706,0.03034643,0.15956214,0.0030028329,0.030866265,0.12767616,0.0174814,-0.015412099,-0.189708,-0.0061600753,0.015748294,0.02209392,0.04166229,-0.102146976,-0.0853473,-0.06640697,-0.09546418,-0.11697355,-0.07020769,0.02318617,0.04470095,0.008938944,-0.04146165,-0.01881018,0.10489021,0.050407387,-0.04915863,-0.01619781,-0.031374887,0.000803983,0.009804028,0.013326594,-0.046947796,-0.038434144,-0.11512374,-0.02228097,-0.09592357,-0.038021013,0.050169695,0.12019006,-0.015176045,-0.10423645,6.905772e-05,-0.08712423,-0.09457757,0.05687689,-0.12771823,0.01972617,-0.003222262,0.09392973,0.042045765,0.122897044,-0.052662656,-0.13322364,0.051000673,0.035556592,0.0002799762,-0.08021554,0.00088523567,0.076430574,0.12141227,-0.080327764,0.024397766,0.02042365,-0.055566695,-0.16841367,-0.028384611
-0.05753459,0.081922576,0.074038,-0.01939246,0.06276386,-0.017143052,0.15788461,-0.18019168,0.0045164186,-0.027823828,0.0051608197,0.07804746,-0.07977624,0.074829586,0.07136142,-0.059374332,-0.12860487,-0.10453958,-0.030878559,-0.06820809,2.9710875e-05,0.028652616,0.12138008,-0.09883642,-0.052767884,0.065244496,-0.049729634,0.16579363,0.00797001,-0.0025475898,0.059787005,-0.071151875,0.006268338,0.010270963,-0.041844387,-0.00043961243,-0.038884263,0.07474865,0.04887475,-0.046361562,0.07548145,-0.0728727,-0.04632916,-0.073094346,-0.06711125,0.13847373,0.05259368,0.12978752,0.13668074,-0.020436894,-0.0016531566,-0.06085462,-0.07673095,0.014718252,0.009500088,-0.012127535,0.114968896,-0.08783884,0.049577452,0.1256535,0.07267442,0.026900085,0.0063410103,-0.08216116,0.049419533,0.0005728855,0.25799993,-0.024921805,-0.20832816,0.0090443725,-0.057381533,0.010194517,-0.080972254,0.019123068,0.025175558,0.13128127,-0.016342584,0.19528207,-0.005014129,-0.027521182,0.049089693,0.026418488,0.08493621,0.048466116,0.018729782,-0.054018553,0.048408717,0.05413375,-0.12214437,0.1949438,-0.11579492,0.05190479,-0.051892247,-0.16730507,0.13233028,0.047109284,-0.2399101,-0.016750993,-0.01103838,-0.1548912,-0.023497019,-0.07762859,0.0032303408,0.009921707,-0.034012284,-0.014973534,-0.034039825,0.028737038,-0.023753071,0.057385202,0.08781926,-0.07668745,0.049645744,-0.064793356,-0.050093584,-0.15031958,-0.02269045,0.08641426,-0.04387568,-0.005726913,-0.020429209,0.079210386,-0.12182943,-0.004214238,-0.02854098,-0.004889921,0.06864106,-0.0780617
-0.0065692794,0.012154551,-0.039676476,-0.029760588,-0.049730442,-0.054207373,0.070279025,0.074207306,-0.050587025,0.029464163,0.05799774,-0.068184555,-0.08130739,0.07323561,0.045220856,0.04173296,0.034808703,0.031744726,-0.11224381,0.026788415,0.07650009,-0.11359003,0.06398848,-0.08791354,-0.093230285,-0.004918487,0.08419117,-0.019477263,0.0079573495,-0.017557075,-0.036432542,-0.019755047,0.18752208,0.16915947,-0.09699837,0.14199227,-0.013925548,-0.0074515534,-0.010130906,0.04767909,0.041939136,-0.20429403,0.054071076,0.13158566,-0.032482557,-0.046638865,0.04523894,-0.08105945,0.0067556356,-0.029803604,0.20777291,0.011504786,0.060260035,-0.094419956,0.019779595,-0.06295006,-0.08261786,-0.019459497,-0.045832057,0.044774916,0.1672005,-0.0010079654,-0.0047093215,-0.044086605,-0.19466512,0.043861024,-0.2295096,-0.08206858,-0.14824057,0.04186909,0.1597343,-0.12882596,-0.038338937,0.01611879,0.013712901,-0.18823524,-0.034822844,-0.024653975,-0.04820341,-0.021347139,0.07622418,0.024077175,-0.022456257,0.0083382595,-0.0045897723,0.026157262,0.06507354,0.081570834,-0.0031226738,0.041612793,-0.03220777,0.022386696,-0.07622965,-0.18887815,0.068786696,0.067899376,0.077358834,-0.0062319385,-0.016885402,0.011689674,-0.14301853,-0.08093586,0.075639874,0.026939757,0.06504984,-0.058328304,0.09757832,-0.19552778,-0.04517089,0.059306383,-0.10645989,-0.071211,-0.055189583,0.19910586,-0.086076126,-0.07356306,0.24881227,-0.004249089,-0.0711234,0.014496365,-0.14223446,0.13048962,-0.12307042,-0.008155142,0.059200887,-0.002860174,-0.09281853,-0.0019315159
0.07337835,0.050700866,-0.03016891,-0.051642016,0.13392118,-0.09491912,-0.08246763,-0.03018056,-0.033287533,-0.009573511,-0.043984763,-0.0119416965,0.0022201154,-0.005708749,-0.028483411,-0.04703202,-0.12894633,0.021924986,-0.028575806,0.1190749,0.043229286,-0.1460884,-0.047812082,0.073261276,0.1448917,0.07811248,0.043456715,-0.109516375,-0.08638078,-0.28834477,-0.1993212,0.03544707,0.039405953,-0.009742167,0.03701738,-0.18886954,0.029486205,0.032641735,-0.09383355,-0.119589195,0.044924688,-0.12315738,0.08115195,0.0024154522,-0.037252847,-0.011761747,0.06628629,-0.025401108,0.07617248,-0.04481459,-0.003899423,0.1378428,0.032142606,-0.09925645,0.039907746,0.034778517,0.105546474,-0.009090544,0.010629009,0.035432827,-0.020885097,-0.07396108,-0.020868808,-0.08088642,0.09169856,-0.0008065735,-0.079167634,-0.0150329815,0.031476326,-0.00535206,-0.10566292,-0.06610132,0.17799455,-0.03357864,0.004829259,0.12943953,-0.012382317,-0.023480931,0.10825864,0.0015217122,0.1615389,0.15169756,0.11951467,0.016860405,-0.16890182,0.07776363,0.09888274,-0.05883313,-0.029050533,-0.088569686,0.055651706,-0.018705746,-0.03285994,-0.14754403,0.11967037,-0.008369508,-0.098498575,0.16314414,0.008088152,-0.109880544,-0.03031332,-0.058041126,0.10194269,0.029862724,0.058245476,-0.033208676,-0.031654768,0.015753197,0.054557156,0.055050578,0.0755447,0.0016830979,-0.055110786,0.019656144,-0.008846833,-0.03352707,0.12215047,-0.14545725,-0.0011113376,0.084953494,0.07094375,-0.06662487,-0.069097295,0.07110282,-0.20023058,-0.050049882,-0.12637089,0.057629663
-0.123383075,-0.041529655,-0.04822515,-0.08463735,-0.053777587,-0.068859585,-0.046256173,0.03330832,-0.004111402,-0.027571425,-0.07181109,0.07746652,0.06682387,-0.011977051,-0.014205279,0.05391626,-0.045095176,0.08662812,-0.050795384,0.027621826,-0.05007869,-0.09411774,0.040968195,0.0689139,-0.04001524,-0.011821028,-0.051198598,0.15175909,-0.07872615,0.011995903,0.1028246,0.064518675,-0.047841687,0.15053898,0.027378846,0.102302685,0.16219725,0.047894277,-0.13910627,-0.103992134,-0.080094196,0.10089332,0.054454215,-0.03565806,-0.13317782,-0.06874486,-0.17552409,-0.06446959,0.04027573,-0.031536967,0.2875523,-0.050935116,0.05049015,0.06468801,-0.052741233,0.009235526,0.15688467,0.159877,-0.009372066,-0.044640753,0.08348173,-0.08973782,0.10342882,-0.11778596,0.011451946,0.08011426,0.053546734,0.010986478,0.16213493,0.19757284,-0.033503618,-0.005735233,0.055796158,-0.02245983,-0.16363895,-0.06708577,-0.06370964,-0.05011494,-0.07903898,0.06305714,-0.16603984,-0.028524648,-0.09592669,0.03231044,-0.075577006,0.0021288416,0.0063727857,-0.09762543,-0.08119461,-0.036159437,0.08615754,0.17406596,0.06783039,0.04926904,0.01994535,0.0735886,-0.19666235,-0.04327325,-0.054126933,-0.008379277,-0.019014262,0.034848016,0.22981475,0.021548701,-0.03233283,-0.006817365,0.039792195,-0.018933382,0.086552456,0.0055534523,-0.056767642,-0.05096333,-0.1114503,0.10650397,-0.09162754,-0.07360486,-0.017245237,-0.06201632,0.0060378783,0.02620006,-0.02532125,-0.051351238,-0.08458944,-0.089892246,-0.042473465,-0.047338817,0.19209148,0.075906895
0.06495066,0.02575323,0.019408308,0.015454077,-0.06257769,0.11869936,0.007986192,-0.22653405,0.005680825,0.07162692,0.04029208,-0.04675414,-0.11248139,0.095359355,-0.010872867,-0.18586418,-0.0044386815,0.07578118,-0.08099483,-0.028955659,-0.0027467788,0.051892083,-0.10268233,-0.12879129,-0.03310459,-0.007429191,-0.008572311,-0.06374475,0.14920253,0.042948894,-0.016897826,-0.18107577,-0.011728474,-0.09504952,-0.08020831,-0.07638933,0.11883853,0.017631454,0.21940272,0.07855577,-0.0030354252,-0.13464665,0.04299803,-0.0007647195,-0.0018436734,-0.077586025,0.015979175,0.07724756,0.11408103,0.030843185,0.11075874,0.050768446,-0.020881053,-0.06149389,-0.10641772,0.099066816,-0.11869573,0.10170334,-0.004310448,0.0010702884,-0.07355635,0.03532631,0.05373093,0.12856087,-0.021317476,0.06823853,-0.0038202126,0.004941357,0.1094907,0.06399718,-0.041587535,0.027155165,0.031946965,0.07363853,0.077607095,0.042981908,0.08825247,0.012832825,-0.026984714,-0.0656545,-0.046478055,-0.1292457,-0.011261101,-0.07451288,0.04587987,0.0352012,0.02687597,-0.021502336,-0.13961987,-0.06274754,0.07264715,-0.05790181,-0.052670784,-0.10304345,-0.07023133,0.016561745,0.04586799,-0.042386536,-0.09154135,-0.008265064,0.0017741276,-0.059036024,0.0763216,-0.050273623,0.08660397,0.048583683,0.029461663,-0.004926071,0.01833035,-0.118380904,-0.011443907,0.002914934,0.14025433,0.009509497,-0.0402532,-0.019104384,-0.21215974,0.072835706,-0.15507938,-0.0077154627,-0.031393163,0.10865811,0.006066363,0.008674351,0.0051972666,-0.020900227,0.027012771,0.016345771
0.15732048,0.14917849,-0.043315865,-0.03223151,0.12384769,-0.0031930085,-0.030227283,0.24564297,0.1540761,0.06973889,-0.027481586,-0.118409425,-0.0069679236,0.026048258,-0.076823264,-0.19043368,0.009563438,-0.05992579,0.14639641,-0.0015283781,-0.029340815,0.014424124,-0.037328053,-0.101952516,-0.019784883,0.005113624,0.062996686,-0.118728906,-0.21119419,-0.04632079,-0.07438785,-0.032407705,-0.045499507,0.043759447,0.09076363,-0.005951849,0.05008491,-0.09265401,0.23589924,-0.055168897,0.09668161,0.0011961878,-0.003724366,0.1055967,0.020389745,-0.02655293,0.015040406,-0.052004717,0.11605956,0.07196426,-0.06850115,-0.02677295,-0.023816342,0.06607323,-0.12500082,0.09272768,-0.07496549,0.017402526,-0.25987703,0.11187305,0.02792987,0.023676852,0.011283595,-0.027413603,-0.094571054,-0.014402646,0.043039422,-0.0780671,-0.16061702,-0.052896045,-0.07145949,0.15659359,-0.10953107,-0.0035679378,-0.12209394,-0.060135566,0.119231544,-0.08189136,0.1610829,0.052387983,0.055090036,-0.11975961,0.027736858,-0.014586308,0.14390634,0.16851184,0.11870842,0.04252248,0.019637905,0.14172663,0.029073562,0.111672476,-0.09662589,0.036167435,0.061223015,-0.0013631711,-0.0611943,0.0029157447,-0.03536916,-0.0015792992,0.0314462,0.031357042,-0.081031516,-0.07428479,0.0029852288,0.0015190431,-0.0527791,0.029861312,-0.026857562,-0.04393146,-0.10010146,-0.14175482,0.033365928,-0.042218693,-0.035173096,0.025280572,-0.021738527,-0.05007832,0.00078857684,-0.0022864703,-0.08239066,-0.06806721,0.041256644,-0.020909186,0.047948666,-0.054339733,-0.11209466,0.08457209
-0.012678128,0.076593354,-0.032311443,-0.13811289,0.07939274,0.038621675,0.118328035,-0.02626774,0.09124809,-0.030769117,0.0042908383,-0.025708131,0.009736837,-0.027390257,-0.025849368,0.17846912,-0.14403689,0.07431849,-0.1118175,-0.023815056,-0.061050877,0.15624513,-0.098417446,-0.060700912,-0.073222995,0.043166924,-0.038186703,-0.02077398,0.015118951,-0.091264024,0.069153756,-0.029368762,-0.071889244,0.108570695,0.1318525,0.032464683,0.011625204,-0.06912245,-0.13749984,0.03496793,-0.13894968,-0.11692051,-0.0070962254,-0.11029596,0.06892714,0.086155586,0.062000554,-0.085548185,0.006999617,-0.005076344,0.100175425,-0.05760381,0.002306878,-0.009843546,-0.21966425,-0.047864452,-0.0005511882,0.0795745,-0.085497245,-0.046193663,0.007396993,0.028437829,-0.05810675,0.08748508,0.055384167,-0.08203448,-0.11768153,0.1251512,-0.12306836,-0.06839031,0.21411213,0.27078676,-0.085800335,-0.11694419,-0.02680187,0.008173381,-0.020012984,0.0055847196,0.10291147,0.015291527,-0.025258446,0.08510905,0.01515258,-0.012420839,-0.051910818,0.031226462,-0.17623992,-0.03169573,-0.077229224,-0.07208815,0.049551755,0.14251618,0.013122063,-0.03345155,0.040550083,-0.08228956,0.111527175,0.056839056,0.007395721,-0.017141547,-0.0709305,0.04257682,-0.11969313,-0.08293446,0.09885776,0.15140952,0.09862472,0.048913337,0.08307051,-0.001078498,-0.08823423,0.029896874,-0.043488335,-0.2101249,-0.017414825,-0.072793275,0.05823702,0.09035721,-0.03638272,-0.028215908,0.08517622,0.10971066,-0.08571383,-0.051126108,0.056304276,-0.059703305,-0.07992864,-0.005598102
0.027204793,0.021748362,0.056244954,0.07725126,-0.10832388,0.032862343,-0.029586151,0.039271988,-0.03170901,-0.06399054,0.015140593,0.054917272,0.124130346,0.05681343,0.16843711,0.1683877,-0.07721996,-0.0777616,0.13755582,0.015272099,0.0033826302,0.2939184,0.017405365,0.048643827,-0.078930005,0.0121856555,-0.003892784,-0.013456826,-0.048637938,-0.017804747,-0.0027285905,-0.024158873,-0.069512025,0.020487115,-0.07480874,-0.06872635,0.010905993,0.012147792,-0.01832999,-0.06978653,0.08116465,-0.13907479,-0.036930434,-0.1032821,-0.0011753058,-0.009055046,-0.2092567,-0.0016304721,-0.055062667,0.013706224,0.06882581,0.07241821,-0.012143986,-0.09240591,-0.12390603,0.07491481,-0.060753208,-0.007869667,-0.032954335,-0.044524927,-0.034287024,0.0382606,0.005171298,0.025782114,0.109624475,-0.00791207,0.03833152,-0.09277579,-0.067327365,0.054229863,0.02931261,0.014971017,-0.19490947,0.023062728,-0.056340557,0.022569804,0.05149042,-0.067982435,0.07098954,-0.046303324,-0.10753314,0.005789996,0.08844779,-0.010073523,-0.1250011,-0.049660236,0.06249641,0.05714468,0.12616694,-0.07409572,0.043137647,-0.073839456,-0.03890482,0.05061195,0.06996179,-0.10595752,-0.21874042,0.028772814,-0.022578917,-0.017311476,0.042177882,0.0767227,0.057998016,-0.055796616,0.14067669,-0.06677829,-0.062555924,-0.11571052,-0.10985107,-0.030409507,-0.016729174,-0.043666627,0.10149061,0.07440351,0.089161634,0.1602696,0.10488352,0.19029656,0.14315741,0.022462824,0.050401073,0.015565763,0.02114196,-0.03426839,-0.028446479,-0.09794126,-0.14922966,0.07164566
0.04196851,-0.14051998,-0.0025829193,-0.047146615,-0.059500605,0.022427188,-0.063457884,0.11350763,0.17107111,0.091184676,0.07370306,-0.022428378,-0.041614544,-0.10146609,-0.076319516,-0.030550199,-0.06838521,-0.10972639,0.03288339,0.021892916,-0.14767471,-0.021282889,0.11262267,-0.01905399,-0.1394906,0.01707198,-0.015101873,0.006970883,-0.09580913,0.04562475,-0.060950425,-0.05555953,0.08635883,-0.04349321,-0.073384,0.009428659,-0.08983232,-0.0353377,0.044830013,-0.110633425,0.030633131,-0.031007342,0.046833295,-0.05441048,-0.0008442389,-0.12836164,0.010158123,0.11175736,-0.04023251,-0.08509359,0.047103614,0.05846849,0.0416106,-0.09213286,0.019862093,-0.032525342,0.17404789,0.009176366,0.015023125,-0.039271217,-0.06278579,-0.09163665,-0.09842848,0.008602077,-0.0760071,0.09912931,0.075575605,-0.12244184,-0.1365409,0.10606501,-0.13056794,-0.0032337424,0.07540461,-0.042713128,0.18728971,-0.059925336,0.10277614,-0.15134384,0.023871807,0.06284464,-0.03661377,-0.032870967,-0.0058413735,0.05397506,-0.062286336,0.053509533,0.0472791,0.08754255,-0.0261516,-0.09215273,0.030729625,0.0021257186,0.13113834,-0.099483654,0.06779376,-0.05829928,-0.079868585,0.0035710519,-0.11458931,-0.018520974,-3.6711244e-05,0.14702019,-0.016285265,0.017652411,-0.059340652,-0.09447232,-0.0007625972,0.026058014,0.09113268,0.019186132,0.0630328,0.054394912,0.01199426,0.017713133,-0.049481176,0.01459444,-0.0818339,0.07019155,0.13470681,-0.09094602,0.0488208,-0.07424277,0.05026452,0.05458697,-0.023779836,-0.004450654,-0.031965517,-0.03591885
-0.02364004,0.053947598,-0.022519639,-0.06121294,-0.058738112,0.0037860633,0.035745747,0.012600822,0.0948512,-0.030590052,0.058042407,-0.0067433245,0.010396528,0.033935267,0.005582941,-0.026231898,-0.03761995,-0.04267793,0.010981751,-0.06515026,-0.07311185,-0.11158538,0.029664673,-0.040925268,0.034797188,0.021909613,0.14681001,0.01457197,-0.16248313,-0.20651954,-0.14181766,-0.10243876,0.14841647,0.039225657,0.00704782,0.008089466,-0.05436303,0.06772822,-0.07377003,-0.07816573,-0.058081336,0.043713145,0.06562315,0.015461121,-0.022167107,0.016130893,0.025058046,0.05942273,-0.028341845,0.043816455,0.013922572,0.0055894,-0.018393133,0.09771651,0.097226754,-0.056101643,0.025150994,-0.09096542,-0.014114098,-0.06589836,-0.048977796,-0.018358905,0.029727718,-0.074072525,0.14643799,-0.05802288,-0.036669437,0.040591955,0.06790074,-0.05613088,0.027947256,0.018412732,0.060259994,-0.03192376,-0.09925084,-0.0103939995,0.0413616,0.06695212,0.061498255,-0.022389753,-0.009069238,0.09132534,0.072324865,-0.10171551,0.010549674,0.057907548,0.106907226,0.020767288,0.027455583,0.0059236377,-0.05464998,-0.059560545,0.06497245,0.0529283,-0.039536316,-0.08223086,-0.048770174,0.07965931,0.010155155,0.060603034,0.14810714,-0.08169238,0.08434388,0.046354167,0.102676995,0.027827766,-0.013050863,-0.13617933,0.023768788,-0.00686953,-0.071800895,-0.058892734,0.12327624,0.043556917,-0.00010796772,0.06891007,-0.07757749,0.16038373,0.14938001,-0.056108173,-0.011001391,-0.06988746,0.0015392255,-0.076632164,-0.15804453,0.05746978,0.18013312,0.02221057
-0.0050913263,-0.06647485,-0.021695677,-0.040217604,-0.046463188,0.25020772,-0.058749843,-0.102412336,0.092988506,0.013479935,-0.052836657,-0.03170598,0.0470965,-0.001760149,-0.0856502,-0.07637547,0.10670637,-0.033345357,0.002296531,0.113741435,0.01277635,0.0043178694,0.01708096,0.029186951,-0.110398404,0.011946453,0.07179678,-0.07401467,0.09471886,0.097192414,0.04681858,0.1373213,-0.025070665,0.08104429,0.088587075,0.023791112,0.06262181,-0.07565885,-0.024834681,0.08196237,0.019446978,0.06106708,0.04119119,0.012461844,0.05474279,-0.009367379,0.07224812,-0.08369059,0.013833528,0.07151165,-0.117018975,0.088697426,-0.09388418,0.03548083,0.028842486,0.0023205555,-0.02490485,-0.012072602,0.06692653,-0.09580481,0.037846267,0.047792662,-0.062312927,0.0137678785,0.026505133,-0.06075399,0.07882871,-0.1409015,-0.016693346,-0.06703593,0.046105985,0.0038629274,-0.053191744,-0.07005062,-0.049213443,-0.07173508,-0.04166307,-0.049360774,0.009323337,-0.02183708,-0.1425248,-0.008350714,-0.053783692,-0.054274153,-0.009339311,-0.050091643,-0.03366036,-0.036950655,0.010081254,0.2052615,-0.057095565,0.03519081,-0.005091444,0.021982498,0.07166438,0.06328482,0.16627714,-0.053138953,-0.02090469,0.04763586,-0.07719301,-0.01645453,-0.04371729,-0.075973526,-0.061398353,0.054198753,-0.026084017,0.08557773,0.049250424,7.311975e-05,0.041414227,-0.014692527,-0.026236275,0.020159759,0.074459605,-0.079239845,-0.015744006,-0.020267362,-0.047509953,0.17274298,-0.017975941,-0.05309032,-0.004721673,0.001113301,0.0018605085,-0.05966902,-0.15306337,0.030883309
0.09367391,-0.08321258,-0.026427524,-0.08128349,0.2438622,0.10030124,-0.057891514,0.006419803,0.0030464143,0.027344083,0.020073038,-0.083480135,-0.036315896,0.11019242,-0.1079826,-0.018860914,0.12232674,-0.015879136,-0.11696159,0.091296464,-0.046644688,0.17843719,-0.039435204,0.05180099,0.038720537,0.25899088,-0.020431165,0.08562811,0.044531,0.004812025,-0.08619127,-0.054695405,-0.10160391,-0.043511715,-0.057060823,-0.0055373046,0.077817954,0.056357387,-0.004114772,0.09808622,-0.026728224,0.03654766,0.11502341,-0.01993964,0.072396174,-0.04460838,-0.05925594,-0.029931694,0.057813223,0.040469103,-0.07758427,0.0016933078,0.017101526,-0.023975218,-0.027998274,0.046573885,-0.0057740575,-0.065328635,-0.029234044,0.07443095,-0.20140348,0.010530427,-0.10322275,0.09560899,-0.092475414,-0.009512126,-0.095883936,0.090429336,0.07771959,0.026518557,0.08285716,-0.08118611,-0.061744656,-0.0588941,0.030685665,-0.057437863,-0.21933359,-0.08622868,-0.03897609,0.04828312,-0.037043434,-0.018208865,0.104553066,-0.015219757,-0.031902872,-0.01016573,-0.058603164,-0.012994457,-0.05126627,-0.060383726,-0.10692925,-0.013234692,-0.0075060213,0.018584207,0.005726923,0.051614568,-0.018872146,-0.15074466,-0.04267931,-0.02124748,-0.037908718,-0.06598985,0.053662222,0.12070141,0.049438115,0.05048802,-0.0007119921,-0.054813147,-0.08959771,-0.07657727,0.048321728,0.15546614,-0.09890365,-0.24225225,-0.029576035,0.05632658,-0.006116465,0.0932614,-0.055328228,-0.0014299995,-0.16293612,-0.04572156,-0.013039446,-0.081449665,0.02314139,0.107564464,-0.027773941,0.048882224
0.12461199,0.20101583,0.019391,0.10116985,-0.033424217,0.096320145,-0.03421989,-0.09965801,0.032834128,0.04071709,0.14187692,0.00521361,-0.14793973,-0.009028628,0.14158398,0.09197567,-0.054823708,-0.05093243,-0.008409514,0.046760514,0.10382399,0.078658566,0.045144215,-0.06683015,-0.09975242,0.20455556,-0.07075071,0.06177004,-0.041951276,-0.032538306,-0.086647645,0.06197797,0.04868968,-0.013512555,0.08954923,-0.05840499,-0.023669688,0.10616918,-0.07713027,-0.025358466,0.046705727,0.07572432,-0.036801316,-0.12865345,0.21365479,-0.16741621,-0.15473674,-0.17632195,-0.16493313,0.060330607,-0.1631549,-0.11484644,0.10926554,-0.034000665,0.054576844,-0.0029041807,0.15347417,0.023649907,-0.0065580024,0.02561258,-0.03523937,-0.0033553669,-0.09383457,-0.038983338,0.12565964,-0.015263551,0.038711123,-0.14045964,-0.09954527,0.1422891,0.06157935,0.11840925,0.06375636,0.069789775,-0.059357904,-0.046252392,-0.081309676,0.03257188,0.041805733,-0.0010982645,-0.060469266,-0.017843032,-0.14043544,-0.093795694,-0.065540664,0.13521938,-0.061542574,-0.05621427,0.0738408,-0.039638728,0.045617487,0.021991309,0.16183598,-0.047256824,-0.072395004,-0.00062232977,-0.04921513,-0.03342381,-0.024109527,-0.022033986,-0.009177076,-0.097168125,0.07219379,-0.06264721,-0.017598258,-0.023512451,0.03836976,0.066773266,-0.08455258,-0.02988093,0.034461424,-0.054914284,-0.13535841,0.034561876,0.15007265,-0.10501878,-0.07163382,-0.057286073,-0.21838452,0.17620976,0.07282219,-0.04312167,0.028763577,0.12369651,0.004410675,0.0916594,0.0049492507,0.014858625
-0.1264943,-0.26507297,0.0020693075,0.12221246,0.06697859,0.091577396,0.10449947,0.08435275,-0.13517775,0.051558558,0.016733183,-0.06129455,-0.0014978559,-0.085184105,0.16386925,0.106747955,0.030375676,-0.12334916,-0.06779025,0.07203533,0.023186324,0.027481623,-0.10179364,-0.07215087,0.05396899,0.11614095,-0.09389784,0.003937041,0.043407444,0.11722756,0.041696247,-0.0328048,0.026988141,0.07788939,0.006745627,-0.11215811,0.12618978,-0.013176548,0.15705736,-0.07659,-0.0423238,0.087631606,-0.0877428,-0.084574856,-0.027875239,-0.04075131,0.06295204,-0.030464577,0.11271215,0.11733079,-0.05515734,-0.0031718197,0.014177306,0.059567712,-0.0441745,0.020667072,-0.12789607,0.013743659,0.17232454,-0.02040033,-0.04656319,0.016931163,0.061061718,0.0032993476,-0.023728926,-0.011677533,0.09385668,0.0006919533,0.07430315,-0.19098693,-0.11658621,0.14015745,-0.04807285,0.00075516687,0.10517465,0.00019000102,-0.0063778604,-0.19871143,-0.010205465,0.029846558,0.02186858,0.010943908,-0.042169612,-0.01253787,0.07480669,0.036445905,-0.1666497,0.047813293,-0.08367276,0.05127154,0.00060934946,-0.057552326,0.035889376,-0.02142317,0.022416927,-0.062220354,0.14601713,-0.07417192,0.010729746,-0.06271057,-0.012065802,-0.15226865,-0.12972566,0.0005888716,0.14223497,0.041639104,0.14990152,0.028160715,0.0053273165,-0.046091303,-0.058134105,-0.04525597,0.10518033,0.13675135,0.009584479,-0.1489682,0.17015183,-0.00092876854,-0.00164389,-0.09427622,-0.10105847,-0.068746395,-0.063817315,-0.00989272,0.09864779,0.0095811905,0.08972451,0.009291451
0.074272245,-0.13545127,0.06357325,-0.006009661,-0.034808006,-0.12648027,0.19496493,-0.10780416,-0.023414254,-0.0015037874,0.02167006,-0.026103128,-0.03677644,0.07755822,-0.015526518,-0.014267437,0.050320283,-0.09710733,0.038260337,0.010050123,0.10998226,0.08562716,-0.023586715,-0.09418936,-0.0998403,-0.006515427,-0.059198152,-0.036368866,0.08086104,0.060643222,0.0023739825,0.05558586,-0.091420665,0.106272146,-0.049471464,-0.14840068,-0.09685657,0.17526907,-0.14057304,-0.05660338,-0.03593402,-0.15045138,-0.0608492,-0.023010993,-0.02658377,-0.026084295,0.015489434,-0.07649554,0.019200433,-0.06992614,0.0067698034,0.022750732,0.038847327,-0.030234,0.07746175,-0.0037100038,-0.11818126,0.14290696,0.12019629,0.078518085,0.041196305,-0.08623303,0.086806044,0.0062634856,-0.020260574,-0.04995293,-0.073791504,-0.09515219,0.17575915,-0.013613104,-0.028017167,0.014044366,-0.05972059,-0.057717342,-0.1271117,-0.003493083,-0.115042455,0.17983061,-0.06735686,0.05074223,-0.055036597,-0.041222233,-0.1094128,-0.09381505,0.11020136,-0.029650189,0.04592961,0.11879093,0.0031828699,-0.00070670893,0.024261137,0.14324157,0.009783759,0.007680243,0.195824,-0.054323368,0.00041314182,-0.016214203,-0.021552231,0.09945215,-0.07252787,0.051567912,0.1231059,0.060962975,-0.047799107,-0.047766123,-0.06485947,-0.045181118,-0.04245811,0.060941737,-0.053818002,-0.05158205,0.07886543,-0.00930062,0.039088756,0.07724571,-0.16101037,-0.029883444,-0.058791652,-0.045289546,0.15287627,-0.06179454,0.023244394,0.055665355,0.087973215,0.085621156,-0.005239934,-0.007708278
0.035185795,0.03279337,0.021931373,-0.034115173,0.06700766,-0.1268041,-0.07356204,0.009846561,0.08005748,0.0067837513,0.053441953,0.106360346,0.08095801,0.05046237,0.028002277,-0.0019981472,-0.004622275,-0.044676993,0.04544582,0.08834474,-0.10270716,-0.08539593,0.107284255,0.0022240956,-0.014250915,-0.07201899,-0.06736067,0.07705853,-0.043233424,-0.09746688,0.022775497,-0.1119277,-0.06354175,-0.0980669,-0.016480152,-0.036018405,-0.07684121,-0.025676955,-0.02075801,-0.015281335,-0.07332962,-0.0154626975,0.013938374,-0.048429977,0.060756713,-0.044809196,0.04189609,-0.072840735,-0.14047717,0.13669692,-0.11797603,0.022126049,0.08421643,0.013841609,0.1090641,-0.099381305,-0.0011874266,-0.016205588,0.043128707,-0.02629305,-0.073816866,0.013051016,0.09204693,-0.07006148,0.015413122,0.08562005,-0.030013377,-0.0457137,0.07399182,-0.046781775,-0.059618305,-0.07976078,0.04778097,0.05761458,-0.082946576,0.07131275,0.1958912,0.2087626,-0.026549824,-0.0103789745,-0.016292462,0.047450177,-0.112084456,-0.019211594,-0.046551246,0.008220591,0.015242104,-0.02659721,0.04703736,-0.03471838,-0.027627042,0.021287961,0.019937748,-0.04905031,0.04409117,0.055459872,-0.009521496,-0.0015543082,-0.07933863,0.04540168,-0.09206301,0.0019389573,0.01466613,0.011382215,0.15011957,0.040459644,-0.08238041,0.0369222,-0.04248408,0.006823056,0.061780095,0.0035468517,-0.015018604,0.040987976,-0.12710129,0.030218743,0.06505851,0.09688286,0.09923104,0.035863616,-0.016840884,0.10882448,0.1023418,0.0011930917,-0.1343186,-0.0313479,-0.090075456,0.10698831
0.13968824,0.03922977,0.045170352,-0.07118715,-0.11261309,-0.058244504,-0.110021725,0.17595585,0.071318485,0.08565151,0.1414845,-0.017849782,-0.085075,-0.02325505,0.14292766,0.16518144,-0.18782228,-0.019121312,-0.0045942646,0.016862713,-0.11384169,0.015916605,0.06529086,0.035359062,0.056985494,-0.14897898,0.011724829,0.036321342,0.05695788,-0.034368366,-0.08130608,0.07276658,-0.02172511,0.04775178,-0.07890072,0.0783922,0.028136794,0.06862234,-0.117426924,-0.006446399,-0.021822685,0.09489866,0.036900874,0.15730649,-0.04945595,0.14376989,-0.0037937423,0.031458553,-0.06589715,-0.009478559,-0.04014346,0.08584155,0.03961065,-0.05191667,0.13215548,-0.041588135,-0.15034012,-0.014570866,0.10119037,0.03640869,-0.04184135,0.080301076,-0.020285083,0.13367353,0.029753024,0.0029592405,0.038241804,0.0062577426,0.1459657,-0.20471083,0.019983549,0.05769778,-0.121805236,-0.009504188,-0.111311585,-0.103395075,-0.02265295,0.025615552,0.024585873,-0.018915964,-0.10576075,0.019077096,-0.030493408,-0.037226852,0.056104403,-0.014213148,-0.15961523,0.1539783,-0.17501928,0.06874947,-0.00710546,-0.042122893,-0.030841984,0.042436585,0.022841996,0.0032340162,-0.032371808,-0.2231334,0.03557043,0.1543463,-0.048178963,-0.08219431,0.06579096,-0.0072090407,0.017996345,-0.084999695,-0.13465507,-0.1695734,0.15799943,0.04835529,-0.054330166,0.06436655,0.0025314898,0.04075647,0.12066224,-0.018107884,-0.24750586,-0.042843927,0.016144179,0.015342969,0.027832665,-0.09625244,0.0044490187,0.057357345,0.08427672,0.043739088,-0.07564463,-0.045384783
0.074861065,0.1408312,0.018006416,-0.077763505,0.03692763,0.026284743,0.024958525,0.042962845,0.023662137,-0.015901474,-0.0085478015,0.020454383,0.110200554,0.033676453,0.03223915,-0.13686846,0.034543846,-0.013609404,-0.06942911,0.077154756,0.049573287,0.014982287,0.11340174,-0.026842166,0.028962066,-0.028637081,0.015722465,0.053578276,0.052437097,-0.05613445,0.08120351,-0.09832848,-0.0680999,-0.012050552,-0.044722084,-0.1227935,0.17167206,-0.028313885,0.22456463,-0.015989074,0.124617144,0.058944713,0.030339528,-0.14975427,-0.13055164,0.024283284,-0.20938581,-0.0027328127,-0.025949499,0.08480438,0.070002876,0.0027381452,0.09317583,0.017264958,0.084126025,-0.039704174,-0.04210578,-0.0034041347,0.052093126,-0.038347088,0.076967776,0.06521506,-0.0131346015,0.07681584,-0.049555235,-0.15452245,0.0109166205,-0.048307978,-0.08401079,-0.06697826,-0.082606934,0.14744131,0.14257973,-0.05577775,0.08133482,-0.012262491,0.04414996,0.048690196,0.012590832,-0.036992453,-0.19138752,0.12135539,0.0052551823,0.014362704,0.062177703,-0.006325391,0.06725541,-0.035496823,0.027875094,-0.07583264,0.03837562,0.002042371,-0.073889025,-0.03273569,-0.08128705,0.10465655,-0.0024162598,0.05962108,-0.089704,0.02084623,0.007231108,-0.01532763,-0.07040633,0.008858623,-0.017451854,-0.008583478,-0.033762675,-0.1212646,0.029499315,0.016744133,0.006185622,-0.05132542,-0.07861738,0.0011277033,-0.046774637,0.0015930277,0.06966107,-0.023341294,0.07863822,0.037419274,-0.060241055,-0.04368671,-0.022604689,-0.009408971,0.09459178,0.16441078,-0.02975061,-0.15763736
-0.005186793,0.052018642,-0.057341438,0.036182683,-0.13445786,-0.056427352,0.051734176,0.01665209,0.01757837,0.06830211,0.04966674,-0.0011031632,-0.051866725,0.11448311,-0.08613296,0.058365732,0.039211188,-0.06857338,-0.0038381547,-0.04610229,0.012313052,-0.037098303,0.041694622,0.020834344,0.021973759,-0.22743441,-0.16118848,-0.1015645,-0.040123373,-0.06070348,0.0616158,0.023700176,0.047878493,0.018844377,0.018639678,-0.043276675,0.1517326,0.011199436,0.0025361378,-0.073458195,0.02540896,-0.16943139,-0.07889501,-0.03150822,0.0065221647,-0.02372996,0.05963432,0.106040135,-0.0795603,0.04176296,0.038425703,0.11540827,-0.0016910295,-0.0982047,0.00016980326,-0.024469195,-1.8541454e-05,-0.0901413,-0.04769085,-0.044123814,-0.03552381,-0.015347381,-0.03476941,-0.033844203,-0.010208738,0.031854343,0.08650983,0.07688197,0.053189445,0.07224066,-0.109024584,-0.059489854,0.08811382,-0.019217843,0.057443004,0.02815803,-0.098706484,-0.0008493244,0.0031139737,0.0131879235,-0.022054575,0.004149832,0.053438596,0.075829595,0.010250879,0.06597703,-0.18055321,-0.026826173,-0.04667992,0.022292996,0.0013167234,0.12427834,0.096335076,0.0188423,0.004690426,-0.02193495,0.02640074,0.06632225,0.117623374,0.021572895,0.07657831,-0.081255324,0.010468519,0.027739082,-0.041129254,0.07448321,-0.01022506,-0.08597041,-0.034120526,0.05052701,-0.0041029095,-0.006867692,-0.32772785,0.0876911,-0.0173094,0.06493064,-0.16358107,0.1162183,-0.052833572,-0.018665731,0.03949453,-0.03979986,0.034106523,0.044426575,-0.14416656,0.019694798,-0.037228633,0.29856294
0.04563374,0.0679572,-0.040869426,0.08660641,0.048185654,0.1154473,-0.16430217,-0.039921626,0.066067405,-0.066381,0.060593486,0.08098791,0.10516815,0.074723035,0.078336395,-0.03583595,-0.047219314,-0.017892467,0.058314137,-0.060168725,0.07533094,0.1944249,-0.02332981,0.04273152,0.095643,0.04893483,-0.05467291,0.058521863,0.032830805,-0.12825425,0.13293557,0.041647203,0.092642926,-0.05652482,0.101395294,0.20542012,-0.105036736,0.0069591654,0.029199973,-0.085645124,0.043429572,-0.06870611,-0.03645194,0.06762643,-0.03067828,-0.045104865,0.01332776,-0.08018512,0.0799937,0.037516102,-0.014790818,-0.027266644,0.076607354,-0.012817253,0.01019936,-0.083115704,-0.08221555,-0.1450109,0.144709,0.045712173,0.02839372,-0.020695766,-0.06434197,-0.007025323,0.022690918,0.0042776996,0.0975347,0.07251864,0.05176836,0.16656008,-0.06312514,-0.14536269,0.0056412956,0.013663362,-0.2014701,-0.13429178,0.11476026,0.12154702,-0.051884126,-0.057547756,0.078639574,-0.06348931,0.016522307,-0.04333777,0.009236092,0.10806896,-0.15204802,0.07845869,0.18596952,0.00040865014,0.0064108027,-0.017437935,0.08810248,-0.07389773,-0.034442786,0.10761467,-0.15532237,0.07701038,-0.00089307816,-0.0852639,0.039209392,-0.092541106,-0.021448618,0.04959084,0.12077459,0.07103867,-0.08112466,-0.024697984,0.099543676,0.01649985,0.009875443,-0.029242042,-0.01237435,-0.12442172,-0.05959219,0.046449758,0.034468267,0.026156114,-0.0038806614,-0.053342734,0.09225225,-0.024683991,-0.051163077,0.07631183,-0.05728614,0.049558826,0.07334909,0.06775527
-0.016980471,-0.086229116,0.021553816,-0.06763531,0.037471958,0.067224875,-0.008986814,0.07277115,-0.03969658,-0.06552352,0.18488349,0.07041937,-0.046230163,-0.043015365,0.056484673,0.05332367,0.009214681,0.051548816,0.05027638,-0.031684518,-0.0037974466,-0.10380341,-0.090131834,-0.059610143,0.01931483,-0.031123096,-0.056548547,-0.1002007,0.118568055,-0.121868186,0.06442969,0.16366245,-0.06969884,0.048053127,-0.117890224,-0.012410467,-0.048771884,-0.050277274,0.10131372,-0.06686632,-0.09398258,0.13939683,0.032839265,-0.10801013,0.089261286,-0.11708233,-0.070042506,-0.16434652,-0.021923583,-0.01825412,-0.043373812,0.049490325,0.006194215,0.02446361,0.1971226,0.020443331,-0.09294128,-0.08091222,-0.057252117,0.12224068,0.028611103,0.047974598,-0.058153395,0.07222642,0.008537343,-0.1264312,0.055149324,0.017316287,-0.21158649,0.14630625,-0.018554933,-0.11186439,-0.009752125,-0.010371112,0.031082869,-0.08864306,-0.13381942,0.04643814,0.10615637,-0.021936,0.04276429,-0.06119818,0.045129433,-0.0177249,0.018503709,0.0061093965,0.058892507,-0.19359468,0.030017912,-0.15068457,0.032421973,0.053096447,0.03963649,-0.10286528,-0.01583054,-0.0039409413,0.28925204,0.0030558337,0.0360605,0.06672626,-0.008056491,-0.09420258,-0.089762986,0.04899735,-0.096760444,0.1488529,0.028212283,-0.08753605,-0.030233137,-0.061050788,-0.16074778,-0.06529598,0.03242255,-0.043025427,0.046146926,-0.043576892,-0.020064797,-0.15872511,0.098555475,-0.14653961,-0.034924395,0.06472041,-0.029939791,-0.04713503,0.032095272,-0.06621885,0.09254132,-0.01155483
0.09330881,0.082325384,0.040370144,-0.110242136,-0.06809214,-0.00069422234,-0.05069196,-0.023937669,-0.10319739,-0.00055983674,0.038488757,-0.03810615,-0.12700056,0.040911343,0.10442577,0.097104765,0.17364818,-0.13765438,0.024911487,-0.0863126,-0.16244829,-0.06796125,-0.11677883,0.07753984,-0.031730127,0.13370967,-0.08425266,-0.010169242,-0.14942713,0.19001529,-0.0058718254,6.684979e-05,-0.015481257,-0.18037815,-0.06790686,0.09227812,0.077822044,0.066950805,-0.072325476,-0.01209609,-0.06478402,0.019541768,0.06188972,-0.17797229,-0.08832918,0.11574996,-0.09056485,0.035594605,-0.107525215,0.025127541,0.037266515,0.050017882,-0.0004780543,0.08810038,0.18713637,-0.01229438,0.03061651,-0.13288994,0.09814436,-0.005999179,0.10290356,-0.054625254,-0.11296476,-0.032338455,0.026778232,0.055233058,-0.034191463,-0.0727171,0.08418996,-0.0032647036,-0.17807609,0.112091325,0.050634768,-0.018199736,0.15913028,-0.02750184,0.026601411,0.08422462,-0.10455589,-0.07395622,0.14887153,0.05926099,-0.09512037,0.083452255,-0.017112218,0.027711181,-0.031526916,0.055377543,-0.017922027,0.021534435,0.064313196,-0.069388516,-0.09507522,0.053447083,0.05285371,0.020928856,-0.021306666,0.016813984,0.10578058,-0.046635896,0.09032799,0.005288982,0.046384227,0.048269283,0.07098926,0.034681395,0.04785032,0.009879849,-0.083173744,0.04961044,0.034048844,-0.020469768,-0.07989508,-0.028263578,-0.1873544,0.06201529,0.07631746,-0.07881125,-0.22594051,0.103409685,0.05820869,-0.17242315,-0.011811504,-0.08352912,-0.14531797,-0.015708636,-0.13238025,-0.06612325
0.0033853573,-0.020470906,-0.067955226,0.013755041,-0.028570823,-0.169987,0.17057534,-0.097661965,-0.012475803,0.08245794,0.107720785,0.05092111,0.012881388,0.034607075,0.04710195,0.37615123,-0.040512502,0.13520941,0.10321427,0.013049887,0.015038421,-0.073449396,0.008595735,0.05081077,-0.045899857,0.054023635,0.07746429,-0.10112029,0.076313555,0.051747557,0.09626683,-0.008804164,0.037843887,-0.11485034,0.04707374,-0.011483062,0.05642976,0.024840953,-0.040643267,-0.062970154,-0.036075823,0.16585122,0.07896608,0.009286834,-0.10554666,0.018279878,0.013671948,-0.07664943,0.09009085,0.03467396,-0.052506365,0.043852855,-0.033276048,-0.2110163,-0.063055135,0.041380353,-0.04669278,-0.010093234,0.024890985,0.09494269,-0.05575237,-0.050136797,-0.041568242,-0.10546126,-0.07858669,-0.061722677,0.04469971,-0.047144424,-0.09255584,-0.029403728,0.15523945,0.13875353,0.0064035235,0.0049879747,-0.05167442,0.08032879,0.06012842,0.0077468366,-0.12654577,-0.024759833,0.07141321,-0.054991554,-0.039504644,-0.09151015,0.026153957,0.018220587,0.031418055,0.0106920125,0.07522891,-0.08788959,-0.019705195,-0.031444892,-0.050785843,0.011204309,0.13012162,0.043566376,-0.036118552,-0.026151117,0.07235239,-0.10918573,-0.06487166,-0.020701386,-0.24746686,0.014193902,-0.020779608,0.13178298,-0.032567874,0.0023518316,0.06917736,-0.019388912,0.04917638,0.054165516,-0.08067474,0.1617356,-0.088320576,0.028913962,-0.059293646,-0.009177968,0.0513486,-0.099750884,-0.086694345,0.11430604,0.021888012,0.00076285057,0.089220665,0.100062855,0.0139549095,-0.03106784
0.12289042,0.032690655,-0.005072397,0.049004536,-0.009915368,0.12150563,0.004113941,0.023196107,-0.0017105099,-0.020347849,-0.0797996,-0.057582654,0.0040572,-0.06905531,-0.15021469,0.09651668,0.013574295,0.0467805,-0.0153889395,-0.010568008,0.0383938,0.03901552,-0.15913911,0.0678762,0.008948821,-0.08659166,0.09635745,0.050651025,-0.019476466,0.11020308,-0.065859556,-0.07925715,-0.015822915,0.09149717,-0.039656624,-0.018799325,-0.05078906,-0.09316897,-0.057560377,0.007036069,0.030679954,-0.022843577,-0.03811753,-0.027054265,-0.062055606,-0.016862636,0.025291346,0.12741007,-0.024035823,0.056017376,0.033528354,-0.023259602,0.0745852,-0.086903505,-0.013914198,-0.0067121163,0.037482727,-0.012754592,0.0108849825,0.15012494,-0.050662275,-0.041841444,-0.064700685,-0.047817178,-0.008487756,-0.057171375,-0.007554782,-0.09179395,0.032364734,-0.035945773,0.024583902,0.040090192,0.08375764,0.08066036,-0.14778075,-0.0051157195,0.050907712,0.048353847,0.022820333,-0.008068794,-0.04272311,-0.019297762,0.08435078,-0.02297849,0.11258997,-0.024654178,0.026884707,-0.12683009,-0.06050871,0.18625492,-0.034065127,-0.09487417,0.22593687,-0.018930746,0.0720759,-0.050736368,0.09272352,0.087183416,-0.072766796,0.019029222,-0.024945768,-0.04785897,-0.13697189,-0.016922522,-0.024000734,0.030673185,-0.025056833,0.017100736,-0.07604989,0.08161379,-0.10801156,0.121000186,0.087979175,-0.012164959,-0.055997368,-0.035426583,0.067150734,0.010523266,-0.062214963,0.097632796,-0.037002314,0.123448804,0.011070665,-0.06723364,0.11119194,-0.06659316,0.15424238,-0.044952158
-0.022487884,0.13061109,-0.040032394,-0.08500181,0.042290542,-0.0025874693,0.17435925,0.08231697,0.041186046,0.07717604,0.06496248,0.07955596,-0.04618497,0.033801597,-0.039172955,-0.0804784,0.02089212,0.0737873,-0.12339712,-0.057782985,0.15969937,0.05810979,0.038714785,0.027382648,0.0037677025,0.03490618,-0.07087706,0.03715103,-0.08977873,0.048762612,0.023077177,0.13844086,0.03311792,-0.05996844,0.038826574,0.10427791,-0.0923661,-0.067838795,0.10153569,0.089601904,0.06476273,0.033792485,0.032264914,-0.046463985,0.10400712,0.034037635,0.012268353,-0.011878769,0.049331065,0.0024061948,-0.0781756,-0.0045495518,-0.073767655,-0.059291642,0.040338714,0.12284371,-0.058627423,-0.012336656,0.1354823,0.0021637408,-0.04154459,-0.0629505,-0.017852504,-0.16350347,-0.16345035,-0.122499436,0.059673756,-0.040130425,0.079170376,-0.16197024,0.020436289,-0.16348363,-0.16551651,-0.051487718,0.004635575,0.034582242,-0.029929796,-0.0913077,-0.0810183,0.017042344,-0.05289713,-0.01827478,-0.014311902,-0.07864682,-0.016983746,-0.041097797,-0.0010272455,0.0090015195,-0.012044071,-0.09793215,-0.041681163,-0.0755429,-0.0997398,-0.008682738,-0.09398538,0.004563187,0.013440885,0.047834706,0.020114101,0.012191718,0.018154295,0.1269739,0.0008339559,-0.12749185,0.056345943,0.040957596,0.052865442,0.07354405,-0.026789822,-0.023027256,-0.0010250877,0.067470446,-0.028658174,0.077149846,0.014517283,0.04777609,-0.07927411,-0.01667801,0.012067101,0.07092606,-0.063875794,0.03426706,-0.042507827,-0.06768775,0.06610309,-0.0571463,0.09703882,0.02193249
0.22947815,-0.13819815,0.023964316,-0.048831582,0.08073752,0.123479754,0.014559249,-0.09580599,-0.014286805,0.14047244,-0.014343698,0.041336484,0.0616539,-0.030731453,-0.15282287,0.02893996,0.027052708,0.051916745,-0.055371873,-0.03132954,-0.046025682,0.08274864,0.056892157,-0.015894493,-0.117079735,-0.13152002,0.15519756,0.051323764,-0.10827579,0.1115972,0.19892082,-0.021786826,-0.0010721162,-0.09740453,0.09653558,0.056765303,-0.01342585,-0.034849856,-0.049237452,-0.024616988,0.075425334,0.028719334,0.08664998,0.10915371,0.01965593,0.038133893,-0.0898285,0.08286729,0.06389523,-0.002039081,0.102441005,-0.05180801,0.07354416,-0.05995264,0.026629604,-0.08054899,-0.055355944,0.028660027,0.06565724,-0.10774405,-0.000537472,-0.018866235,0.025014943,-0.06375148,0.046424393,-0.0614653,-0.049123418,-0.19036892,-0.003355768,0.055414516,0.030051963,0.008323522,-0.102110125,-0.019567296,0.06528005,-0.0050504864,-0.19884889,0.0661028,0.018229173,-0.016492872,0.12020706,-0.041518215,0.24524942,-0.0072597326,-0.019397236,0.033983957,-0.11667256,-0.08849943,-0.0029723756,-0.272573,-0.07273183,0.039618593,5.097659e-07,-0.062721856,0.031635012,-0.01440025,-0.017719023,0.0014960335,0.092079505,0.079469256,-0.10037047,0.062066175,-0.042207737,-0.054403532,0.012880466,-0.017091377,0.026692457,-0.04124049,0.020872744,-0.0039126347,0.0021191603,0.0366742,-0.044065267,0.0009031698,0.025079379,-0.1488611,0.0033339306,-0.068614684,-0.11289301,0.01740476,0.014918218,0.011739407,-0.069816135,-0.1696962,-0.104288645,-0.020306883,0.023310088,-0.047270957
0.0039244927,0.0040053367,0.035451002,-0.027401168,0.046864856,-0.10853505,0.07546104,-0.04698228,0.0022280153,0.019124879,0.0047885324,-0.06798478,0.17547674,0.0009472971,-0.06977006,-0.053359568,-0.074294195,-0.02626079,-0.044913314,-0.047355644,0.0069434205,0.05740385,0.028636014,0.079437986,0.024246814,0.005376262,0.040236678,0.0076564085,-0.04542376,0.16958684,-0.10396261,-0.013867138,0.00063884066,-0.11817217,-0.0018071055,0.0014278155,0.053415496,0.09429091,-0.059674397,0.01869855,-0.075207666,0.02967826,0.050227217,-0.0010837169,0.07537274,-0.02333872,0.058748756,-0.006552165,-0.012029152,-0.15760842,-0.050832193,-0.099272534,-0.041697178,0.10901378,-0.100293875,0.08638232,-0.008350274,-0.025763296,-0.16589285,0.04743648,-0.07876565,0.0629929,-0.027509904,-0.011941429,-0.05589464,-0.057386003,0.033502825,-0.0075306124,-0.105011344,-0.026806105,0.06114964,-0.13123462,0.047488786,0.11694444,-0.043404575,-0.07548421,-0.08848956,-0.011153781,0.036693633,-0.05294188,-0.040766478,0.0686633,-0.07579557,-0.06546655,0.1069225,-0.13622035,-0.04932247,0.029008718,0.09116375,-0.118808545,0.05208085,0.051751822,0.05754505,-0.021578962,0.12901117,-0.00022790056,0.058876902,-0.06428894,-0.00065758754,-0.10393616,0.10498101,0.046606302,-0.016827976,-0.039987028,-0.065529086,-0.016214037,0.12291382,-0.0014430189,0.048751116,0.0009829936,-0.0698921,-0.13303803,0.077670336,0.008983796,-0.014184203,-0.09194287,-0.010055735,0.098344326,0.10947747,-0.038007922,-0.050832372,0.03291077,0.17005089,0.008195234,-0.08427685,0.023703959,-0.026151685,0.13702291
-0.05092956,-0.14546292,-0.018473407,0.050960958,0.043507572,-0.199944,-0.022639774,0.008127634,0.096436724,0.07215294,-0.08159658,-0.043060847,-0.06723404,-0.008506778,-0.05940372,0.015524911,-0.21761161,0.06204657,-0.04665392,-0.14067893,0.056848638,0.18215841,-0.009885482,0.0045774984,0.0011729352,-0.010310268,-0.015490886,-0.04177394,0.028873466,-0.03699285,-0.17539763,-0.077544324,-0.02357733,0.09300268,-0.054259535,0.12526864,0.1029116,0.047835812,-0.05354193,-0.06619288,-0.026651636,-0.036103178,-0.054849897,-0.05794116,-0.059787773,-0.118584625,0.013641008,-0.09469477,0.08979868,-0.010261163,-0.09788714,-0.08860544,0.07759626,0.022008799,0.075130515,0.095072865,0.04489529,-0.07559204,0.07556604,-0.014766027,0.15008233,-0.05168742,-0.068414256,0.07197128,-0.03410185,0.012428223,-0.078046724,-0.13288781,0.19811179,0.1612053,-0.10070957,-0.018074712,-0.1382272,0.10035821,0.18671288,-0.021997185,0.095409356,0.08249853,-0.04238727,-0.031400513,-0.08089401,0.045151222,0.15187857,-0.058449566,-0.0077848947,0.043285333,-0.1202616,-0.08872259,-0.07259336,-0.009767985,0.011325662,-0.037785344,0.03635084,0.10765211,-0.012359337,0.07375547,0.08349734,-0.006058261,-0.048376873,0.08102159,-0.048725,-0.02727944,-0.018916113,0.12542598,0.10507544,0.05847916,0.077735,0.11399314,0.0062190443,-0.020317424,-0.024743157,-0.0017130496,0.047046658,-0.12651466,0.019308712,-0.057778794,-0.12284097,-0.0094240885,0.2046997,0.11505399,-0.032597274,-0.19403784,0.114230305,0.016923917,0.0067685265,0.052651353,-0.08278399,-0.012205343
0.09841221,-0.067937315,0.01773296,-0.0011171298,0.040511955,0.021526087,0.05791883,-0.0066141505,0.0017886522,-0.020550005,-0.031938657,-0.028450973,-0.13182531,0.02624599,0.07219361,0.020290682,-0.029162437,0.012646214,-0.050856773,0.0479314,0.0062131854,0.033628505,0.06599177,-0.038839716,-0.01283956,-0.083714575,0.06110991,0.007302648,-0.15680541,0.0917269,0.003862367,0.03563427,-0.017169004,-0.04077938,0.014830617,-0.08211103,-0.028231777,0.07106102,0.02909446,-0.0386034,-0.14205465,0.0050635175,-0.05108515,0.05376635,0.08737724,0.10596267,0.0026262063,-0.17170627,0.11402566,-0.039477907,0.14466393,-0.07145362,0.06967968,0.048762843,-0.17059651,-0.11304951,0.007252557,-0.08588142,-0.0008860623,-0.047278523,0.0008015098,0.034834802,-0.11606441,-0.018937645,0.08867554,0.03760318,-0.033164907,0.18415576,-0.037643272,-0.1650854,-0.018668788,0.07157167,0.0836829,0.029396754,0.007509473,0.043447718,-0.087029606,0.073752485,-0.011262699,0.030056234,-0.11607652,-0.08696384,0.035095047,-0.14804061,0.0610057,0.15388493,0.06976341,-0.0061254287,-0.09161745,0.059173245,0.07757246,-0.065316595,-0.039432283,-0.066779844,-0.08329799,0.08726353,-0.098548844,0.08448141,0.037346095,-0.06539654,0.08527717,0.096202314,-0.056469917,-0.0233728,-0.024486883,-0.08780516,-0.032278977,0.011249147,0.14308462,0.004311765,0.048140116,0.01682021,0.089657426,0.046364482,0.17762782,0.072533615,0.15208316,-0.12389481,0.09384928,-0.08959588,0.014634524,0.006380879,-0.021155449,0.0041311155,0.059093155,0.04983683,-0.0062080286,0.033587348
-0.03865327,-0.13716039,0.07139123,-0.041971117,0.07281948,0.12696029,-0.03069277,-0.08817862,0.018605813,-0.04902675,0.02713705,-0.023104867,0.09182024,0.031479757,-0.022762282,0.037161645,0.083895184,-0.08108405,0.01340896,-0.029570613,-0.027780833,-0.0429476,-0.015146517,0.019794643,-0.04282533,0.051687386,0.018458216,-0.014980552,0.042863738,-0.14258492,-0.25275654,0.11761302,0.008086192,0.116168424,0.0049489993,0.050886743,-0.009941996,-0.047637817,0.030408137,0.084163584,0.059347928,-0.11404,-0.008087686,0.047588743,0.04489947,-0.17072241,0.12302885,0.078261204,-0.016574029,0.012746143,0.09315854,0.04504476,0.091626145,0.03339151,0.0048346953,-0.09553337,0.16287836,-0.0072338195,-0.03310628,0.054979403,-0.09827489,0.069917135,0.010457768,-0.057762124,0.019930162,-0.09847605,-0.035598755,0.16118723,0.1374673,-0.0985207,-0.019380039,0.17630239,-0.10967838,0.03337358,0.08131584,0.02770346,-0.11207466,-0.06374801,-0.1692949,-0.032406107,-0.055611037,0.096405864,-0.03246606,-0.0875749,0.08704583,0.026693083,-0.113146685,0.036417898,0.022614762,0.10461655,0.003988182,-0.013202563,-0.03200711,-0.089663915,-0.0068944343,-0.020656861,0.103164814,0.031460498,-0.0012171994,-0.029475223,0.0841144,0.054579936,-0.055588588,-0.025103815,-0.0002404934,0.07223303,-0.08438233,-0.14422588,-0.06601639,-0.027385749,0.060502023,-0.023634385,0.022601083,0.05734885,0.01607253,-0.016116759,-0.034399327,0.048546962,-0.09196964,0.03936401,0.029609721,-0.0011101054,-0.023795815,-0.033552133,0.06673188,0.0035362213,-0.011775855,-0.14657001
0.050934378,0.06587342,0.04659699,-0.05284679,0.03585285,0.081586815,0.00013942797,-0.09237653,-0.12979345,-0.15953454,-0.05066642,0.01147102,-0.07894165,-0.12972578,0.028168658,0.05364327,0.017021138,-0.07967301,-0.013136932,0.03391385,-0.04841507,-0.0057508047,0.037811853,-0.040862054,-0.02814871,0.023437647,-0.023904292,-0.1054407,-0.06577607,-0.21288186,-0.0020961682,-0.12550624,0.08071822,-0.0011811282,-0.01847479,0.03380529,-0.03287297,-0.0662639,-0.12073268,-0.00020535549,0.07950339,0.08669777,-0.0670207,-0.033638716,0.030991644,0.05442748,-0.12801953,-0.07135178,0.018621804,-0.031472743,0.05495551,0.07936136,0.103278294,0.031992953,0.025351185,0.0027616208,0.043383837,0.08686175,-0.14845751,-0.099802166,0.16864523,-0.050131653,-0.042323347,0.008630741,-0.15692772,0.067032695,-0.053130355,-0.026579244,-0.107573204,0.0059084385,-0.1680741,-0.069267526,0.011725205,-0.027176095,-0.06273654,-0.011626714,0.06110005,0.124471724,-0.1157523,-0.04463132,0.35745436,-0.05157155,-0.058963608,-0.008787177,-0.089526296,-0.1643241,0.046199985,-0.0074579855,0.009251165,0.005778086,0.014793296,0.004183216,0.07704516,0.07673565,-0.027227396,-0.05959542,0.053015143,-0.0017891304,0.09399096,0.04273834,-0.0017314691,-0.027407058,-0.084726825,-0.076104246,0.027135942,0.016968356,0.094946496,-0.059413202,0.051272437,-0.0011371576,0.187723,-0.05917269,0.12933503,0.014398263,0.037968356,-0.05698875,-0.19253132,0.033818483,0.011953112,-0.029258054,-0.039931145,-0.0577624,0.023405027,-0.07559418,0.13553439,0.042192,-0.021235313,0.13111511
0.036806766,-0.07659473,-0.01163292,0.06143639,0.0113614295,0.013562153,0.17545347,0.10298023,-0.045480706,0.05072072,-0.009731521,0.039526295,-0.03603921,0.09804241,-0.109835684,-0.07477323,0.062199567,-0.01422427,0.002468703,-0.057908908,0.003949051,0.016265634,0.006138272,-0.038035534,-0.055911437,0.083186045,0.08465706,0.10674011,-0.046095926,0.006740917,-0.12301361,0.089108326,0.0005029509,0.03306628,-0.11468102,0.004573436,0.014358083,0.0064015235,-0.07743909,0.019915756,-0.07305075,0.018780006,-0.017632501,-0.043449007,0.034416616,0.0636523,0.09760195,0.07671412,0.015576641,0.019175785,0.04386024,-0.20975773,0.17543547,0.016695634,-0.14398557,0.051128145,-0.043887854,0.02971543,0.083446264,-0.10283737,-0.05466167,-0.013174494,0.0546921,0.010358398,-0.05420855,-0.065370716,0.06697922,0.05775671,0.10770819,0.027602721,0.02964998,-0.061271265,-0.06530469,-0.044212554,0.016081313,-0.0027951186,-0.010020249,0.0784443,0.111053765,0.069798306,0.19118294,-0.014556113,-0.060248204,-0.04954906,-0.09503899,-0.017010693,-0.075478196,-0.06963033,0.1227372,0.21472196,0.036518525,0.043730944,-0.1188635,0.01961841,0.0934163,0.07560772,-0.11570927,0.13273601,-0.005187255,-0.07157965,0.08399952,-0.07367569,-0.16847076,-0.11317374,-0.06189605,0.09492522,-0.019387929,0.012409504,0.099836655,0.043512516,0.03592948,0.03013547,0.13885354,0.14351721,-0.017315686,-0.18011042,-0.18038622,-0.14389896,-0.019418508,-0.09342987,-0.12041859,0.038458496,0.058554992,-0.079674765,0.17033382,-0.09577291,-0.100095,0.0681406
