-0.10687575,0.16715989,0.011117391,-0.09411837,0.0046959966,0.03483921,0.100296386,0.08801555,-0.078235544,-0.09994267,-0.031023463,0.02470987,0.05951491,0.01971491,-0.03952245,0.12210169,-0.030043343,-0.0853845,0.032396145,-0.06355312,0.019978346,-0.025698446,-0.009684622,0.031602748,-0.18847707,-0.06272027,-0.09033955,0.009622327,0.024382234,0.013004493,0.008889344,-0.05392302,0.072133705,0.08559545,0.055798214,0.010384033,0.019721346,-0.0063809813,0.09541817,-0.03172013,0.023310363,-0.014800761,-0.015495832,-0.03440193,-0.03925265,0.054061655,0.10632409,-0.11622775,0.015951853,0.1059438,0.0517563,0.07103305,0.002557447,0.031032315,0.10618828,-0.020038811,-0.04049543,-0.042064153,-0.00777451,-0.030077063,-0.0025546534,-0.06636067,0.056309097,-0.026301492,0.043851275,0.057671115,-0.009129144,-0.077944145,-0.10902318,-0.045702193,0.022953238,0.05750541,-0.038646057,-0.022850757,-0.062468156,0.011370219,-0.04695736,-0.041009754,-0.0997083,-0.027923184,-0.035025112,-0.109935045,-0.10089119,0.0011844554,-0.085417464,-0.06956709,0.15375322,-0.077295676,-0.0018005534,0.008464083,0.009949727,-0.096505865,0.014159923,-0.05863619,-0.022025896,0.07935291,-0.085947916,0.0294642,-0.046797976,-0.04247465,0.07388828,0.027918443,-0.070503086,-0.00012614566,0.016587649,0.12656866,0.12011662,-0.032321945,0.013290261,0.024125012,0.01129563,0.01074146,-0.079773225,-0.016658504,-0.13876392,0.028767016,-0.11907945,0.07122802,0.012178708,0.037848182,0.060927045,0.044929527,0.04450947,0.051835634,0.09402291,-0.07647845,0.052999403,0.023643395
-0.08778722,-0.006205494,-0.035734903,-0.28274634,0.042031772,0.01219545,-0.03065382,0.14985366,0.05413373,-0.06750866,-0.006158931,0.010613536,0.07407023,-0.014078904,0.0054818764,-0.008805484,0.112318724,0.05720676,-0.08800763,-0.011124686,0.028044742,0.050755285,-0.02987082,0.07615711,-0.016577082,0.008007296,0.028878596,0.00058778765,-0.024246292,0.0098423045,-0.09213642,-0.10667359,-0.05969614,-0.018270016,0.16638356,0.04350215,0.026362654,0.060545728,0.14814757,0.013507726,0.06640595,0.07197354,0.021143124,0.0015652883,0.108417235,-0.055622887,-0.05920941,-0.054266654,-0.05674889,0.007022323,0.14369461,-0.09647754,-0.026593026,-0.057561804,-0.07209217,-0.04747078,-0.06477372,-0.0752634,0.12217056,0.009269724,-0.06384842,-0.025412219,0.0388771,-0.02165013,-0.027497437,-0.0047787344,-0.095904045,-0.06145633,0.053124245,0.08751062,-0.0015046838,-0.0005710096,0.006151103,-0.008150323,-0.0008964131,0.051922034,-0.023426361,-0.07416698,-0.03185946,-0.02020422,0.09444715,0.017507277,0.02190832,-0.013111715,0.011655684,0.07773876,0.035026684,0.073125444,-0.06779719,0.07433171,0.036422003,0.0033997544,-0.040563907,-0.0326736,-0.09109638,0.042975012,0.05164265,0.048953094,0.03798683,-0.13586459,0.03404824,-0.022732317,-0.025456835,-0.0721616,-0.0542864,-0.031200338,0.061438963,-0.1074224,-0.009011946,0.011622341,-0.04038643,-0.16039225,-0.13692345,-0.010032964,0.08316302,-0.055456486,0.03154427,0.006575914,0.091293186,-0.0029487675,0.040139657,-0.014676615,-0.023299936,-0.017034605,0.04401098,0.017806103,-0.053489514,0.05507747
0.018031154,-0.07753012,-0.034129,0.29542658,-0.042062283,0.013039992,0.062368363,-0.04254109,-0.07453754,0.08319895,0.015095344,-0.039328847,-0.0036011476,-0.0076553384,-0.042155303,-0.044322945,0.022145115,0.004179888,-0.029691588,0.012329491,0.01914597,-0.13814302,-0.0043030917,0.09421518,-0.03947649,-0.019816378,0.10084383,0.00721565,0.05471586,0.0444221,-0.06895876,0.1190517,-0.067534044,0.020083258,-0.033697184,-0.0014546771,-0.02438782,0.116554774,0.007925938,0.01457766,0.04326376,-0.091359876,0.06360425,0.03226303,0.093849435,-0.09187857,-0.0071583553,-0.055446535,0.065302484,-0.01773009,0.040243458,0.04150926,0.038680077,-0.08631468,0.009231417,-0.050058905,-0.026048107,-0.040371623,-0.09583659,0.004188709,0.026375448,-0.062455818,0.03779048,-0.08908657,0.026581392,0.02206248,0.0062007834,0.04728973,-0.03130155,0.06123042,-0.050247405,0.05356056,0.036247734,0.12713914,0.009815102,-0.024519054,0.010205601,-0.015573831,0.020706026,-0.035588805,-0.007038273,-0.112749845,-0.03165253,-0.0067838826,-0.07481614,-0.011116829,-0.03962941,-0.073295675,-0.028122839,-0.004988344,-0.030762779,-0.04342467,0.03136212,-0.03270801,-0.014579395,0.092366286,0.01772794,0.11708649,-0.04484731,-0.025271386,2.7442273e-05,0.016611075,-0.032500118,-0.010154419,-0.021048827,-0.011703484,-0.045126908,-0.018509757,-0.040767234,-0.04601891,-0.044499375,-0.04192303,0.1007792,-0.0036355078,0.1032249,-0.022066323,0.050892577,0.02878051,0.0019024009,0.11209266,0.11762351,-0.019353455,0.0032395604,-0.013781664,0.01562346,-0.0076392847,0.0077984426,-0.01649386
-0.027513564,-0.06544713,0.008425594,-0.2521313,-0.04479176,-0.09629021,0.08186139,-0.09332892,-0.07751844,-0.014694622,-0.02914614,0.012504211,-0.0050665033,0.030168956,0.04468461,0.073453404,-0.043726884,-0.0014216641,0.018673722,-0.030583378,0.020172069,0.06270991,0.010368659,-0.022978747,0.01859783,0.09056837,0.02163161,-0.009881343,0.013419532,0.07339212,0.039952897,0.039441515,0.047638886,-0.00031655404,0.019068332,0.0015576561,0.019980868,-0.01745328,0.045047596,-0.01687216,0.048375856,0.013222599,0.047427814,-0.08169544,0.07285023,-0.101548105,-0.07208153,-0.11089666,-0.062289692,0.010473674,0.03180498,-0.0439394,0.0264236,0.0031544894,0.11597035,-0.054773808,-0.0076933387,0.05786097,0.013569715,-0.08064855,0.06239688,0.045784283,0.06292254,0.10706194,0.05972214,-0.06988436,-0.057138886,-0.07742638,0.02311597,0.015020732,-0.0038670073,0.040384352,-0.042466693,0.053650558,-0.041147754,-0.038336296,-0.05848241,0.07201623,0.0033998366,-0.1345065,-0.05060016,-0.09521123,-0.048646986,-0.060654763,-0.019179111,-0.021905819,-0.057924114,0.14642733,0.099907026,0.08358003,0.060554463,-0.03871987,-0.021083279,0.027276667,-0.06907146,-0.009713342,0.055470716,0.09775944,-0.033732094,0.024580749,-0.023386309,-0.021937346,0.02014785,-0.087995134,-0.0064650634,-0.003372357,-0.011342598,0.007212091,-0.047540132,0.047969636,-0.015397456,0.029104074,-0.051728003,0.05315536,0.09585432,0.018617913,-0.018298673,-0.09369289,-0.054074418,0.10478696,-0.01190039,-0.025023937,0.035858635,0.013334363,0.074681155,0.047022365,-0.04258252,-0.0074021826
0.010950318,-0.04446331,0.03554652,0.22617227,0.08886308,-0.04241535,0.029592201,0.08208506,-0.04373355,-0.1570997,0.056309674,-0.16150336,-0.0065298565,0.069576904,0.010363519,-0.05878331,0.08731298,0.07742321,-0.06216594,0.048857596,-0.04416619,0.04427964,0.046229284,0.0002004892,-0.07202136,0.006510734,-0.038333323,-0.040250964,0.0022135016,-0.052197102,0.057748366,-0.02511009,0.09273468,-0.08299803,-0.079087086,0.07943073,-0.05422324,-0.0033960135,-0.012844075,0.018210113,-0.034465842,0.07846243,0.055568162,0.056602623,-0.09563042,-0.04850724,0.027376441,0.018737698,-0.0069422284,0.07047301,-0.07403895,0.0035902085,0.13574404,0.06412881,-0.032252975,-0.020522103,-0.064647324,0.017302217,0.03584076,-0.032281607,-0.071842335,0.017292814,-0.066942,0.022824598,0.02592865,-0.076160595,-0.16489166,0.06297572,0.02045167,-0.13177785,-0.0047243717,0.009812541,-0.006429953,0.10483292,0.048190314,-0.049047023,-0.025816698,-0.0052037267,-0.045491327,0.010863743,0.095314965,0.11584102,0.060990054,-0.0069877882,0.0003946904,-0.08672105,-0.06973105,-0.029680025,-0.021833865,-0.109347165,-0.0012704176,0.05651387,-0.080615446,0.059179395,-0.012306699,0.00055867055,-0.059760336,-0.06051464,0.05189987,-0.09260613,-0.006325331,-0.06776509,0.013733015,-0.030753031,-0.0043881238,0.05352476,0.08342265,-0.047023527,0.04976134,0.073520996,0.010295495,0.017638423,0.1570443,-0.07855162,-0.085709475,-0.11318048,-0.020902753,0.1519881,0.11358536,0.02807736,-0.10731541,0.003485345,-0.099308126,0.025237262,-0.07464011,0.16312559,0.06479096,-0.036466703
0.05214818,0.046990756,0.049809,0.29163858,0.06792981,-0.037315674,0.008760243,0.1545244,-0.029426046,-0.0364994,0.01663288,0.021269247,0.052129444,0.039917532,-0.037586164,0.002624454,-0.032186616,-0.0011037214,-0.049860496,0.036865044,0.03604234,0.025842384,0.062234715,0.04078599,0.036614995,0.014887995,0.00994079,0.0026087377,0.0064338855,0.036458693,-0.043910515,0.064482644,0.012456183,-0.11275806,-0.02939601,0.02063303,-0.12319567,-0.019839153,-0.14073825,-0.033735596,-0.07907777,0.00046626857,-0.04398977,0.071002506,0.058304638,-0.03591925,-0.011667328,-0.12828976,0.07629337,0.013268309,0.04892886,0.08920334,-0.03203549,0.08813159,0.04327357,-0.029411117,-0.04852104,-0.033027846,0.04789047,-0.024337422,-0.05557802,0.064806,-0.07088627,-0.0155973695,-0.003764126,-0.080725424,-0.02663454,-0.08320537,-0.021765184,-0.035652492,-0.010405672,-0.10195838,0.012598028,0.015078219,0.06967696,-0.05288071,0.16065218,0.07517978,0.027006403,0.05349081,0.157872,0.04845986,0.032663465,0.0041375426,-0.015162593,0.07189041,0.05194386,0.018750599,0.06250347,-0.0483654,0.040460445,-0.020428114,-0.048996173,-0.030426797,0.009001618,0.020604042,-0.09879133,-0.08444635,-0.04980671,0.039610695,0.06227228,-0.05230574,0.03962804,0.0113293,-0.029774953,0.030223114,0.020856801,-0.08744525,0.08077665,-0.022460964,0.06952539,-0.02325831,0.10138767,0.08933128,-0.0039108777,0.011485943,-0.028673798,0.01548507,-0.096599735,-0.0007159485,-0.13454902,0.02127786,-0.005858071,-0.13172092,-0.08232521,-0.09200224,0.04206797,0.01057735
0.024197891,-0.023948073,0.04019342,0.28161547,-0.010877905,-0.123501174,-0.0864962,-0.096267365,0.041671045,0.08541505,-0.050867394,-0.08185499,-0.04115721,-0.1128319,0.033890408,-0.07615841,0.12786525,-0.12281144,0.10925432,-0.011137962,0.040178645,-0.0075171753,0.03290041,0.005927158,-0.0056459205,0.045073915,-0.041727353,-0.03829713,-0.028925981,-0.017447358,-0.002476807,0.09432352,0.014364587,-0.050918195,0.03688213,0.04808212,0.052049715,-0.06844611,-0.07610011,-0.15221474,0.032127712,-0.028020633,0.03878697,0.055758227,0.025330879,0.016565079,-0.04651534,0.13009872,-0.09129897,-0.033483304,0.03214285,-0.036926426,0.014213692,0.046548907,0.08641303,0.045728564,0.029426368,-0.017900538,-0.017646248,-0.021101287,-0.12467871,0.019707173,-0.026686601,-0.0789959,0.0379203,0.014908489,-0.0872822,-0.04998239,0.03477799,-0.016031811,0.09333,0.03977146,0.0781869,0.02446973,-0.010882456,-0.12909344,0.0776807,-0.036504265,0.04949543,-0.0037621183,-0.009885529,0.087941535,0.012552342,-0.097740434,-0.111725256,-0.024531601,0.055928502,-0.07596869,0.0023644916,-0.08492083,0.06439484,-0.040603615,0.055112466,0.035802014,-0.07074617,0.024350792,-0.08144001,0.18204063,0.039098542,-0.021079013,-0.027765015,-0.0009171493,-0.05500721,-0.03151676,0.046147868,0.16299446,0.027678436,-0.072762266,0.06441584,-0.024314178,0.030912934,-0.03181406,-0.0020499637,-0.06191566,-0.06836536,0.017083475,-0.010540334,-0.04270686,-0.041679833,-0.023903662,-0.046218794,0.024311569,0.04584221,0.11692051,0.058218583,0.029186884,-0.06139999,-0.055996817
0.04543568,-0.03587111,0.0141833,-0.03252842,0.0010290985,-0.04489827,0.052397445,-0.06940991,0.018764105,-0.020308439,-0.023883887,0.06390026,-0.014337414,0.076413065,-0.056092024,-0.02272683,0.088974096,-0.01709,0.041413378,-0.03558421,0.05000938,0.050366353,-0.17137936,0.087512664,0.05347171,0.041508038,-0.08567068,0.027867086,0.09182806,0.0051677315,0.07906215,-0.04466516,0.050110795,-0.048349246,-0.1037462,0.07947787,-0.07966011,-0.017022416,0.08705557,-0.055071265,0.08700065,0.018341731,-0.06400878,-0.1305493,0.004344033,-0.010749285,0.036119383,-0.1294778,0.014781419,0.056063652,0.07489608,-0.015307555,-0.07712647,-0.14500457,0.0019939085,-0.039445233,-0.04064978,-0.07186923,-0.03276437,0.07205044,-0.024732424,-0.06565019,0.061871793,0.11626055,0.03415588,0.049260955,0.11552357,-0.061700195,-0.06658282,-0.08124278,0.03051024,0.0092782695,-0.0108597325,0.050939057,-0.028361678,-0.10853902,0.06373741,-0.08695015,-0.12716433,-0.01873347,0.057500426,0.03622441,0.10012507,-0.009103578,-0.0011015801,0.111902036,0.072989516,0.048042145,0.06286861,0.13040392,0.041069496,-0.0443181,0.040680297,-0.02165742,-0.010796975,-0.055694126,-0.033746134,0.0669757,0.0073654214,-0.061244763,-0.04480647,-0.010595863,-0.00013187101,-0.03219551,-0.016140629,-0.029679103,0.06322349,0.02223399,-0.07727728,0.001996768,-0.061765417,0.09801179,0.07544452,-0.11530533,0.15379743,-0.005107723,0.031914037,-0.010641562,0.01607294,0.020925758,0.031695362,-0.219333,0.0054326435,0.016285969,0.07570408,-0.028604688,-0.014789921,-0.08111356
-0.019899134,-0.078724906,0.02653031,0.017272942,-0.10228242,-0.03130969,0.045942657,0.048988983,-0.018558927,-0.08648572,-0.005771779,0.023641594,0.053775974,0.02067154,0.019220104,-0.040956166,0.05991236,-0.01637188,0.027011668,0.042283814,-0.04075895,-0.026197685,-0.07688893,-0.119282305,-0.009299159,-0.003306671,0.04034485,-0.026212206,0.028263226,0.023214914,0.030566134,-0.063355096,-0.030334806,0.035464313,-0.023378413,-0.092380516,-0.0007920246,-0.004370178,0.06769805,0.06875461,-0.022217246,0.05822162,-0.13496052,0.020230234,-0.03615289,0.06848046,-0.07421544,-0.017515354,-0.019531399,-0.012188155,0.025685318,0.053946275,-0.04168515,-0.0021152138,0.00071843126,-0.036047664,0.010769932,0.0045884545,-0.017472697,0.051483918,0.0915262,-0.00035573958,0.07339018,-0.09048382,-0.018085485,-0.01795871,0.06935216,0.05105667,0.028881518,0.0041135834,0.008556157,0.012438946,-0.05063194,-0.1575109,0.009071517,0.015453543,-0.020556562,0.09074921,0.02320282,0.1876546,0.16720721,-0.03548313,-0.031398676,0.089508265,-0.020400282,0.044669118,-0.0012011966,0.05264266,-0.11737062,-0.070275925,0.06715309,0.015602838,0.0025517694,0.041953307,-0.004783732,0.006542829,0.07045484,0.06991179,-0.025303608,0.054518547,0.026007509,-0.008637739,0.041356023,0.014201727,0.018271275,-0.026148118,0.0164706,0.059261996,-0.05922311,0.0258987,0.027156647,-0.014401845,0.014671475,-0.07030862,-0.026478674,0.039226696,0.056982994,-0.085489176,-0.026741048,0.026662314,0.0055607357,-0.07278062,-0.0006073789,0.06602792,0.056495976,-0.074410334,0.007297922,-0.013672005
0.029277204,0.033675276,-0.042193156,0.2747101,0.060729183,-0.0021047045,-0.057521448,-0.014242221,-0.13581395,-0.116035014,-0.0037535974,-0.028522419,0.009635035,0.019644799,-0.002033755,0.13677227,0.03447533,0.062162522,-0.063747734,0.048534505,0.024498418,-0.016695464,-0.032099508,-0.053617958,0.051629215,0.021305392,-0.079556614,0.092837036,0.039553702,-0.034595564,-0.0057820017,0.05989486,-0.019108705,0.015829662,0.10570222,-0.13081896,0.018093487,-0.0068539185,-0.04322572,-0.01867921,-0.061565056,-0.033234455,-0.0031674309,0.063908584,-0.07088112,0.052568454,0.059559155,0.011884304,0.016763017,-0.029301422,0.02433101,0.011921727,-0.064411774,0.034408588,-0.0524368,0.009937444,-0.048762333,0.051249504,0.034124576,-0.066155046,0.04038241,-0.09586433,-0.005252812,0.017524445,-0.011613533,-0.09118796,-0.048749857,-0.059292655,-0.15093003,0.07641218,0.046091203,0.09219523,-0.007933928,0.03107604,0.034883983,0.0150626255,0.067918256,-0.08413106,0.12304561,-0.015710996,0.073288254,0.03837577,0.0333122,0.0062882663,-0.04867153,-0.009389376,-0.08985715,0.058227032,-0.026651848,-0.09227777,0.05328423,0.2057934,0.0030315174,-0.048499245,0.07625799,-0.0007482991,0.008656487,0.024296515,0.060624734,-0.0069437074,-0.03866767,-0.0016289293,0.032625843,-0.04645318,-0.015632287,-0.036014497,-0.029771654,-0.0004843484,0.01562965,0.066091515,-0.018774543,0.053923327,0.032453384,-0.013650877,0.04581091,-0.032597028,-0.023180427,-0.054634277,-0.056872793,-0.063752905,-0.09523502,0.034658127,-0.010639374,-0.044675414,-0.09384728,-0.005320117,0.035693992,0.008316341
-0.038925987,-0.07203173,0.0019004788,-0.29554155,-0.121886164,-0.0671905,-0.051193208,0.084342875,-0.0037692008,-0.01749034,0.0020522014,0.015613524,-0.024470609,-0.054966774,0.004754986,-0.05446693,0.076809965,-0.042054325,0.01820065,0.1067321,0.019844918,0.08514443,0.115564264,0.041615214,-0.06229857,-0.07313876,-0.03619521,-0.047532316,-0.043885898,0.007922748,-0.02767988,-0.0615865,0.049629863,-0.03336929,-0.08636466,0.14010891,-0.045599844,-0.01013793,0.07148326,-0.024680207,-0.058458384,0.023128005,-0.04032713,-0.0927247,-0.021114964,0.0643685,-0.016753834,0.06894297,-0.030522466,0.0070834276,0.020183364,0.093071386,-0.028476292,-0.0047277533,0.09263184,0.11059576,-0.001821921,-0.0030879197,-0.056582768,0.014363821,-0.05619884,-0.022757892,0.015949162,-0.063572064,-0.096548684,-0.03262526,0.05794529,0.026575897,0.023296641,-0.03942898,-0.108620346,0.051330965,-0.015920145,0.0010427283,-0.0008951111,-0.061108947,0.00596936,0.03316544,0.010518659,0.05314708,-0.1773806,-0.058046293,0.054162234,0.033367142,-0.018158369,0.06558164,-0.06623108,0.010053539,-0.047305696,0.052521523,0.10271152,0.1280208,0.09438351,-0.023830356,0.011014287,0.000985015,0.08041988,-0.0672935,-0.0012477651,0.08444222,-0.06264217,0.0512972,-0.049926545,0.031532798,0.001983891,0.009181001,0.093464546,-0.05781454,-0.051550902,-0.0222564,-0.033468187,-0.044449393,0.02234281,-0.02835503,0.04094814,0.02586167,-0.023993896,0.07931727,-0.030110855,-0.015145335,-0.016144047,-0.022782741,0.028303586,-0.07247122,0.015024601,0.0853657,0.071706615,-0.075618505
-0.0659219,0.062295727,-0.05152352,0.12645675,-0.08504333,-0.0073086424,0.008926851,0.008865808,-0.057971857,0.101453215,0.02157119,0.006109831,0.0321737,-0.010575469,-0.004821425,-0.060868554,-0.020032564,0.033535853,-0.028450109,-0.022068545,-0.06329945,-0.012541714,-0.070543535,0.03620674,-0.004491797,0.012783915,0.010839998,-0.008674022,0.047479466,0.0016615923,-0.018350257,0.07587077,0.036291454,0.038487557,0.0061449795,0.049117338,-0.0069169537,0.075629696,-0.031121716,0.03813169,0.0577331,-0.075375505,-0.17565243,0.026303494,-0.07143013,-0.03640408,0.056008272,0.038595024,-0.11930394,0.077957,-0.06974551,-0.048619095,-0.010022572,-0.047395445,0.104010984,0.12119578,-0.05625178,-0.059943825,0.068314165,0.041787952,0.08636098,0.007141396,0.039642252,0.04058819,0.025217978,0.019584086,0.08312427,-0.04239901,-0.009431353,0.02912313,-0.025678221,-0.024711631,0.021477707,-0.24998474,0.11321852,-0.07520868,0.030493876,0.018496962,0.014945834,0.09475686,-0.0030467024,-0.054047335,0.048484903,-0.054756902,-0.044401478,0.02552774,-0.000660009,-0.021459317,0.059145905,0.011697818,0.0877904,-0.090452924,-0.05264767,0.04446911,-0.0646219,0.06639566,-0.048453126,-0.024380382,-0.03850874,0.05110989,0.061574686,-0.05716617,-0.03166504,0.091657944,0.077393465,0.12777886,0.033184834,-0.022316426,-0.011601343,0.017934706,-0.017527932,0.012559196,0.06411328,-0.017157964,-0.09932719,-0.06046975,-0.032175105,-0.020838687,0.16065128,-0.051717557,0.027591148,-0.045665003,-0.008550254,-0.049666,0.10803582,0.06066667,0.010337868,-0.03912187
0.011603722,-0.010742207,-0.019368993,-0.2440714,-0.0040272274,0.015830925,-0.018945832,0.024994882,-0.009008794,-0.044292413,-0.055558193,-0.02558534,-0.005951943,-0.029600991,-0.00784367,-0.0514839,0.10190136,-0.015727732,-0.013838081,-0.0763044,0.14486894,-0.0500764,-0.026917672,0.021038348,0.009061487,0.04055785,0.076084234,0.062747516,-0.02691742,0.01884832,-0.02879454,0.025844686,-0.0014613884,-0.02454366,0.06735389,0.043205734,-0.047070846,0.049645234,0.010809113,-0.011682937,-0.0823826,-0.03489612,0.034406677,-0.032831386,0.0456407,-0.11178746,0.037386294,-0.0005908535,-0.014648743,-0.023177272,0.056394942,0.01803769,0.033452414,-0.06231497,0.010768778,0.08628769,0.1060671,-0.042846404,-0.036862083,0.053541247,0.06548587,0.036077056,-0.079988785,0.12506928,0.017762346,-0.004192505,0.013937046,0.0065958486,-0.016483031,-0.05248383,0.049515523,0.026656369,0.0006407702,-0.024403423,0.08667418,-0.10167778,0.083728805,0.0032964067,-0.03493012,-0.07951396,-0.06344417,-0.040115092,0.06536105,-0.14419486,0.039790206,0.0495185,-0.052140523,-0.026801545,-0.005264642,0.062946334,-0.052513156,-0.077139296,-0.01491035,-0.038700487,0.025745723,0.03400332,0.028807467,0.02487129,0.0026550977,-0.12902199,0.0061468217,0.069821775,-0.007897409,-0.029063074,-0.019294305,0.03225382,-0.04017166,0.009581426,-0.015215864,0.044947244,-0.049683128,-0.076102085,-0.013934169,0.04226836,0.036553327,0.053995308,-0.021607636,-0.0018819615,0.0032166953,0.019810354,-0.010104992,0.048200823,-0.07172363,0.08110558,0.07070338,-0.030608421,0.077799104,-0.019023072
0.024905708,-0.08845987,0.039507754,-0.096255966,-0.09052939,0.03961514,0.008612786,0.036578514,0.032873034,-0.0009913101,-0.11610997,-0.02865514,-0.01945108,0.003952924,0.09352375,-0.13409543,-0.077919394,-0.09095141,-0.0027883619,-0.037723288,-0.077346,0.023400895,-0.019395396,-0.010126051,0.016406277,-0.07822949,-0.01477101,0.0054609287,-0.0053894613,-0.049684573,0.0022591338,0.009845349,-0.003092447,0.023091832,0.008811572,-0.04193418,-0.037245825,0.06687746,0.05554193,0.057171978,0.04327386,0.048902642,0.16586307,0.04981812,0.0566889,-0.041753285,6.2143095e-05,-0.06399699,0.049279403,-0.024300652,0.015181244,0.026631866,-0.028333161,0.03232089,0.08004984,-0.05801868,-0.07607212,-0.10479936,-0.02793224,-0.011755084,-0.026934158,0.06732225,-0.0036477195,-0.028934067,-0.081848405,0.066940434,-0.024371263,0.02852597,0.021624906,-0.009585942,-0.05181539,-0.0026151568,0.0069237286,0.19755892,0.16467494,0.034406245,-0.0004589132,0.011433399,-0.024811566,-0.09777829,-0.008342254,0.04404666,-0.033808284,-0.11951351,-0.08687571,-0.022356138,0.017098473,-0.0112865195,-0.041202966,0.012005932,0.03114581,-0.06899927,-0.0005532508,0.04753511,0.0063837473,0.007059665,-0.050887085,-0.09457421,0.02399087,-0.01872906,-0.07664868,-0.04186191,-0.034736026,0.014647083,0.018899342,0.06522966,-0.06875486,-0.02566471,-0.014323829,0.0037023732,0.015621848,-0.046993293,-0.031290483,0.016777666,-0.01840017,0.019595426,-0.18538459,0.027700273,0.08812587,0.046366137,-0.04572318,0.12099427,0.011168401,0.05675215,-0.04494082,0.0832405,0.02642225,-0.019195639
-0.009349494,0.041558817,-0.029433984,-0.38892743,-0.025506273,-0.087179616,0.03068418,-0.0009494394,0.026763873,-0.0110436855,-0.009158297,-0.06801734,-0.007362499,0.014889413,0.00795388,0.04019014,-0.042147275,-0.079709135,0.060748227,0.030025678,-0.034614142,-0.08127501,0.04662738,0.0010523911,0.046822183,-0.06921106,-0.087809294,-0.004198857,-0.00801168,-0.001973988,-0.034803767,-0.07998407,-0.05943847,0.04258417,-0.03505522,-0.0004307528,0.013845063,-0.09382005,0.043430574,0.045522206,-0.017103078,0.042259503,-0.078010745,-0.0073717847,-0.0007280124,0.036111113,-0.061807413,0.02830466,0.026501484,0.03825932,0.13033712,-0.036110003,-0.0005312167,-0.041056626,-0.14156222,0.009564499,-0.035854664,-0.011481613,-0.009196319,-0.07135617,0.009981362,0.0071892706,-0.02427404,-0.040301114,0.0011969919,-0.12662916,0.10275188,0.063837126,-0.038199916,0.013303921,0.035188068,0.025093967,0.005884796,-0.111850224,-0.0918866,-0.010854345,0.019896517,0.020001492,0.020344816,-0.018204346,-0.12130081,0.10194785,0.09001763,-0.021654073,0.033439837,-0.0087107355,0.0447614,0.0951764,-0.038686555,0.103771955,0.031498447,0.05619434,0.014436346,0.024228746,-0.034044616,0.05304325,0.08571893,-0.05357591,-0.023561882,0.084456265,0.024024285,0.07481068,-0.023491692,-0.13394207,-0.0149186095,0.02412988,0.024472993,0.08585808,-0.009693766,0.017932193,0.12316439,0.005784287,0.049954623,-0.05304986,-0.017090403,-0.0066349693,0.013443093,0.018388795,-0.0456923,0.0130760865,0.009635754,-0.017829299,-0.05184292,0.048927844,0.08160229,0.031543728,0.13575618,-0.018043295
0.027694136,-0.038335375,-0.0026425556,-0.121336386,-0.10999762,0.038290873,0.07106428,0.040609606,0.031730205,-0.037185527,-0.06313635,0.091438435,-0.048401285,0.07704764,0.011006863,0.10814694,-0.016333394,-0.016111152,0.07865404,0.07217596,-0.030741807,-0.08794239,-0.018753327,-0.051765185,0.028899476,-0.004009778,0.054158203,0.0086471345,-0.023895511,0.03691122,-0.018756203,0.0037944098,-0.016499782,0.011441209,-0.0646022,-0.042006433,0.043584302,0.012786317,-0.068209484,-0.059061173,0.0003791085,0.050297458,-0.071016684,0.10074866,0.022890698,0.044417836,0.019478526,0.06678871,0.03955998,-0.04698548,0.027118487,-0.02975397,0.021375012,-0.0023428234,0.031546146,-0.029087696,0.023415333,-0.03914281,0.019267322,-0.10698269,-0.050027665,0.046742864,0.10465354,0.009456477,0.052320197,0.05154009,-0.03661413,0.021389944,0.04665528,0.012256578,0.021347173,0.021054827,-0.0719675,-0.11857376,-0.052448425,-0.035606835,0.055698182,0.032462575,-0.029257633,0.1228122,-0.014573176,0.0060106996,-0.03701487,-0.010629721,-0.012138801,-0.043300156,-0.045262128,-0.0043996153,0.07601711,-0.08776011,-0.021828163,0.15652235,-0.059991308,-0.06532238,-0.0006752046,-0.014112318,-0.0011480276,-0.0019034683,0.016936872,0.041602634,0.10294644,0.032188963,-0.103693105,-0.024505451,-0.01792323,-0.047899973,0.029353112,0.10391599,0.055062186,-0.04310282,-0.024777856,-0.082982786,-0.030728348,0.024921944,0.072688736,0.0074772737,-0.038921233,0.10818762,-0.09546649,-0.033846095,0.091036685,-0.06402739,-0.03673242,0.022033276,-0.05771619,0.017250791,0.0616944,0.08852505
0.047518943,-0.07388656,-0.021547556,-0.3725534,-0.035368685,0.01493614,-0.03913485,-0.011476547,0.06856281,0.03744306,-0.06770958,-0.097253755,0.04063105,-0.089396216,0.04765606,0.09948003,0.013027625,0.107356176,-0.070154086,-0.059413534,-0.09077714,0.027621329,-0.07407199,0.0013671514,-0.032540422,-0.05849399,-0.049950466,-0.06746437,-0.0008936387,-0.034387518,0.04679165,0.12724772,-0.0038133888,0.08310413,0.021931792,0.03334287,0.022208361,-0.013843241,0.07459459,-0.012289041,-0.0061114887,0.052872624,-0.032211643,-0.01921777,-0.011177274,-0.050542418,-0.02478882,-0.011335805,-0.0072837537,0.07072458,0.049171172,0.03793803,0.015592019,-0.04657195,0.04186108,0.02825349,0.054323394,-0.0958178,-0.036436323,-0.08383361,-0.032021385,-0.0051568025,-0.049203124,0.025046762,-0.03167997,-0.067995735,-0.056373328,-0.041546002,-0.06488486,0.09116925,-0.059685465,-0.021866377,0.020363405,-0.07092285,-0.00907,0.048155893,0.09000006,0.0021017273,0.03731831,0.08208159,0.0630917,-0.011446684,0.05462291,0.026692707,0.062212102,0.0704621,0.016702715,-0.015466992,-0.035964143,0.065507375,-0.045156464,0.0011800559,-0.05883059,-0.13148345,0.010761936,0.012378976,-0.056062825,0.046128135,-0.021665968,0.031313717,-0.008550039,-0.014741754,0.06830017,-0.025536079,-0.010669892,0.10602095,-0.03296785,0.061969645,0.05192966,-0.0075801895,-0.015621975,-0.014964939,-0.05822271,-0.023787783,-0.020395312,-0.03399095,0.054720193,0.03522485,-0.017071312,0.015616066,0.06439142,-0.0020250287,0.09335397,-0.08076873,0.0547114,0.028397007,0.12701799,-0.005161065
0.014243329,0.08593049,0.0136942845,0.25600693,0.033167396,-0.10393352,0.101520054,-0.07052484,-0.009235817,0.054149434,0.015233771,0.060701735,0.06924833,-0.040426884,0.040303603,-0.020522667,0.03228272,0.08451018,0.05669606,0.065557025,-0.056537293,0.0116720265,0.029849902,0.022077,0.0027888583,0.0074632033,0.072925344,0.14169446,-0.118030354,-0.10960059,-0.025295835,-0.03744381,-0.025949042,-0.07772417,0.018131575,-0.05178769,0.06566984,-0.009633141,0.023964243,0.06130778,-0.0142002795,0.017019618,-0.11483802,-0.04533676,-0.011374973,-0.010433637,-0.0074471124,-0.03739242,-0.0077118124,-0.016430525,0.0051916754,-0.021151869,-0.022833072,0.016349671,0.07170288,-0.08347584,-0.08978827,0.021568635,-0.083858214,-0.03352413,-0.0016821492,0.025390364,0.0158676,0.0050970134,0.025110718,0.08727216,0.02251808,0.062858276,-0.010436545,0.08011834,-0.016864285,-0.052605294,-0.04727227,-0.12011164,-0.0010972884,0.041752305,0.007693121,-0.07821149,-0.023567656,-0.00062192866,-0.0049755108,-0.06692619,-0.07169646,0.121720284,-0.014739604,-0.013021406,0.06337335,0.025645226,0.047175616,0.043930456,0.017942254,-0.00073259964,-0.057595458,0.005187754,0.015267457,-0.08580554,-0.06738512,0.0035909596,0.036085766,-0.06991538,-0.06504353,0.04931387,0.04874006,0.012046494,0.039151903,-0.11371765,-0.025607111,0.01845247,0.032463785,0.00038081594,0.06109397,0.02970896,0.09367197,0.02245417,-0.03534307,0.05789283,0.107668936,0.02355505,0.0054220306,-0.051356673,-0.030063344,-0.017544799,-0.017080491,0.039365035,0.0011433488,0.05692499,-0.07221442,-0.11909336
-0.039259065,-0.02760838,-0.013344104,0.13727252,0.04640792,-0.004115494,-0.018395374,0.013021327,-0.108454324,0.05969596,0.0020411718,0.062103745,-0.14149891,-0.046365507,0.036483146,0.07621888,-0.00890403,0.042186763,0.019661577,-0.13797128,-0.0030739508,-0.09234441,0.012193178,-0.016326599,-0.009237637,-0.13734321,0.04906142,-0.051318806,-0.0275465,0.050341114,0.03055421,0.045924567,-0.023522872,-0.069363385,0.047971193,-0.03150787,0.061476946,-0.07897255,-0.023460845,-0.10543488,0.03871102,-0.018020518,0.07159192,-0.012605494,0.001439586,-0.076437056,0.024325134,0.025850413,-0.010594855,0.009795606,0.057096582,0.039749708,0.011242752,-0.025633425,0.04861632,-0.004155448,-0.16948569,-0.012231141,0.07951606,0.06179559,-0.046849694,-0.036384035,0.012019734,0.06838887,-0.03055058,0.023892699,0.06397057,0.024804777,0.047963765,0.09701091,-0.0024573265,-0.020655803,-0.024937434,0.09539874,0.03771236,-0.06998249,0.018831288,-0.047383737,-0.0139696235,-0.053768773,0.051247295,-0.03316729,0.040340543,0.061622296,0.015182814,-0.043911055,0.04252698,-0.058511067,0.044523936,0.07954414,-0.0096064,-0.15160249,-0.091591656,-0.039379023,-0.04206748,0.015210539,-0.016748605,0.03555821,0.03391139,-0.049369622,0.011605429,0.097293556,0.106428586,-0.03387558,-0.04967679,0.058034293,-0.034007214,-0.06977557,-0.027844433,-0.052281715,-0.07893353,-0.05433525,-0.046291675,0.012288049,0.03408799,0.03665527,-0.04517628,0.009986217,-0.037774496,-0.06576889,-0.03673205,0.015550724,0.00450971,0.06344327,-0.031864487,-0.032841325,-0.00020857848,0.14369957
0.0006205235,0.021613358,0.04361197,0.040775694,0.023671994,0.082005866,-0.14290875,-0.070527695,-0.030406097,0.02998672,-0.008891113,0.009250113,-0.0028961338,-0.012088259,-0.09931827,0.074776895,-0.09815099,-0.043843847,0.0736109,0.016813593,0.030394187,-0.12576774,-0.0017989259,-0.016497564,-0.05158826,-0.020334912,0.10143187,0.06275619,-0.10249105,-0.06287381,-0.05677264,0.0826844,-0.027876038,0.05075703,0.14004563,0.12004606,0.005638401,-0.011300003,0.007208537,-0.05628764,0.07152874,0.06977371,-0.008886076,-0.08462522,0.018985627,0.058196764,-0.051878516,-0.14438814,-0.045618117,0.1023227,-0.10308923,-0.025136733,0.0029492427,0.02175617,-0.07566512,0.0803333,-0.07880708,0.14507179,-0.051058587,0.029578634,0.008884217,0.049837198,-0.036028806,-0.002037185,-0.03230938,0.028166449,0.021639073,-0.020181375,-0.019121267,0.01834104,-0.04787456,-0.122465864,0.015137391,0.07599065,0.13569985,-0.001033835,-0.102367416,-0.02627371,0.0051719914,0.08588989,0.02173799,0.007035639,0.018370224,-0.052557763,-0.027458265,0.026726991,0.049285267,-0.05553889,0.043009806,0.03862883,0.015083581,-0.064753234,-0.05228813,-0.035106834,0.06338944,0.016276,-0.07171762,-0.082870305,-0.046973575,-0.018049411,-0.07790372,-0.031406384,0.11171035,-0.0068068467,-0.025379647,-0.13746211,-0.0024952965,-0.11447743,-0.0820458,-0.007154596,0.11071791,-0.025072252,-0.043068454,-0.002050934,0.003577536,-0.0780126,-0.0525102,0.012661704,0.050887465,-0.021695174,0.08886634,-0.015158404,-0.044234093,0.09682285,-0.071641,0.11835172,0.055592783,-0.026604932
-0.031190919,0.033732317,-0.019757222,-0.35296687,-0.10071158,0.05988573,0.08284113,0.042986732,-0.049916618,0.0049048616,-0.01563458,-0.076533034,7.2775336e-05,0.07725704,0.05500543,-0.06251598,-0.041135434,-0.021923129,-0.015797397,0.053002745,-0.0069429944,-0.04142709,0.018821795,-0.019780243,0.06571188,0.047460437,-0.058691237,-0.036834832,0.1571364,-0.014804293,-0.13785757,-0.06989122,-0.003891285,-0.0037182826,-0.04573714,0.12774344,-0.061079692,0.025006566,-0.015614641,0.083883785,0.00036176917,0.020680193,0.005600538,-0.07332704,-0.062088277,-0.020743387,-0.04325187,0.0090824375,0.053130683,-0.016737899,0.0068579875,0.09416563,0.0661473,-0.06518471,0.13783245,0.038754575,0.101655245,-0.06120143,-0.09976041,0.086357005,-0.015060358,-0.075125195,-0.06659837,0.12012496,-0.097013354,-0.059736956,-0.028361876,-0.016405586,-0.044809684,-0.051237214,-0.024577005,0.04741046,-0.08191568,-0.007863915,0.008433735,-0.027637437,0.00402663,0.006016101,-0.024970576,0.015035472,-0.020657694,0.02085489,-0.041134086,0.002057671,0.024945287,-0.062114112,0.0738276,0.064661086,-0.079105906,0.10365102,0.08062766,0.043235663,-0.043774456,-0.033158317,0.01746277,0.09115175,0.03247279,0.018793356,0.046901748,0.1548428,0.060364153,-0.05258324,-0.11459216,-0.022917565,-0.054251164,0.06598893,-0.0006098665,-0.11487343,0.023411192,-0.03129905,0.048336275,0.12630023,0.0031797506,-0.0071030557,-0.091661155,0.023731347,0.031815976,-0.037377223,0.044150997,-0.009497105,0.05204244,-0.07131014,0.023401722,0.05824909,0.037934575,-0.0705069,-0.110588565,-0.052124772
0.096623525,-0.042338327,-0.0014160463,0.2096626,0.00043092755,0.023709392,-0.030726051,0.014380219,0.07497875,-0.058699217,0.05413532,-0.046086084,0.008974555,-0.008454103,0.018305764,-0.013652898,-0.016462559,-0.021203164,0.055080287,-0.03302482,0.05998449,0.04013799,-0.04192142,-0.087977216,0.045731414,0.0025790539,-0.14184086,0.03338167,0.005236078,-0.027602995,0.13937972,-0.1568218,0.18960065,-0.09930678,-0.03354608,-0.040732346,0.032409936,-0.0053360397,-0.0070851697,0.020949678,-0.021254562,-0.096763484,-0.09435598,-0.0818777,-0.06977041,-0.027991949,-0.020693004,0.021788854,0.0031388032,-0.05010531,-0.06166911,0.03721499,0.067725025,0.053604223,0.14164978,0.041192744,-0.04697324,-0.054849595,0.018325213,0.04091832,0.02406798,0.007902081,-0.054602712,0.023813752,0.12827976,0.04477575,-0.09806152,-0.00377233,0.0125087155,-0.011171238,-0.016325152,-0.10743007,-0.06654147,-0.07385477,0.039325584,0.049325038,0.10600024,0.11482699,-0.035318933,0.10063508,-0.025802791,0.06617035,-0.004687223,0.10348604,-0.023597725,0.015291761,0.032530606,-0.01518959,0.019067682,0.011118038,0.109453835,0.01713475,-0.059549507,-0.01701821,0.049579386,0.15737057,-0.015469088,0.03797016,0.016391717,0.054748587,0.066900186,-0.09613536,0.015478654,-0.05579687,0.033568177,-0.006094747,-0.03264176,-0.012910284,0.05513831,-0.021573454,-0.027732847,0.031029878,0.02471631,0.05489074,0.039333537,-0.14544776,-0.08136169,0.07704442,-0.010153321,0.08792992,-0.075450405,0.018325226,0.080578856,-0.06316362,-0.06595321,0.061844382,0.008093836,0.05953677
0.017855898,0.08548556,0.020346288,0.1752317,0.03284372,-0.011264042,-0.0005326353,0.104302764,0.009854669,0.072499566,-0.04467423,0.007278533,-0.028575929,0.025599983,0.10239887,0.091571905,-0.024223877,0.059767675,0.06010665,-0.014127824,0.060730852,-0.18210249,-0.06733357,-0.12482566,-0.028682347,-0.05337043,0.025275247,-0.052252453,0.017852237,-0.02336185,0.08892515,-0.11561628,-0.11319892,0.026798699,0.0442243,-0.053204115,-0.10836361,-0.07655186,0.0017924602,-0.12990117,0.019143347,-0.05344971,-0.011311266,0.01869407,0.019640975,0.040681694,0.043449443,-0.04299843,-0.036025986,0.08515594,0.1034106,0.007922643,-0.006635205,-0.0330896,0.040372908,0.025073038,0.0885503,0.008610691,-0.07650847,-0.16640505,0.012059384,0.115681134,0.08370908,0.06517852,0.015058259,0.020036986,0.030578503,0.007342152,0.043616213,0.04924185,-0.15337282,0.11092911,0.09439567,-0.0600069,-0.055742204,-0.00040867942,0.048191898,-1.4113848e-05,-0.06312294,0.03135691,0.0010994558,-0.025153674,-0.048036266,0.051415496,0.0797794,-0.060731206,0.08139924,0.043510344,-0.0028720577,-0.052726876,0.061795004,-0.033523846,-0.05194034,0.032746606,0.06997332,0.000104035855,0.06853123,-0.18514282,-0.07080815,-0.06013821,0.056107763,-0.07318932,0.0009186306,0.05635793,-0.012217477,-0.015693756,-0.015747115,-0.016926743,0.010663543,-0.04233284,-0.009602058,-0.0029167733,0.03978308,-0.08273245,0.07979985,0.052363947,0.040929977,0.022179099,-0.013854072,0.011635325,-0.019641804,-0.014329129,0.05448371,-0.14349991,0.10456761,-0.048529632,-0.071451575,0.025544614
-0.012404602,0.053340733,0.0818048,-0.11642225,-0.15289442,0.009477054,-0.026401019,-0.037950795,-0.015133125,0.08081865,0.007266335,-0.03170447,0.038305253,-0.0848717,-0.01424607,0.031590786,0.0065596933,0.012551315,0.05772444,-0.0056329337,-0.027014336,-0.007955339,-0.0743547,0.107714385,-0.07459283,0.030824523,0.07247546,-0.044491176,-0.033282794,-0.045344867,-0.04718997,-0.017149089,-0.06384498,-0.0068600792,-0.014120108,-0.046744213,0.042193305,0.050604634,0.0833231,-0.016781142,0.01615202,-0.025197033,0.1364479,0.0030804053,-0.070639,-0.036402166,-0.047745205,0.017750965,-0.028064797,-0.044848353,-0.0276498,-0.029319054,-0.020684117,0.11005519,-0.087996215,0.015862498,0.007582583,0.051049106,-0.052566536,0.02490255,0.021746533,-0.12015909,0.06403162,0.030233996,-0.037962534,-0.010445466,0.039010946,-0.057717808,0.11788108,-0.03883657,0.014132452,-0.007389227,0.029435026,0.08162318,0.05343685,0.039760094,-0.0027934865,-0.05764654,-0.047675762,-0.10885952,0.014254741,-0.05681682,0.04355678,-0.039683312,0.020255776,0.088696934,0.012046284,-0.028583359,-0.07211293,0.096129835,-0.0465315,-0.027509386,0.053628933,-0.041822277,-0.027707476,0.04453572,-0.14521901,-0.023626124,0.116622426,-0.08087325,0.026980659,0.026966253,-0.05871211,-0.07763374,0.001641059,0.054908328,0.028197937,-0.010624667,0.05542827,0.07465772,-0.03686993,-0.07516361,0.009209202,0.0853105,0.06650208,-0.016418714,-0.06869506,0.002106902,0.034082156,0.04234175,0.03909724,-0.09227539,-0.07906753,0.024232283,-0.027316095,0.03352486,0.014962636,0.005683799
0.10376699,-0.0069198455,-0.05969955,0.06309208,-0.003492514,0.047456797,0.024500545,0.02325459,-0.038232096,0.034169033,-0.046907585,0.073754475,0.017027382,0.074328,0.0151126245,0.030687049,0.05962163,-0.026456986,-0.021900138,0.031235177,-0.06804456,-0.031174278,0.037113257,0.037224263,0.057201885,-0.035407882,-0.050863676,0.042618006,-0.015670676,-0.00047906843,0.044234034,-0.068899065,0.09358056,-0.090629205,0.035361603,0.032139424,0.09058029,0.07054567,-0.03156343,-0.009337686,-0.0661745,0.051500596,-0.10836273,0.046933897,0.0065053483,-0.054251578,0.058391508,-0.0060284343,-0.014520293,0.019223288,-0.0637967,0.029246194,0.031194253,0.071492605,-0.040796213,-0.01591741,0.05712825,-0.01637087,-0.047958236,0.03529066,0.012955736,0.10539399,0.029969554,-0.07310867,-0.12220263,-0.007027261,0.09083961,-0.12441428,-0.08744317,-0.03070668,0.09904434,-0.085222,0.06765968,-0.06488345,0.029815085,-0.04353563,-0.012824951,0.06187534,0.00835436,0.14899033,0.0044624596,0.02934374,-0.0880239,0.13295144,-0.037380908,0.0066910037,0.011076747,0.06479553,-0.008421942,-0.078470655,-0.005685986,0.015495166,-0.023193974,0.0051890933,-0.025233196,-0.009660551,-0.026324531,-0.04911986,0.037422832,0.020039018,0.041813605,0.030875405,-0.065041326,-0.1098198,0.07070012,0.07434936,-0.037908904,-0.06868035,0.084527045,0.008721762,-0.10366739,0.07184973,0.0028794785,0.04626857,-0.03995555,-0.026244717,0.0782769,-0.07460557,0.029756142,-0.01644904,0.033088934,0.09574859,-0.003699183,-0.012698376,-0.107345104,-0.0075082495,0.05809149,0.008390975
0.034495894,0.027096452,0.06950455,0.2775118,0.0892852,-0.027833048,0.019589782,-0.00057103235,0.040879007,-0.07713312,-0.05019614,0.03587336,0.0415343,0.08389402,-0.016847238,0.021290317,-0.07111982,0.07201546,-0.027060626,0.12768705,-0.036220204,0.063423544,0.09166264,-0.09880829,0.004671863,0.00023516147,-0.044140432,0.0007042168,0.05164376,0.061426293,0.07052821,0.027689558,-0.0004451671,0.0035254734,0.06993327,-0.04862214,0.053790394,-0.077017695,-0.13026829,-0.092293166,0.033384796,0.0013581382,-0.027456885,0.048692297,-0.008157182,0.09222322,-0.05119295,-0.010515405,-0.05644017,0.062551685,0.006516758,-0.029000912,0.0063128467,-0.05415594,-0.002960415,0.0058837333,-0.07573989,-0.033486802,0.08560281,0.04927831,0.034819018,0.02201549,0.00857682,-0.018189382,-0.048652157,0.023757415,0.03963437,-0.0048045237,0.005883954,0.049912877,-0.07820332,-0.07508863,0.019285882,-0.06556966,-0.030632949,0.056262214,0.010149845,0.06278141,0.037373513,0.037015874,0.05239994,0.011698987,-0.04928634,0.048254997,-0.055575732,0.014861723,-0.01929244,-0.025065275,0.016901879,-0.026470324,-0.026217232,0.035565928,-0.027443325,0.030107485,-0.030161545,0.020530092,-0.030528037,-0.08658776,0.02075505,-0.10375123,-0.10792672,0.04447035,-0.008003212,-0.036874786,0.006566392,0.06086972,-0.01820071,0.058522217,-0.00894746,-0.023372388,-0.051973324,0.057175104,0.05084017,-0.032198228,-0.0018292064,-0.007071247,-0.009838839,0.021756692,-0.014290586,-0.026498506,-0.07157427,0.07138566,-0.0016499166,0.03720138,-0.069840305,-0.050745893,0.04107123,0.03263856
-0.045863166,-0.055593543,0.038551036,0.03505712,0.00092639116,-0.1010774,-0.025142882,-0.018043585,0.029912636,0.044965383,0.0007905594,-0.042267717,0.0134021,-0.10984331,-0.009792026,0.11792244,-0.003398383,0.0068431,-0.0757709,-0.014512766,-0.041895058,-0.10071406,-0.06219375,0.046933394,0.049499437,-0.09857882,0.05982992,0.018258298,-0.014087306,0.03774234,0.06781259,0.076902926,0.026395869,0.0067289043,0.09267459,0.03887736,-0.0074821655,0.004603222,0.04784327,-0.0119986115,0.0026131193,-0.008951851,0.16143471,-0.009701623,0.0136687355,0.0064236093,0.017826289,-0.011490805,0.009921966,0.02497589,-0.025265591,0.012899554,-0.010237638,0.06826086,-0.07705554,-0.015638305,0.017867893,0.029774632,0.050948508,-0.00956418,0.00448901,0.0042829206,0.011473673,0.040083062,0.04110179,-0.067127086,-0.051037654,0.068293154,0.09444089,0.0028488624,-0.008369471,-0.08263387,0.00585021,0.06678672,0.031908188,-0.017865892,-0.09838175,0.031834673,0.010781594,-0.08497598,0.08262456,0.021737635,0.056255214,-0.06931395,-0.052372754,0.05991081,0.06675564,-0.09796602,-0.007972754,0.07868649,0.061717167,0.013915023,-0.01037788,-0.018456286,-0.029788658,0.06771945,-0.13005118,-0.026381435,-0.042879466,-0.028371492,-0.04657056,0.0038513744,0.010435019,-0.086748905,0.035624668,0.007571788,-0.004560484,-0.053902045,-0.014214908,0.010038066,-0.0076251905,0.05555731,-0.039266676,-0.03664096,0.05600997,-0.02655736,0.03097181,0.024728699,0.055729296,0.02579509,-0.025129944,0.079830214,-0.0014007209,-0.027047263,-0.08645827,-0.08684773,0.014724912,0.00054242514
0.06517405,-0.022182075,0.0954912,0.30781668,0.14659777,-0.043832168,0.060563505,0.09534892,-0.06183341,0.076079845,-0.017963644,-0.03524748,-0.015565188,-0.025401417,-0.07208046,-0.0008703961,0.021426713,-0.009525227,-0.056175247,-0.10638813,-0.037855178,0.08131197,-0.010383489,-0.0016006802,-0.057360616,-0.007360277,0.023937922,-0.014117156,-0.021954263,0.095528305,0.04580003,0.040797614,0.022218479,-0.04869853,0.03954292,-0.08876634,0.105930984,-0.09837119,0.013362632,0.045718815,0.048947945,-0.007308585,-0.04383192,-0.044016358,0.052086532,0.0013188006,-0.024182472,-0.07845321,0.03820411,0.054515984,0.007858706,0.002745754,-0.013419675,-0.023114301,-0.008778146,-0.06890138,-0.031390164,0.11107793,-0.024240429,-0.07933823,-0.026478598,0.037427828,0.0052735712,-0.006127161,0.078099936,0.067356974,0.014707561,-0.072455324,-0.110204555,9.235442e-05,-0.0033671,0.02454685,-0.08110189,-0.05771921,0.032985777,0.019105649,0.06620493,0.04522579,-0.025791274,0.08345837,-0.011124796,-0.03818074,-0.019219346,0.013464053,0.0076354984,0.019591916,-0.086959474,-0.03868158,0.095138185,0.045943066,-0.024716146,0.057769213,0.021679318,-0.06917287,-0.0043908176,-0.013789487,-0.08381424,0.0074829548,-0.04527156,-0.009474347,-8.9837056e-05,0.014066844,0.070291296,0.020020323,0.009919819,-0.025574831,0.004949375,0.06743608,-0.024702411,0.02633295,0.02946836,-0.0020330315,-0.03687302,-0.096375786,0.01909844,0.0020143397,-0.14137259,0.0029608132,0.016361196,-0.10686598,-0.068323694,-0.018039826,-0.059094742,0.055315755,-0.02682235,0.0046725404,0.10648784,-0.0659535
0.057472702,0.027342055,-0.031893678,-0.04786698,-0.020496078,-0.08372266,-0.07989689,0.10540862,0.004875527,0.025777621,0.09008063,-0.04116727,0.06193241,0.0010362456,0.09440211,0.031573564,0.025640013,-0.102471665,-0.017267022,-0.02743901,0.057927012,-0.055895176,-0.06248571,0.058624875,0.013077089,0.05891254,0.10251518,-0.095014475,0.025842262,-0.052853063,-0.02862412,0.029002966,0.0035500452,0.044614296,-0.025802225,0.024494264,0.1313898,-0.1555099,0.06673748,-0.0668388,0.1551684,-0.05566407,0.06197143,-0.087962665,-0.012454598,-0.01712106,0.00088892103,-0.06898244,0.069675356,0.03455542,0.005818772,0.07349987,-0.033042047,0.04441107,-0.07338376,0.021214996,0.012519342,-0.25168726,-0.036869623,-0.0329638,0.03864562,-0.05070783,0.01826664,0.0642496,-0.04185367,0.016195832,0.0015266137,0.030981472,-0.023473633,0.048063416,0.0142472405,-0.07566232,-0.023201477,0.0892644,-0.074430875,-0.022498384,-0.017056247,-0.02597139,0.016479706,-0.053924624,-0.09392598,0.0455902,0.023690088,-0.05180368,-0.017034054,0.056886114,-0.083558664,-0.0692854,-0.025909454,-0.00790305,-0.0023128937,-0.12500797,-0.121435,-0.066141576,0.014402978,-0.015903328,-0.09276675,-0.04984965,-0.05664489,0.050651252,0.01392744,0.053890128,0.042905934,-0.060108084,-0.032296084,-0.029394554,0.089060985,0.001730763,-0.015304526,0.009771989,-0.08053314,0.027664246,-0.021043546,-0.06844554,0.15229997,0.04229539,0.02400657,-0.008542354,0.00040745857,-0.05454013,-0.01308317,-0.001609634,-0.06928444,0.04088402,0.017147992,0.019605763,-0.028984213,0.056815427
-0.015078791,0.011430452,-0.013866814,0.0018403953,-0.020873787,0.02127024,0.07946054,-0.009683048,0.016396614,-0.0376681,0.06741208,-0.034382805,-0.04453044,0.014994601,0.054264646,-0.069493815,-0.015712304,0.053399105,0.084068574,-0.0040374594,-0.019099683,0.07349164,-0.012631784,-0.13456394,0.03583079,-0.022525722,-0.078251876,-0.05000806,-0.048468888,0.018145457,-0.13919571,-0.057648975,0.01874661,0.10388018,0.057417218,-0.03614834,0.010216217,-0.0192292,0.026543375,0.030103048,-0.14363916,-0.02033747,-0.112569116,0.00023332513,-0.011854394,0.087691784,-0.029687934,0.04030344,-0.0068411967,0.096240096,-1.6992431e-05,0.006216092,0.010010164,-0.050721154,0.06045002,0.005290545,-0.0023828507,-0.017051585,0.04916464,-0.05368376,-0.035276387,-0.048511706,0.08987284,-0.031769518,-0.031536195,-0.006240481,0.0020947552,-0.034921717,-0.039108124,0.022086268,-0.00087399356,0.08099135,-0.01391217,-0.109099366,-0.0043027555,-0.055085175,0.049217027,0.07374158,-0.004887908,0.10791635,-0.08428894,0.023343874,0.019847203,0.040634405,-0.02586682,0.021940028,0.0019392568,0.07549501,0.02774108,-0.077649355,-0.004744382,-0.024651447,0.028408706,0.12010251,0.03024709,-0.033066,0.1313554,-0.09828984,-0.05526019,0.008930923,0.036258485,0.031290885,-0.038530298,-0.059297044,0.076820284,0.027475953,-0.029646033,0.024568751,-0.04568162,-0.01896477,0.07834368,0.05995347,-0.030424211,-0.060012978,0.06981614,0.026427494,0.023125317,0.040271424,-0.007977807,0.0560107,0.08800773,-0.11700962,0.14925732,0.004276137,0.013758094,-0.040759444,0.017503882,-0.08296833
0.059471723,-0.0027055626,0.039263822,0.42031693,0.0709495,0.030571958,0.0106825875,0.0046359133,0.012289863,0.04501397,0.006722984,-0.036212873,0.022060264,0.061166223,0.20720029,0.09128917,-0.04907362,-0.034777887,-0.0057949885,0.042643804,-0.06910828,0.03251196,-0.034286153,-0.002170476,0.0030188768,-0.027199866,0.013037911,-0.017380636,-0.080224715,0.029746125,-0.07269408,-0.046514913,0.03961405,-0.011877222,0.045369502,0.070183285,-0.02992229,0.010935108,-0.11627878,-0.041603852,0.032177713,-0.015538147,-0.08986498,-0.015658015,0.00010017009,-0.04063593,0.042652622,0.03129994,0.017281443,-0.028046196,-0.005273371,0.038003176,0.019966558,-0.04234929,-0.0014227966,0.0034185916,-0.017863033,-0.011451624,-0.002696108,-0.024807395,-0.009974134,-0.03715916,-0.031817585,-0.012034412,-0.0278319,0.043173794,-0.07736294,0.059246507,-0.109807305,0.0860206,0.12843972,-0.096501544,-0.057991236,0.009741906,0.033179563,0.016397474,-0.022684619,-0.0086151855,0.09970559,0.024948966,0.077029854,-0.017545667,0.04327764,0.04239598,0.022414055,0.088940196,0.04068695,-0.033413757,-0.024477515,-0.0025647522,0.046435528,0.03381879,0.061124858,0.013052382,-0.073982224,0.055257116,-0.020067932,-0.06798809,-0.05760246,-0.060720228,0.020232983,0.039869606,0.041256815,0.032885015,0.050458424,0.038678873,-0.0060436744,-0.0077241682,-0.091190554,-0.027823683,-0.027172703,0.012966563,0.061651498,-0.005057942,-0.07968955,0.035042524,-0.039034564,-0.009109992,-0.027884968,0.047373213,-0.10200349,0.021604376,-0.04291022,-0.009277124,-0.07370243,-0.032764267,0.031751722,0.11181125
-0.03788269,-0.0033849108,-0.0064448235,-0.12339991,-0.10793979,-0.027336223,-0.03410799,0.040565617,0.012353385,-0.015983136,-0.07094822,0.005609057,0.011838214,0.01785605,0.0110273585,-0.06642225,-0.157739,-0.017796496,0.013571853,-0.017800938,-0.04161566,0.055752434,0.056686345,0.049952216,0.01969767,-0.12828061,0.008784343,-0.0016997212,0.0019866873,-0.03753331,0.03885285,0.014621348,-0.037999198,0.015138576,0.09857495,0.011378805,0.07790469,0.07382925,-0.07099992,0.15761937,-0.006579776,0.0088943215,0.120959654,-0.020640459,-0.06611697,0.008451553,0.02938969,0.023186095,-0.043906663,-0.07356421,-0.021839635,-0.02051038,-0.01298044,0.042597316,-0.13044384,0.10650911,0.06710734,-0.073634915,0.062184263,-0.07582651,0.008196382,0.04083918,-0.031818826,0.059987657,0.07361346,0.08977004,0.09749312,-0.0017781073,-0.00662825,-0.12100196,0.035423107,0.1057067,0.03830183,0.07989873,0.051730927,-0.10377338,-0.005522754,-0.059798248,0.0637798,0.013525016,-0.023140062,-0.030865887,0.006193601,-0.08256271,0.04219126,-0.03031477,0.05604995,0.009471015,-0.023549141,-0.01986064,0.03968186,-0.06543957,0.006309222,0.0022637271,0.0071058213,0.03107515,0.025293782,0.081065886,-0.0031082507,-0.038805112,-0.08471998,-0.054809064,-0.085489936,-0.025057724,-0.077753514,0.057439,-0.001007023,0.0490172,-0.068154104,0.0026849266,-0.093423165,-0.04273732,0.11647915,0.08004981,0.0040848,-0.031123891,-0.0025091418,-0.030782878,-0.01504412,-0.032830887,0.0755476,-0.043642353,0.026898265,0.042351466,0.029058555,0.066475734,-0.08112687,0.0138986185
-0.03531761,0.05329173,0.104900226,0.16928798,0.032189313,-0.110176295,-0.07495892,-0.03037206,0.0015145724,-0.07243434,0.043463286,0.031176602,0.042678602,-0.025067482,0.031643983,0.09083659,-0.06942248,0.032953,0.059365656,-0.062228814,0.08121353,-0.06129655,0.003803004,-0.039227765,0.022515718,0.016674787,0.120700866,-0.049294256,-0.057025824,0.09839787,0.07855891,0.028188858,-0.062810086,0.02391665,-0.054258022,0.021318149,0.10267637,-0.0772956,-0.051741958,-0.059790082,-0.03910893,0.005155189,-0.024345564,-0.0034540517,0.0049960813,0.080693744,0.015861047,-0.06426372,-0.040809076,0.13144371,0.06852024,-0.108701415,-0.14778206,-0.016310487,-0.05474331,-0.10690132,-0.047740705,-0.012848659,-0.04104302,0.059975684,0.06463578,0.010399859,0.111414365,0.028178386,-0.0162891,0.026441615,-0.08271013,0.026469536,0.052544758,-0.09283967,0.020973349,-0.060086183,0.036931053,-0.044228625,-0.010703995,0.05157218,-0.0217882,-0.06635524,0.051075604,-0.014251529,-0.01611303,0.02348573,-0.08315169,0.1685225,0.027182264,-0.008791153,-0.01034094,-0.0071064266,0.09875266,0.05747476,0.0116754435,0.045132466,-0.07414361,0.044658627,-0.025935037,-0.11211394,0.022251116,-0.038152616,0.067411944,-0.04415737,0.08425286,0.003372265,0.035150334,0.10181152,-0.0123891765,-0.056034308,-0.028337548,-0.017394379,-0.020492194,-0.020244349,-0.034360096,0.070171095,0.0182969,-0.09741317,0.00087359495,-0.032768834,-0.07952398,0.091302864,-0.008837812,0.018505733,-0.07017373,0.074388936,-0.00086703664,-0.022761224,-0.083522834,-0.076126345,0.06489623,-0.023366407
0.073313996,-0.06064161,0.09521868,0.13064384,0.092547745,0.005156688,0.017561069,-0.089228615,-0.14125575,-0.0012647978,-0.03675047,0.04059813,0.024273897,0.18008128,0.037402656,0.08747931,-0.02941161,0.05742106,0.048516825,0.0038097482,0.03909721,-0.019536087,0.05069678,-0.07893961,-0.09606743,0.015743678,0.056203328,-0.017080601,-0.06434769,-0.022206219,0.003319166,0.044355813,0.03960021,-0.02249443,0.028775955,-0.016888792,-0.0063201673,-0.09678388,0.050414197,-0.010816717,0.018473376,-0.029263435,-0.08506507,0.065606,-0.057568476,0.025895324,0.03957567,-0.035768416,0.009772711,0.06986483,-0.008935722,0.025185969,-0.0123881055,0.016819907,-0.0489251,-0.0074124355,0.0017204152,-0.06552956,0.024384504,-0.056169175,0.053719483,-0.025595456,-0.015120062,-0.0032517884,0.00032199523,0.07872738,0.014049608,-0.01582673,0.16690448,-0.0062574735,-0.008535346,-0.0014570676,-0.05761545,-0.08084065,0.06360976,-0.06862785,-0.037810452,-0.016353855,0.09605146,0.06796667,-0.029252315,0.07419867,-0.026926296,0.10179212,-0.1061622,0.07653861,-0.06196937,-0.035376195,0.017418563,0.04216217,-0.0016031275,0.042017445,0.08934709,0.09923667,0.045119133,-0.0786037,-0.011721365,-0.07084472,-0.08177936,-0.058756854,0.0020368206,0.05537596,0.010544396,0.053363893,0.022604015,-0.11491646,0.037974123,-0.0029448338,0.08597538,-0.020193724,0.019135877,0.0168111,0.044093248,-0.040336244,-0.06161101,0.075783774,-0.024169493,-0.049393397,-0.021625932,-0.039340004,-0.1232544,0.040877152,0.010523267,-0.100767225,-0.040398575,-0.08432168,0.020732239,0.023866884
0.018215232,-0.015339664,-0.031559665,0.19887051,0.097984806,-0.011876766,-0.020233849,0.023966862,0.020314706,0.021071998,0.08717368,0.06032089,0.05334956,-0.008921672,-0.05183725,-0.0005575181,-0.09954702,0.0446537,-0.049194325,0.10992213,-0.023688424,-0.03831519,-0.06757157,-0.10454338,-0.0056401812,-0.0025109982,0.042664483,-0.0519733,0.004264658,-0.01689843,0.019025758,0.003707844,-0.029064057,0.019382497,0.002019561,-0.0015945421,0.04293024,-0.032927334,-0.045866024,-0.0066176765,-0.086905435,-0.056415018,-0.0393775,-0.041618902,-0.011525339,0.027229056,-0.06926569,-0.060667187,-0.06080522,0.03519088,-0.025144218,0.0064060725,0.014875746,0.02226617,-0.041111395,0.074002445,-0.054889724,-0.013688061,0.03571066,0.0712616,-0.028943004,0.036672615,0.016846204,0.009641015,-0.046520222,0.09476338,-0.101402745,-0.033855125,-0.03462411,0.015309733,0.025109377,0.09088397,-0.06438976,-0.052711494,-0.05053582,-0.011065792,0.043400634,-0.037790257,0.058062993,0.075175755,-0.028885342,-0.04730191,-0.05510311,0.092511885,-0.021693517,0.047556832,-0.025739092,-0.015618374,0.11758446,0.03306129,0.016475104,0.021630652,0.10247839,0.059954543,0.006095505,-0.0366884,0.028523117,0.007997517,-0.012180709,-0.056003246,0.013231895,0.048421063,0.081333406,-0.01117265,0.104194954,-0.025426578,0.009788057,-0.024299914,0.054324478,-0.027734207,0.0045732707,-0.029221628,-0.05679589,-0.04773179,-0.08975556,0.03798443,0.006658495,-0.06581079,-0.050317083,0.03902926,-0.061762072,0.04108367,-0.050392676,-0.061335787,-0.05764574,-0.05676168,0.08188016,0.030682001
0.07595657,0.010678362,0.07950777,-0.16250399,-0.06484855,-0.00032260452,-0.0356394,0.000110522386,-0.0487145,-0.08174516,-0.0066185123,-0.03219899,0.030665232,-0.00374265,-0.025862023,0.12002736,-0.026133277,0.06050732,-0.110522114,-0.1531044,0.01595932,-0.019707251,-0.1234766,0.06378394,-0.05488976,0.046992235,0.042556353,-0.06726354,0.07646281,1.347931e-05,0.08408662,0.053600974,0.014516345,0.011599412,0.026694976,0.060691386,0.018230176,0.015376925,-0.0062620984,0.04491216,-0.13785213,0.030872248,0.1407772,-0.016980123,0.034869265,0.07150428,0.044747412,0.022914914,-0.02728345,0.050216455,-0.047879566,-0.055800322,-0.008149701,-0.059281457,0.027487526,0.08528505,-0.09807246,0.015276165,0.02711985,-0.07864403,-0.024458596,-0.037520926,0.061114565,0.022444641,-0.03757714,-0.007024133,0.03639289,-0.00243255,0.07205148,0.017137572,0.05258395,0.035648923,0.014014492,0.05463593,-0.053903673,-0.0011460923,-0.059193064,-0.0034724248,0.012403442,-0.12575269,0.015182514,0.0126819275,-0.021700846,-0.0803916,-0.018708967,0.070744604,0.056069076,-0.012106159,0.0381002,-0.07052805,-0.002935441,-0.10016951,-0.037037466,-0.037667803,-0.042957336,0.013439642,-0.04388154,-0.0042956183,0.08177245,-0.07720183,-0.08529474,0.07840108,-0.027922504,0.02090926,0.03945162,-0.08591186,0.0013034862,0.06533083,-0.058045354,0.051540494,0.05197828,-0.104239486,0.005810951,0.030234452,0.02252314,-0.07458821,-0.059775405,-8.51748e-06,-0.0077859457,-0.070976414,-0.008266794,0.02439039,-0.039377045,0.028067734,-0.040325716,0.08356509,-0.062228054,0.02028043
0.07198262,-0.015863553,-0.08135884,-0.28261968,-0.042623557,-0.0077060964,-0.034874454,0.03073442,0.05276322,-0.017449114,-0.04297412,-0.039021004,-0.11776036,0.04227849,0.012299982,0.0004475628,-0.026900042,-0.032642134,0.014158927,0.02630656,-0.09617147,-0.029440684,0.0055223242,-0.005955324,0.0069812834,-0.004143835,0.013106076,0.059435498,0.10550244,-0.00012834367,-0.069361486,-0.0466954,0.009950746,-0.024874512,0.010517237,0.007151978,0.022803778,0.05194963,0.0205713,-0.007907593,-0.00085217616,-0.013062893,-0.11316517,0.004219719,0.02891702,0.02493792,0.061577912,0.06712916,0.06517173,-0.034443747,-0.059858643,0.011593976,-0.008387053,-0.0015062628,0.06205681,0.06755385,0.05939987,-0.079289526,-0.073812224,-0.061134443,-0.060004625,-0.013809375,-0.09295791,-0.045023873,0.046377607,-0.0744931,0.092063226,0.10614329,-0.0055966484,-0.09324636,0.022137692,0.04855815,-0.029113803,-0.08708442,-0.0023780728,0.033042084,0.06517161,0.05397378,-0.010455591,0.043294534,-0.12386922,0.06360332,-0.032835267,0.020573799,-0.030281505,0.08216979,-0.018103018,0.034154836,-0.042390212,0.08856759,0.008738441,0.009576851,-0.08875518,0.02990795,0.019024624,-0.033758294,0.01811831,0.029052926,0.044047765,0.07814622,0.04711408,-0.05821341,-0.039589655,0.05034092,-0.0008185532,0.040334933,0.0860824,-0.0032964544,0.00013744338,0.02779774,0.00950792,-0.025701676,-0.040380403,-0.016075734,-0.054025386,0.08227532,0.03229359,0.0040081725,0.0024107157,-0.023585837,-0.008732444,-0.038012408,-0.018817065,0.036406472,0.12174862,0.048918057,0.009639204,-0.07491226
-0.11525842,-0.07825868,-0.01775829,0.032128498,0.0031050462,0.016490128,0.034358744,-0.0143076135,0.10883479,0.03725589,0.009203505,-0.027135108,0.017611796,0.0739998,0.027779391,-0.08237991,0.13137919,0.010649372,-0.094981566,-0.05592254,-0.082579225,-0.0025009094,0.026869351,-0.031293333,0.060034197,-0.072957665,-0.022002017,0.05736928,0.018426709,0.111188315,0.016329339,-0.0059426017,0.12393422,0.08210583,-0.0051131,-0.08672119,-0.05131189,0.029241133,-0.033796363,-0.00044855464,-0.05202893,-0.016290529,0.010465707,0.102275275,-0.06767729,-0.025583193,0.012248573,0.013541164,-0.014355507,-0.007185897,0.013118697,0.05362333,0.0035822324,-0.009479325,0.015614891,-0.053847775,0.0015247461,0.11708042,-0.030792264,-0.09767731,0.014542053,0.00683356,0.09193495,-0.005868914,-0.04485343,-0.006431573,0.08409002,-0.02081378,0.07766019,-0.11444485,0.06326539,0.06832845,-0.0340908,-0.030306214,-0.06303109,0.012132043,0.081742056,-0.1294979,-0.10687776,0.08489718,-0.07247159,0.0077547356,-0.08521848,-0.01458223,-0.037165623,0.19733699,-0.0657476,0.08177901,-0.08990816,0.006212904,0.032784708,-0.024961838,-0.02943456,-0.080328256,-0.01710584,-0.048726175,-0.029785324,0.012606704,0.024094712,0.08851083,0.0564243,-0.012907193,-0.018356115,-0.086077355,0.07009984,-0.028177205,-0.00941963,0.030903252,-0.013882924,0.062320683,0.035640277,9.88509e-05,-0.11258116,0.045541037,-0.015517322,-0.04495492,-0.055942547,-0.041495334,-0.0076630195,0.025913162,0.012999848,0.09109044,0.04874217,0.056557033,0.01047826,-0.004119272,-0.0017562484,-0.026612466
-0.08059254,-0.014694455,0.12010027,-0.052317098,-0.07059395,-0.011609291,-0.046088085,-0.058236234,0.0068461904,0.09480734,-0.039935887,-0.09695529,0.08193672,0.05005286,0.013823134,-0.10573674,0.041508798,-0.057494152,0.0128464345,-0.0029559024,-0.073298045,-0.015691582,0.02129688,0.08871077,0.019328533,-0.0022825045,0.010400037,0.011100087,0.017300203,-0.009807971,0.06258725,0.05320018,-0.03785267,-0.0010845575,0.04580987,-0.0148651125,-0.054968625,-0.06202221,0.048244417,0.03911585,0.021290647,0.022818351,0.07242004,0.005266268,0.045164533,-0.06309336,0.07274916,0.010007777,-0.058658343,0.06867456,-0.06151382,0.10534996,0.0029367064,0.103482634,-0.0489662,-0.03135652,-0.0087690335,0.0037968622,-0.048524775,0.013104531,0.030254515,-0.029467901,-0.090700254,0.15435724,0.012285204,-0.0110375,0.019036734,0.0032120522,-0.03737591,0.105719216,-0.003068635,-0.027156865,0.08850764,0.06431252,0.024443561,-0.018107306,-0.0022593,0.058695752,0.03513213,-0.044447705,-0.047915045,0.084947914,-0.07326756,-0.004530296,0.020487905,0.004584314,0.027261294,-0.098719746,0.077281125,0.012637197,0.08301871,-0.061935704,-0.05835993,0.015865464,-0.07783714,-0.033846036,-0.04529106,0.042693295,-0.04331056,-0.08223802,-0.054383256,-0.05358318,-0.07669214,-0.04259724,-0.013208799,-0.008893721,0.050850008,-0.037381407,0.047956064,-0.022711534,-0.11238862,-0.03132008,0.01846526,0.07156889,0.031909812,-0.037232235,-0.03400251,-0.11675782,-0.076848656,0.02445043,-0.005002873,-0.06244093,0.06910724,0.07101214,-0.00085648376,0.0155559275,0.049840238,0.032700233
-0.08564827,0.053900585,0.025878849,0.07783677,-0.0053098523,0.05744792,-0.044815086,0.020104991,-0.06406902,-0.0066388915,-0.105751105,-0.05427268,-0.031054744,-0.038725413,0.068228744,0.09035976,0.0025181437,-0.026365323,-0.105662875,-0.039571248,-0.058591604,-0.09070022,0.11043517,0.038130082,-0.10524358,0.0029650405,0.05729679,-0.083564885,0.06361148,-0.04495685,0.035711948,0.16667613,-0.009383717,-0.0037549962,0.044789936,-0.0033715062,-0.035880994,0.114001274,0.05601564,-0.029144611,0.06325475,-0.093417905,0.050966896,-0.050261218,-0.00088838243,-0.008955374,-0.030314336,-0.067006834,0.052306227,-0.03543318,-0.06042798,0.032604553,-0.03026221,0.02802469,-0.018169243,0.04564642,-0.023130583,0.023663227,0.024753928,0.047723543,-0.049411867,-0.09526272,0.00561802,0.0392668,-0.024685053,-0.022882462,-0.11186071,-0.04188966,-0.051455222,0.03220114,0.07627061,-0.13400231,0.0044744816,0.027564917,0.024124326,0.08875789,-0.056490608,-0.043477606,-0.046419825,-0.015803356,0.059347983,0.0065409415,0.030074108,-0.01451666,-0.009806933,-0.009084175,0.10540502,-0.014543294,0.06354401,0.09038851,0.03263324,-0.09605243,-0.01707837,0.079918884,-0.028749214,-0.015339175,0.023318991,-0.025724519,0.021063035,-0.062007435,0.015990932,0.036649395,0.050675813,-0.024982944,0.12126444,-0.073513605,-0.019483218,-0.019828591,-0.061048534,-0.040991224,0.028081024,-0.025472252,-0.002771507,-0.06849265,0.091830194,0.03178846,0.03362205,-0.028967857,-0.059857786,-0.0540471,-0.13844417,0.04274125,0.04227065,0.03135222,0.0025813908,0.034653217,0.0012423776,0.029974615
0.021684896,-0.044414617,0.027651198,0.3595033,0.03110505,-0.09879046,0.022609621,-0.03162921,0.040561028,-0.057753135,-0.02303361,0.04451758,-0.02138038,-0.018263642,0.055944562,0.14193724,0.007209724,-0.021339472,-0.05773662,-0.042356648,0.03826119,-0.04647128,-0.0500779,0.028010096,0.0042305826,-0.008584129,0.055516303,0.01578566,-0.0127209565,-0.04353111,-0.04520138,0.090072304,0.0033102978,-0.0175327,-0.03193055,-0.010990569,-0.02378516,-0.023946388,0.0017797871,-0.010101536,0.022444421,-0.065097794,-0.02287576,-0.09744127,0.014073338,0.12297951,0.01643257,-0.044295628,0.007768828,0.09357542,-0.012612026,-0.04739094,0.021677297,0.0611192,0.0237081,0.026861634,-0.024300564,0.01963619,0.089212514,0.0045166705,-0.06912015,0.016864272,-0.053050235,0.05591729,-0.045958504,0.049142346,0.06364949,0.12326583,-0.032122348,0.04829934,-0.0003005009,-0.07885272,0.084993094,-0.051650155,0.016494844,0.016994633,0.03485434,-0.0006517869,0.0612578,0.078834146,0.07265436,-0.0020904546,0.025182517,0.048900552,-0.0058650044,0.010758633,-0.0744838,0.04554072,0.018903133,0.04447474,-0.06075311,0.024529306,-0.009354469,0.0042778356,-0.010169179,-0.0031020644,-0.015619021,0.0073009315,-0.09428027,-0.004471972,-0.0073977164,0.072937064,-0.07728527,-0.01979087,0.05815097,0.03367943,0.031740982,-0.06611117,0.08453948,0.009775836,-0.04812019,0.0945273,-0.0017688753,-0.055881303,-0.15206368,-0.058340527,-0.09992849,0.0023017926,-0.074592836,-0.0051224874,-0.06367551,0.0027428807,0.0589674,-0.018712237,-0.029304016,-0.08745927,-0.0031885616,0.02516556
-0.010349297,0.05044938,0.11035313,0.1288093,0.13310567,-0.056833394,0.0820574,-0.095009804,-0.035097122,-0.04664086,0.010105997,-0.033454556,0.024132675,0.027968798,-0.02583425,0.009441655,0.016109426,0.04026271,-0.015665796,0.08793097,0.042611156,-0.09418663,0.018150741,-0.07247491,0.040094357,-0.0044840253,0.0046751816,-0.028844927,-0.008079765,0.00041429096,0.096394286,0.0737651,-0.12722208,-0.01242825,0.0077880616,0.012717991,0.100809455,-0.07884084,-0.032063194,-0.022155687,-0.032229483,0.032606132,-0.10210745,-0.053706322,0.013147528,0.08567655,0.04331322,-0.03697874,-0.03256752,-0.13945358,0.07848547,-0.05915043,0.0007036351,-0.05216093,0.016018428,-0.007879282,-0.0670849,-0.001108896,0.054477822,-0.0637067,0.0017142222,-0.0026703374,0.007637437,0.02638217,0.046041958,0.045693208,-0.008351582,-0.062195744,0.016475216,0.028389432,-0.027789671,0.0040460085,-0.07611095,-0.06728767,0.0050627217,-0.050756052,-0.015319313,-0.008989573,0.040407054,0.11324208,0.046507888,-0.044250436,0.072465606,0.13820073,-0.026035607,-0.004694922,-0.045751467,-0.047572967,0.05020022,-0.009422518,-0.044331882,0.051293373,0.07483497,0.04748563,0.034679655,-0.07165079,-0.012298486,-0.05162313,0.004425031,-0.060032897,0.08029344,0.067645565,0.034583252,0.108532235,0.004260672,0.013838445,-0.021702131,-0.06094426,0.023989601,0.064433835,-0.040868577,0.088016085,-0.111921765,0.058775198,-0.03991318,-0.036290746,0.011981651,0.0012880877,-0.046679795,-0.0094835255,-0.09020706,0.10885571,-0.08617297,0.013548941,-0.0853969,0.009014793,-0.07748011,0.0748199
-0.014753034,-0.04586395,-0.02952226,-0.10040637,-0.01989825,0.045424517,-0.0823294,0.022429815,0.087393425,0.017874239,0.09779148,0.07038995,0.050995577,0.006798473,0.024695514,0.06760949,0.14297241,-0.0009913675,-0.07062756,0.02765592,0.009035215,0.037278943,0.15463585,0.04563829,0.031896558,0.022360109,-0.018894441,-0.10601573,-0.010267071,0.0110242525,-0.018058423,-0.0021122708,0.018717734,-0.047503658,-0.090219334,0.04244197,-0.006221223,0.051773187,-0.008869901,-0.059368536,-0.063033246,0.07440945,0.11136502,-0.054113977,0.027111163,-0.013927812,-0.09962798,0.1541764,-0.034935888,0.00522737,-0.033151906,0.06230598,-0.044673216,0.0192029,0.111583486,0.0038889714,0.051828947,0.05938699,0.08650922,0.025430912,-0.07220013,0.03687697,0.009568082,-0.009556427,0.03796002,-0.026136193,0.088364705,-0.014048332,-0.14358804,0.019626312,0.017786283,0.03345605,0.0043555303,0.08924894,0.024660707,0.022245808,0.0009392665,-0.06658412,-0.08350846,-0.15367085,0.041550238,0.0680127,0.0927306,-0.22002345,0.068914324,-0.01658953,0.0020013521,-0.08211299,-0.0023551476,0.01934027,-0.04321235,-0.039120715,0.050635956,-0.015131922,-0.010515167,0.053800367,-0.020215498,0.027872326,-0.03566837,-0.035110686,0.05414194,0.00039885967,-0.023426061,-0.046277314,-0.06375695,0.0058699236,-0.02838961,-0.11861136,-0.074302256,0.035397667,0.021709165,-0.1325731,0.090184264,0.04857479,0.037963707,-0.07345534,-0.091266654,0.020515505,-0.07632574,0.02415359,0.07092527,0.099923745,0.0019008428,-0.008220836,-0.024535684,0.0002849388,-0.03998388,0.06836845
0.004097832,-0.00020413559,0.0055128285,-0.039312623,-0.10609072,-0.06358681,-0.049397726,-0.014550846,-0.06860602,0.10962598,-0.0042584096,-0.07045931,-0.003487549,-0.057659496,-0.013056617,0.046227764,0.08959847,-0.09412703,0.06105435,0.061849654,-0.03824132,0.061408408,-0.022538932,0.013601859,-0.021655707,0.06934577,-0.07714787,0.041080985,-0.03133674,-0.012585935,-0.05306127,-0.031284682,-0.0011361424,0.04178971,-0.009835653,0.016789215,0.003103623,0.024617666,0.010503776,0.079700805,0.10944628,-0.05793206,0.024727263,0.005471031,-0.00814267,0.08774253,-0.07272806,-0.010858163,-0.17824034,-0.110344924,-0.20324151,-0.06846847,-0.03096684,0.058390375,-0.06342904,-0.061725244,-0.12840955,-0.0854549,-0.089084886,-0.079670146,-0.010465456,-0.13335492,-0.06320474,-0.032030407,0.047316704,-0.022418385,0.07959814,0.07762279,-0.004353079,0.051956046,0.04369147,0.0765956,0.015551899,0.06983662,0.10280334,0.0053513125,0.005455716,0.037650686,-0.15592504,0.11714159,-0.038182415,0.054232366,0.03196002,0.06421068,0.008443921,-0.009997379,-0.09967249,0.0481303,0.07245472,0.06360845,-0.010744895,-0.04594298,-0.14339663,-0.09842058,0.04329381,-0.007640287,0.0047055436,0.03145801,-0.027334934,0.0007369681,-0.12255833,-0.027749011,0.041509166,0.08423,0.062850334,0.030149972,-0.0025164196,0.07470416,-0.08083319,-0.044608366,0.009573473,0.0062118955,-0.04023279,0.109765254,-0.0024324076,0.009454249,0.052585434,-0.11669613,-0.07807255,0.022546621,0.12087659,0.028633699,-0.065065876,0.08482011,-0.091333464,-0.011046796,0.05434633,-0.101255015
-0.12409826,0.026116341,-0.1260899,-0.0026659726,-0.023867512,0.026236016,0.06624598,-0.03872861,-0.045958195,-0.053070635,-8.566434e-06,0.0032300923,0.13943182,-0.081593804,-0.0062507824,0.03050948,0.016563103,0.06523897,0.087141745,0.024395552,-0.04628712,-0.019868018,-0.014218063,-0.016365638,0.007190378,0.07295825,-0.020053409,0.0254337,0.13349566,-0.022405494,-0.08802568,-0.0145242335,-0.0108362315,-0.04642982,-0.044387177,-0.013235302,0.036272574,-0.03951955,0.04946997,-0.0012121436,0.008942301,0.08427927,-0.07188983,-0.030026404,0.075703815,0.041963145,-0.04928025,0.052891884,0.0033595609,0.043672122,0.024882479,-0.0751599,0.072492726,0.03174199,-0.05967571,0.056530535,0.028109415,0.074984595,-0.077194944,0.03955606,0.06448021,0.0447788,0.10288534,0.010321371,0.07951605,-0.009813339,0.04785807,0.0061536534,0.050975163,0.022218956,-0.1078437,0.015481075,-0.12840697,-0.06629386,-0.041105453,0.027808702,-0.012821438,-0.022069123,-0.014328076,0.083309,-0.041319076,-0.035869416,0.061579175,-0.0065283137,0.036421314,0.004436763,0.10484641,0.04072397,-0.11520609,-0.053923547,0.06853294,0.046132494,0.022120822,-0.08633203,-0.08066451,-0.024797777,0.016641974,-0.014628754,-0.13211335,0.029701447,-0.02670901,0.032383736,-0.015440182,-0.005639649,-0.07816907,0.06648191,0.022463169,-0.0053954036,-0.0046415427,0.06536187,-0.074684106,0.0031128307,0.09833522,-0.03578499,-0.02697577,-0.033200815,-0.058398966,-0.008430972,0.07513416,0.0030070357,-0.09539394,-0.024800176,-0.019612158,0.06770907,-0.057983775,-0.023893401,0.10936788,0.12443496
-0.02335002,-0.031842537,-0.039217256,0.20096797,0.13676353,-0.022748845,-0.051892046,-0.02382876,-0.037032645,0.009877351,-0.07532367,0.034959435,-0.019438388,0.07245066,-0.051417936,0.08591023,-0.078021914,0.0011713812,-0.03657946,0.03511951,-0.04349512,0.04390676,-0.13116224,-0.09485985,-0.028561896,-0.014386219,-0.022015445,-0.014336978,-0.0057888892,-0.012064826,0.07534544,0.011599958,0.035789635,0.004482525,-0.06322317,0.025739979,0.059570096,0.007678873,0.019856997,0.09049348,-0.046488218,-0.05589695,-0.0928734,0.0018493404,-0.012164482,-0.016905217,0.04233205,0.040985167,0.008632057,0.09277031,-0.0014054354,0.06794425,0.0667003,0.04751169,0.025860412,-0.031148061,-0.058049113,0.017813595,-0.055444613,-0.07650613,-0.03231817,0.017593222,0.084617,0.053115495,-0.060487516,-0.07835273,-0.03340529,-0.05318013,-0.10079642,0.08900131,0.005435436,-0.13197717,-0.037399244,-0.019248085,-0.014729038,0.007409006,-0.06599178,-0.081133835,0.04153074,0.08319136,0.0808938,0.05092687,-0.024574805,0.06776898,-0.0058515724,0.016835948,-0.081365176,0.035377454,-0.012266807,-0.04936787,-0.010260454,0.06325672,0.09837987,0.11787661,0.100140624,0.037829258,0.01984794,0.023204565,-0.06694543,0.010618514,0.017043391,-0.05761245,0.06501919,0.108845234,0.073732756,0.0024362914,0.085819244,0.03215789,0.017293917,0.010399708,-0.024165433,-0.048425432,0.021380845,0.027990872,0.058398534,0.08758524,-0.07274728,0.07262816,-0.04628928,-0.024678541,0.03423663,0.04402197,-0.031730916,0.045224212,-0.09320191,-0.06742561,-0.07905498,-0.023589212
0.041684218,-0.044438656,0.030874675,-0.17441545,-0.05901931,-0.018151335,-0.048049245,0.13324521,-0.014165698,0.049152665,-0.053781293,0.033607095,-0.01434052,-0.021666994,0.123601444,0.0049238047,0.03423562,0.019120365,-0.053313937,0.004492803,0.02475323,0.038689695,0.032127414,0.13005425,-0.019189674,0.12025433,-0.07416339,0.08930844,-0.12909299,0.028500365,0.12839185,0.011945639,-0.007933098,0.07521136,-0.035388965,0.012609693,0.024175048,-0.048940267,0.069952585,-0.03721141,0.010999849,0.032992825,0.014864963,0.12004469,0.049396716,-0.095008664,-0.04010848,0.004089207,0.09010421,-0.019650793,-0.05048814,-0.066985704,0.14965463,0.13682458,0.032603633,-0.017224582,-0.050271705,-0.02890807,-0.022446582,0.023954928,0.030154414,0.015591596,-0.06386514,0.059129074,0.007990321,-0.065764695,0.09044028,0.008105801,0.027114397,0.07155055,-0.058255434,-0.017665252,0.028554963,0.04361594,0.057532903,-0.0487114,-0.039110795,-0.0071886964,0.119693115,-0.09225094,0.0069610444,-0.046831608,-0.034155853,-0.03083487,0.006716219,0.031060033,0.011215538,-0.06232847,-0.045968838,0.025426809,0.07220158,-0.12344916,0.06311228,-0.0448705,-0.016097173,-0.13994549,0.063248746,-0.03245635,0.041802727,0.046285972,0.016180236,-0.048658647,-0.05465655,0.005926859,0.013852931,0.017851286,-0.046862185,0.008159045,-0.04404123,0.01736516,-0.015923345,-0.06253908,-0.070910916,-0.041607376,0.028146833,-0.1394238,0.026548736,0.11047796,-0.036831122,0.103328794,0.050439276,-0.057623293,0.04744784,0.06249528,-0.09338738,-0.124630675,0.002562528,0.046245582
-0.037189774,0.008409093,-0.00018261261,0.16125984,-0.09757468,0.08830426,-0.08608354,-0.057007823,0.053764187,0.01933997,0.013807471,0.008764147,-0.027315665,0.040355112,0.08002615,-0.15516071,-0.10754076,-0.060653638,0.08318558,-0.04074099,0.04084617,0.06487154,0.031125402,0.06776462,0.052997272,0.03901655,0.087642916,0.045604873,0.06252183,-0.03475924,0.022334881,0.044001624,-0.034785006,0.016392583,0.08610351,-0.024040157,0.028765919,-0.00079965725,-0.056341387,0.16965784,-0.056618467,-0.04443654,0.08683232,-0.051220972,-0.048844393,-0.058817483,-0.048908874,0.017629264,0.03724539,-0.083740145,-0.11101651,0.060007665,0.06013458,-0.03842628,-0.027690364,-0.043468215,-0.11788866,0.043268442,-0.06707145,-0.085371666,-0.04001792,0.03413435,0.08292781,-0.05227803,-0.09506665,0.05143455,0.027174694,-0.012057262,0.019556332,0.013479434,0.03526953,0.049496375,0.040129077,0.07394977,0.037675288,0.015531335,0.0055762967,0.027602842,-0.0836772,-0.123572856,0.12329545,0.023944447,0.047516342,-0.0482599,-0.03548477,-0.07083526,-0.061827548,-0.05767539,-0.08397164,-0.037050143,0.104180746,0.03203362,0.032622993,-0.051709484,0.07073829,-0.019935817,0.040431537,-0.04878289,0.071764044,-0.05243568,-0.04804066,-0.017271146,0.06773083,-0.049707882,0.08853378,0.055102978,0.08259641,0.072877176,-0.014396229,0.05184982,-0.005963484,-0.09891351,0.028203908,-0.043964837,0.031305086,-0.018111674,-0.011176092,-0.025362851,0.112595215,0.06477633,-0.016957477,0.01104569,0.0045295297,-0.12835751,-0.055328127,0.013765728,-0.091032326,0.060138766
0.0031773208,-0.035100646,-0.023957124,0.23809578,0.118349425,-0.010984933,-0.03555647,-0.043433063,-0.04313502,0.051692855,0.0075464477,-0.014898149,0.022249602,0.010816951,-0.04985818,0.09787243,-0.058596686,0.074662596,0.020633567,0.023376875,0.08506831,-0.060457762,-0.044269253,-0.023279032,0.012268017,0.0006012866,0.033564053,-0.060917675,0.030086726,0.06932808,-0.000119505836,-0.04424032,-0.013612688,-0.06810941,-0.010714166,-0.030055333,-0.0078087677,-0.042912565,0.043766875,0.038903758,-0.005826907,0.067049384,-0.07592928,-0.022921814,0.03973257,0.027670415,0.0027695505,0.09143115,0.01438482,-0.035149418,-0.06448136,-0.036375407,0.025093481,-0.12462809,-0.032660283,0.04273412,0.038702488,-0.08737898,0.09948939,0.015694331,-0.014004894,-0.038876478,0.066159375,-0.050103664,-0.021958835,0.031241981,0.02715723,-0.010270795,-0.0076378146,0.05115169,0.010331292,-0.016730905,-0.040309805,0.024389423,0.022782203,-0.020484906,0.044946425,0.02207945,-0.0037325323,-0.01892181,0.13542542,-0.09316819,-0.003370556,-0.0016257952,0.039008945,0.034401413,-0.12444604,0.06742459,-0.042747937,-0.00432143,0.023354825,0.041890528,-0.04405284,0.020008484,0.060475335,-0.08528604,-0.1368657,-0.04775039,0.019888796,-0.01933387,0.018968916,-0.03262524,-0.040542837,0.015967669,0.055881858,0.0034514721,-0.042008903,0.0049460526,-0.061385535,0.059259906,0.0046541947,0.037473164,0.028977104,-0.02075221,-0.075260386,0.059394494,0.12998839,0.0080325585,-0.0957242,0.058971874,-0.08740812,-0.027961995,0.05178288,0.0031431122,-0.032310147,0.036406573,0.044505052,0.042554814
0.040836327,0.025500115,-0.14547664,-0.081696615,-0.016850544,-0.039011214,-0.11017375,0.00713855,-0.071067065,-0.027767062,0.048371237,-0.025639728,0.003038133,-0.047297273,0.006957431,0.05694089,0.045898743,0.03518569,-0.16193894,0.004990084,0.051320035,0.015093257,-0.023276651,0.0053384686,0.017525613,-0.041643545,0.008197399,-0.029770948,-0.01893618,-0.0090753725,0.042171594,0.13527438,0.04819731,-0.038444385,0.022271883,-0.069603115,-0.09997999,-0.0062911743,-0.07972274,-0.1005227,0.023615537,0.08775315,0.12235773,0.038385827,0.094207995,-0.065253094,0.065833375,-0.011744263,0.012947887,0.06656585,0.009812708,-0.0049847956,-0.08750948,0.042136416,-0.020627763,-0.0022496034,-0.032284267,0.017071856,-0.026571093,0.063211285,0.03485086,0.04442298,0.03504377,0.03901534,0.015522213,0.015958412,-0.025518425,0.027498096,-0.046028364,-0.035094235,0.0087438775,-0.10060179,-0.053067602,0.11690068,0.027932584,0.004354346,0.0669962,0.01056011,-0.052315656,-0.027089331,0.10251843,-0.019956687,0.023160113,0.008547948,0.024470348,0.026814103,-0.000794935,-0.10042387,-0.038003415,-0.029681342,-0.050217673,-0.009586219,0.035407487,0.061647065,-0.04458419,0.06258174,-0.06728218,-0.0013154328,0.017093169,-0.14098047,-0.022978133,0.04027504,-0.008350128,0.027465658,-0.00969123,-0.018032603,0.02713386,-0.11349259,-0.020141793,0.02826439,0.049364727,-0.008454834,0.0028415052,-0.00050778454,-0.028515434,0.0022987446,0.020177301,0.071934834,-0.052282285,0.08845029,-0.06908609,-0.08214867,0.011272154,0.06381202,-0.11941866,0.007562679,-0.076994315,0.016762374
0.002206186,-0.019968975,-0.01892226,-0.29890576,0.020694202,-0.09122933,0.005599321,-0.0372534,-0.029201312,-0.06416179,0.051641483,0.06899887,0.009251753,-0.031033797,0.02569685,-0.12700309,0.030239196,-0.0069526373,-0.0009571868,-0.045098793,-0.040473588,-0.06745205,0.05976449,-0.12102715,-0.028420743,0.036274273,0.07889925,-0.0020160796,-0.043678638,0.002196539,-0.0057175336,-0.10801533,-0.075528495,0.087985516,0.025053715,-0.028486112,-0.015032243,0.09788793,-0.040075835,0.033424295,0.03304003,-0.013995365,0.03787844,-0.015108603,-0.057575054,0.022504658,-0.0023754262,0.017592167,-0.024673983,-0.018325344,0.062898934,-0.086546235,0.09208779,0.0012332024,0.0135866655,-0.038999967,0.093015745,-0.014993041,-0.08648029,-0.012804483,0.039370295,-0.0075404006,0.008815849,-0.0325449,-0.0021783153,-0.102438934,0.09222081,-0.05077843,0.06277423,-0.022366606,-0.03290976,-0.038598474,0.015229927,-0.057051748,-0.027820377,0.06818414,-0.01588039,-0.042335376,-0.04116236,0.06086938,-0.045852244,0.0060856743,0.0650641,-0.08567421,-0.024939071,0.063195854,0.046891984,-0.014034302,-0.027428497,-0.025814416,0.002447442,0.0018713002,-0.051220454,-0.011967704,-0.010388625,0.008086438,0.046513274,0.06615637,0.020122146,0.1008826,-0.03738755,0.061542377,-0.07249626,0.02538048,-0.0015114202,-0.005348099,0.06395963,0.0049771722,-0.06244239,0.014944661,0.023045273,0.013433986,-0.049815238,0.03406127,0.03488298,-5.4903383e-05,0.023906674,-0.035346173,0.0027378453,0.023172067,0.10309064,-0.17787416,0.025908794,-0.03335639,0.049636,0.07476137,0.12670086,0.02686767
0.014620474,-0.018732293,0.009579937,-0.05949077,-0.013434147,0.019063398,-0.043577734,0.0026915215,-0.013715502,0.047885768,-0.07668331,0.06305387,-0.11963728,-0.039433192,0.10994037,-0.008720158,0.074514896,0.0012134699,0.10122819,-0.16696283,0.03052912,0.13495399,0.05404086,-0.11744536,-0.013916864,0.011205175,-0.02989828,-0.0975495,0.03261507,-0.14110245,0.046154328,0.019734967,-0.05049009,0.1117364,-0.030799882,0.06790389,0.028747665,-0.008434522,0.1889697,0.07159066,-0.09611584,-0.07335721,0.05678158,0.061713994,0.037953995,0.047079083,-0.048266966,-0.049614273,0.042671207,-0.08564151,0.05721006,0.014908598,0.039257374,-0.0067050476,-0.09954813,-0.05962266,0.020231616,-0.038045485,-0.110119544,0.072359726,0.014876734,0.019581133,0.08386248,0.0046497285,0.0730216,-0.026806792,0.02908639,0.061933886,0.12762037,0.11453634,-0.11151485,-0.007839173,0.04007578,0.06945641,-0.14897402,-0.055846762,-0.009286567,0.029518899,-0.014425656,0.005719906,-0.022851294,-0.09119435,-0.00941179,0.035159837,0.03705183,0.077853486,0.117960505,0.06425547,0.013079639,0.020035854,-0.025975175,0.06748314,-0.14113458,-0.12746261,0.021583416,-0.04376067,-0.11746423,0.1058824,-0.08087901,0.023055715,-0.064140186,-0.056719624,-0.18844979,-0.056375943,0.017357934,-0.043172263,0.056258038,0.00304668,0.00687205,0.06627299,-0.005180394,-0.003148656,-0.059609227,0.036849026,-0.009571061,0.022822624,-0.11321963,0.18486236,0.15971363,-0.000557279,0.17140222,0.0046298234,-0.07151361,0.023927283,0.052570134,-0.055334132,-0.021165026,0.0074290605
0.09375062,0.073272295,0.0009270497,-0.07493784,0.14593922,-0.030576471,-0.15850942,-0.03798184,0.10059683,-0.04032943,0.0043757902,0.010230176,5.7922043e-05,0.025520073,-0.015025015,0.033400215,0.08337407,-0.025597949,-0.035147112,-0.018346936,-0.06721485,-0.006214903,0.09243021,0.035363432,-0.053367216,0.055247623,0.04766838,-0.07112194,-0.032554198,0.07482984,-0.071982086,0.0077260593,-0.07535972,-0.0065311906,-0.13342142,-0.021525403,-0.055943325,0.07396267,-0.06831175,-0.048147146,-0.08247497,0.062081143,0.01766357,0.070117995,0.058176957,-0.03941452,0.032429494,0.054760274,-0.027343912,0.16950795,0.0043210234,-0.017956635,0.0011318316,-0.07222476,-0.13322197,0.001574341,-0.117897935,-0.03734568,0.14845636,-0.037686702,-0.025142314,0.034702253,-0.05318796,0.075339876,0.07858792,-0.0685792,-0.051098786,-0.065009065,0.11358779,0.007099383,-0.07756017,0.1054218,0.041352846,-0.062107705,0.005495175,0.022350159,-0.09994944,-0.0022977088,0.006132012,0.0029126005,-0.053911027,-0.07991487,0.0021772399,-0.053682487,-0.018368354,0.09369692,-0.013062993,-0.016552592,-0.02213587,-0.074601494,0.03185444,0.079662874,0.054932375,-0.02933699,0.04183768,-0.054870475,-0.08041059,0.036834393,-0.030767053,0.05075538,0.063437656,0.1613291,0.06763809,-0.0154295815,0.08257033,0.029617477,-0.13932845,-0.06177719,0.040183593,-0.048449885,-0.02976834,-0.002561813,0.016727226,-0.09919915,0.053420704,0.06741957,-0.13122705,0.09009876,-0.05755386,0.037306808,0.03463444,0.023459228,-0.01478864,0.09072955,-0.07640452,-0.031213617,-0.033259153,0.012923469
-0.057131026,0.029422747,-0.0679364,-0.20436683,-0.08172129,-0.0297876,-0.014573359,-0.026767353,-0.026224606,0.036506988,-0.06688718,-0.018533133,-0.04716489,-0.008348481,0.054594498,-0.05572945,0.0277124,-0.00027542948,-0.041532304,0.031232607,-0.04401668,-0.060513005,0.013268933,0.019832179,-0.010652328,-0.012728504,-0.015966138,-0.012516656,-0.06352505,-0.09011326,-0.045644745,-0.034557246,-0.018888222,0.08293269,-0.06196125,0.08006417,-0.036047734,-0.042787876,0.08681457,0.032129083,-0.01040783,0.022490768,-0.00283844,-0.021629546,-0.057229053,0.07210965,-0.091081694,0.12674694,0.19586743,-0.00084081304,0.027405187,-0.0855223,-0.047250174,-0.10667404,-0.03347037,-0.07232962,0.15234151,-0.024524724,0.02886252,0.071747705,-0.065003015,0.055826906,0.020378942,0.065014444,0.003107518,-0.075144105,0.032789867,0.09421925,-0.034415714,-0.027407479,-0.01628297,0.06806659,0.04096439,-0.07609044,-0.13075137,0.0005641356,-0.069898866,0.03844059,0.0381522,-0.022114143,-0.06411166,-0.019523203,-0.023326913,0.0072718346,0.0034751366,0.035762437,0.012606376,-0.0018982744,0.035459504,0.041002378,0.02378283,0.009775388,-0.051828373,0.04213033,0.057934124,0.056127634,0.13948697,-0.0018354543,0.031290054,0.08773474,0.0035182177,0.09636994,0.017914506,-0.05062397,0.0071637994,0.06590728,0.032405056,0.10969047,-0.052521024,0.04960874,-0.04056855,-0.044313755,0.03673661,0.1260024,0.012277238,-0.019362953,-0.16332291,-0.14580497,0.036398385,-0.021299843,0.08206292,-0.013002447,0.086579636,0.012171168,0.11618777,0.05878102,-0.0033599301,-0.057770085
-0.01587749,-0.044976052,0.03815607,0.10347296,-0.010151509,-0.03464028,-0.066933915,0.029751886,-0.030520616,-0.046649683,0.00482294,-0.022863274,0.12669846,-0.011208715,0.0042449106,0.036286477,0.09036797,0.12533593,0.018533932,0.09960966,0.011789172,0.009395929,-0.01560519,-0.119571246,0.012651697,-0.040619146,-0.005616412,-0.025164954,0.047539584,-0.041028086,0.034246076,0.111294456,-0.037787624,0.07938881,-0.08573493,0.0077659274,0.0063092876,-0.0038212647,0.025038006,0.05366927,-0.027569294,0.0044127456,-0.05390456,-0.038989887,-0.047810655,-0.046972975,-0.029522315,-0.053926077,0.05806451,0.03131593,0.11644055,-0.042294845,-0.035484932,0.011952898,0.02945771,-0.073036395,0.05621779,-0.1600853,-0.011768004,-0.017325746,-0.12815362,0.11903234,0.076315835,0.060493883,-0.001103195,-0.048751455,-0.056412943,0.06462572,0.09336366,-0.00022716812,0.065197915,0.016323157,0.05121528,-0.1355738,0.030553063,0.044349026,0.027968636,-0.005182707,-0.0495121,0.13239199,-0.1187995,-0.021747896,-0.013436144,0.06795626,-0.02889257,-0.09469062,-0.059166633,0.039660793,0.05761465,0.05228057,0.02325109,0.0041692923,0.041478127,0.011584313,-0.08345626,0.015883956,0.039121147,0.03204636,0.00086177944,0.06903224,0.0025194567,0.017456809,-0.05446218,-0.008365112,-0.16279873,0.00077047007,-0.092946485,0.025357565,-0.09754593,0.104121864,0.061896566,-0.031117003,-0.1145451,-0.039173014,-0.104464345,0.015754467,0.013154411,0.063224316,0.048976384,-0.038567215,-0.0039208857,-0.050601233,0.0041250116,0.022999493,0.036114782,-0.07174595,-0.013366205,0.0870389
-0.009124001,0.012601887,0.03513466,0.2921835,-0.01881013,0.008987271,-0.058013704,-0.045367472,0.027826687,0.039814122,0.0012736623,0.040236868,0.016781263,0.002338512,0.09313816,0.040435076,0.024601357,-0.07371531,-0.044614132,0.010800926,0.028450461,-0.051687524,0.027102094,-0.010212823,0.047027756,-0.03840929,-0.06707822,-0.02934442,-0.0061061257,-0.0020565225,-0.030925732,0.10845453,-0.030642109,-0.07121697,-0.022717139,0.05495489,0.13604583,0.043655816,0.07241862,0.029912552,0.0424558,-0.014957679,0.038752,-0.023966301,-0.0020212813,-0.0014763933,0.010927092,-0.08014221,-0.02775176,0.05783826,0.014394286,0.030530762,0.016075023,-0.082642935,-0.069659874,-0.023333617,-0.027366048,0.018012568,0.06859016,-0.06439426,-0.018764796,-0.014878613,-0.027885748,0.014995155,-0.009962476,0.045902073,-0.015409526,0.03872068,-0.015542676,-0.02721497,-0.07320508,-0.02547107,0.027516577,-0.0029071078,-0.06965362,0.03132358,-0.03551118,-0.0068907114,0.039606854,-0.01936279,0.13968958,-0.10984081,-0.08146503,0.020583525,-0.04518567,0.018934207,-0.017251838,0.005003657,-0.012935612,-0.037644222,0.051286694,-0.050587595,0.011464468,0.054248855,0.021482378,0.038214564,-0.03351602,0.009446553,0.04025379,-0.089449376,0.050754625,-0.018955002,0.0076887,-0.039532788,-0.021943312,-0.020189526,-0.04188846,0.027405951,-0.045006372,0.02440983,-0.052067578,0.062433656,0.08507732,0.11000199,0.05800472,0.103617474,0.019301554,0.04223886,-0.059910394,-0.04597062,-0.04653796,0.0012978602,0.060876235,-0.017944856,-0.13059947,-0.09357297,0.05628297,0.041024394
-0.041558355,0.047238715,0.009757607,-0.25088975,-0.10468028,-0.03827717,-0.037924767,0.01227686,-0.024282344,-0.045575716,-0.04957886,-0.010225859,0.038723893,-0.0478339,-0.009892544,-0.03441683,-0.004602355,0.073447585,-0.06821039,-0.085426085,-0.017147653,-0.09744922,0.07967999,0.08475472,0.03820609,0.068837486,-0.019363549,-0.022020007,0.06846126,0.01455885,0.006435656,-0.089251086,-0.04017934,-0.017121015,0.07646818,0.1656148,0.044999894,-0.005666369,0.11842383,0.025010858,0.014870721,0.070990086,-0.0030933467,0.02419288,-0.061042484,0.06318563,-0.026900658,-0.082770415,-0.047356464,0.07623337,-0.007864479,-0.09179367,-0.026156193,-0.037184294,-0.006712108,0.03479923,0.02839654,-0.03527862,-0.01066999,-0.04432647,-0.022408603,0.022754816,0.027531598,-0.056654066,0.06448259,0.01013655,-0.056489628,0.13070382,-0.028581338,0.012746439,0.033271432,-0.079824366,0.08812963,0.02104505,0.0058043506,-0.015003819,0.041608483,-0.003846182,0.005804821,-0.032084994,-0.019325554,-0.05739387,-0.00018985901,0.010781509,-0.052607358,0.003982362,-0.022176214,-0.07840226,-0.082571484,0.099860765,-0.03509595,-0.017203905,0.0694661,-0.008106064,-0.0012721834,-0.04569577,0.0027417075,0.04427956,-0.019733295,0.027282072,-0.1264132,-0.030583669,-0.03909525,-0.020994674,0.04230612,0.0013796068,-0.07132379,-0.013290711,-0.044529468,-0.050745577,0.07127877,0.07150603,0.05268006,0.13102089,0.107602425,0.049266577,-0.08438109,-0.11005357,0.026636828,-0.08673061,0.02433211,-0.020361386,0.0045484025,-0.03801135,0.10975189,0.017867101,0.017617587,0.08890013
0.10741596,-0.04814536,0.012792486,-0.04625188,-0.013806131,0.060084235,0.025621574,-0.09134433,0.018945316,0.03366529,0.122019194,0.10741507,-0.04768957,-0.054959986,-0.004225385,0.004738687,0.119887345,-0.020048834,-0.1329367,-0.037789445,0.09481627,-0.06462297,0.033576984,0.057525642,-0.057470232,-0.14506646,-0.0032966612,-0.059876397,0.025689626,0.038393956,-0.010069327,-0.06172691,-0.026707588,0.007436303,0.12027106,0.112710394,-0.0025329222,0.0425921,-0.020371698,-0.06554697,-0.06689393,0.046026353,0.057051152,0.062827446,0.08090513,-0.106357545,-0.038250044,-0.04545358,0.045917768,-0.0241603,0.08176498,-0.07924949,-0.021943169,0.16900207,-0.07943701,0.06594455,-0.033141162,-0.0051128236,0.13366005,-0.0317046,0.0015797593,0.032517567,0.0003138916,0.09368479,-0.03535076,0.08629522,-0.061612602,-0.18286398,0.027852822,0.018166248,0.012902988,-0.102308854,0.021601425,0.09468319,0.021625843,0.022337062,-0.07383962,0.09673428,-0.062267672,-0.12102263,0.08898538,-0.047490507,-0.08490164,-0.020253016,-0.006296133,-0.067230694,0.00774093,-0.07992368,-0.20577422,0.019990727,-0.09287169,-0.059848808,-0.07910111,0.0034530216,0.08711433,-0.017140752,-0.07001886,0.011406423,-0.02088841,0.0077441675,-0.072757974,0.12489672,-0.025251757,0.055421203,-0.06981753,0.0036158457,0.043177545,0.047304083,0.025272211,0.07255287,0.025163284,-0.042360153,0.08446507,-0.04813781,0.12296335,-0.14367706,-0.12550567,0.04454924,-0.1308527,0.045242425,0.00129006,0.06694025,0.017479546,0.0582887,-0.0011968574,-0.02969392,0.036602054,0.061870944
0.005563082,-0.045044564,0.065767564,0.13861269,-0.026964966,-0.068563014,-0.054946877,0.08645075,0.056890875,-0.06744425,0.096243076,0.00879956,-0.08449048,0.095261164,-0.07008827,0.013751705,-0.04118445,-0.049108148,-0.0017077691,0.08828976,-0.05625594,-0.032780774,-0.025145112,-0.034848258,-0.011585744,-0.0022578891,-0.018657137,0.025520299,0.039507326,-0.039929077,-0.07391037,-0.035732605,0.058602143,-0.010674629,0.11407223,-0.005499554,-0.014499581,0.03831646,0.07503189,-0.124341264,-0.051023144,0.0151702,-0.037065864,-0.043538425,-0.07203055,-0.04914309,-0.008049568,-0.10467348,-0.076461546,-0.061095674,0.029797127,-0.020345215,-0.058041524,-0.048389893,0.069118835,-0.009597123,-0.0206888,-0.020604083,-0.02626305,-0.017601203,-0.07620273,0.0051424406,0.044027496,-0.05508053,-0.046681963,-0.04705959,0.03315563,-0.0879284,0.022658242,0.023409232,0.024525769,-0.13965729,-0.091691636,-0.030510405,-0.016642632,0.05154043,0.09302172,-0.054479305,-3.0534582e-05,-0.036907017,0.085315034,-0.032045003,0.019397829,0.016233385,0.048883885,0.049304143,0.042401306,0.11246032,0.035573073,-0.04119235,-0.0069689676,0.043558292,-0.0103084175,-0.0069141,0.082906894,-0.043328132,0.08550494,0.025853235,-0.08522127,-0.033784036,0.059250254,-0.083713,-0.02614009,0.08723593,0.020074248,-0.021405818,-0.030765867,0.09251623,0.024344968,0.00043336092,-0.020192709,0.0704717,0.12831916,-0.03252319,-0.103956975,0.03436437,-0.013688828,0.07878055,0.0057427986,-0.05701799,0.0036280653,0.022022218,0.062621556,-0.03181956,0.040298823,0.044868827,-0.06899076,0.1368434
0.059460085,-0.014417916,-0.024495797,-0.39609203,0.015229778,-0.023736132,-0.0166762,0.03457041,0.06435999,0.0027525986,0.10991915,-0.012961435,0.006524377,0.0013414111,0.06871601,-0.0052217375,0.06698999,-0.13083528,-0.026046194,0.0308012,-0.018023456,-0.022748128,-0.026592357,-0.03363958,-0.064347304,-0.027262652,-0.007910855,0.07328427,0.056874644,0.071283594,0.012850436,0.059302192,-0.06562637,0.15905222,0.016497452,-0.05779549,0.005464797,0.0655883,0.07827379,-0.00040777258,0.0038122486,-0.0041886447,0.0062100748,-0.053002417,-0.043520305,0.0020648194,-0.0385104,0.14820826,0.16624811,-0.029449062,-0.09978838,-0.087958604,-0.10266529,0.041252006,0.0036225815,0.014558913,-0.04290186,0.030759139,-0.057033457,-0.118343584,-0.01642383,-0.011889656,-0.054901447,0.028668119,-0.019071419,0.034561526,-0.020531913,0.04573627,0.038370665,0.12967601,0.06729152,0.0072147194,-0.026847528,0.050176498,-0.037432585,-0.08752149,-0.026725875,-0.035792287,-0.0056470833,-0.060805026,0.05843472,0.0061065275,-0.07421879,-0.014312689,0.07312155,0.020896133,0.0014564602,-0.034070004,-0.088228144,0.05553059,-0.005838314,-0.13552746,0.031849023,0.021820167,-0.014014956,0.0819541,0.011742915,0.0082923295,0.05376557,0.0084435865,-0.09641864,-0.00028185805,-0.059402417,-0.079547934,0.009273925,0.037295286,-0.10234129,-0.051598474,0.017096974,-0.094392195,-0.052100282,-0.005390755,0.091974095,-0.0035208864,-0.012439408,0.0033642782,-0.053206403,-0.029968131,0.026235392,-0.04810082,0.023145324,-0.024317725,-0.053510636,0.009244914,0.07061511,-0.07987322,-0.007033515,-0.0410295
0.012225562,0.007160907,-0.08141103,-0.17159401,-0.0036381106,0.022631384,0.07513296,-0.07548003,-0.0369723,0.0039016462,-0.009740339,-0.05232502,0.019551814,0.07495159,0.0030035095,-0.1265369,0.091522455,0.025072334,0.11631477,-0.00012980543,-0.005607139,0.04778697,0.0974928,0.11110087,0.008030076,-0.06410916,-0.029006688,0.028264733,0.08017428,-0.05091494,-0.0042701093,-0.18196693,-0.018678488,-0.018473506,0.05923625,-0.10169403,-0.06378718,0.05261315,-0.19863814,0.025614794,-0.04265727,0.06915797,-0.04342401,0.031896755,0.06458366,0.0046497765,-0.00510111,0.098433994,0.105981015,0.005721149,0.0910436,0.04715732,0.043931197,0.08224363,0.051007543,0.1456522,-0.06432053,0.0072076353,-0.017667094,-0.030437276,0.03159988,-0.097825065,-0.09957264,-0.096160755,-0.007954184,-0.031052317,-0.037687346,0.046159692,0.06676171,-0.18410051,0.07848847,-0.010708582,0.07378882,-0.02971002,-0.020612637,-0.02111698,0.041465886,-0.037293237,0.105333485,0.048238456,0.036310352,-0.042359952,-0.041505296,-0.13888825,0.10162839,-0.10081417,-0.04416034,0.028074574,0.06881295,0.014257422,0.055816814,0.11102087,0.02875564,0.08030793,0.12029368,0.010074235,-0.0055539855,-0.08963958,0.08430323,-0.047291752,-0.0033357271,-0.037005093,0.009994039,0.10391161,0.04565586,0.016664537,0.07610951,0.017838573,0.019729935,0.031902373,-0.049726777,0.046155427,-0.027131071,0.053010743,-0.08343144,-0.18259296,0.050028678,-0.09161218,0.12100732,0.047900498,0.022760216,0.025976455,-0.06432682,-0.07530898,-0.10849778,-0.091919765,0.044840474,-0.08914943
-0.025358466,0.025954442,-0.0056946604,-0.38578662,0.05227304,-0.035930976,0.023892801,0.026075585,-0.011436005,-0.028565992,-0.027228508,-0.0066057714,-0.016245827,0.008331832,-0.026747236,0.09207474,0.02272255,0.021110427,0.06624167,-0.006237841,0.05044323,0.025302347,-0.03103533,-0.024652297,0.084090635,0.015623967,-0.054010708,-0.046993706,-0.015614086,-0.07815125,0.02580195,-0.0071988646,0.02111049,-0.018174866,0.014767576,-0.0050956844,-0.09548389,-0.033613347,-0.029289257,-0.010368514,-0.03204905,0.07254596,-0.06778147,0.010452017,-0.04813434,0.04533341,0.05612121,-0.11126746,0.073092215,-0.060139783,0.09425154,0.043688837,0.08265278,0.048249364,-0.05584236,-0.105529994,0.070082866,-0.0029958226,-0.006820651,0.07072071,-0.10107531,0.0068381377,0.10061901,-0.04727581,-0.043118693,0.14513913,-0.076475315,-0.03347482,0.052796666,0.025365481,-0.05332748,0.047364708,0.05067409,-0.15477218,-0.04849329,-0.029082896,0.035489634,-0.04187357,-0.021217426,-0.020051792,-0.024970079,0.00879401,-0.065458134,-0.023820655,0.072329864,-0.02750285,0.0068163164,0.004235146,-0.06645067,0.0964545,-0.03531999,-0.0041464106,0.046456542,0.0136235105,-0.027242476,0.012868595,0.04726429,-0.001205835,0.04245259,0.07011467,-0.040874295,-0.053475738,0.005721045,0.004164145,-0.09868813,0.027451096,-0.062644206,-0.06255021,0.02504068,0.06249065,0.035465613,0.07131274,0.036902424,-0.0018427996,0.07498968,0.016823074,-0.051476818,0.058433514,-0.032085396,0.1037318,0.079167046,-0.005367738,0.01716988,0.040785417,0.008228385,0.031124635,-0.063438155,0.024145989
-0.032909703,0.05261055,0.023676837,0.07607952,-0.08618419,-0.017548617,0.022423422,0.021642854,0.028822469,-0.055926602,-0.006173841,-0.06598664,0.043739118,-0.11518009,0.049711477,-0.06691386,0.021337759,-0.069441475,-0.15352528,-0.051682528,0.031294156,0.00469163,-0.023088811,0.01518357,-0.029344698,0.082705684,0.016530128,0.027855024,-0.072125204,-0.07199991,0.06145288,-0.0020603673,-0.001262598,0.10761425,0.03731516,0.055984415,-0.031897318,0.029819535,0.0073939958,0.045986544,-0.046106465,0.037324328,0.09098099,-0.011069923,0.028496912,-0.06324349,-0.07063057,0.0023836032,-0.06995588,-0.010422526,-0.06515596,-0.01495718,0.023282487,0.07779789,-0.013371103,-0.06145427,0.012663815,0.0910463,-0.06246085,0.013102686,0.031758655,-0.0016703526,0.06375683,-0.052254774,0.084028274,-0.045729425,0.15561742,-0.1017206,0.085194856,-0.042201784,-0.025137467,-0.009458905,0.03945547,0.074801825,-0.006114744,0.0119298715,-0.035776403,-0.016446568,-0.043536644,-0.09025693,0.00906617,-0.041970152,-0.013357652,-0.121836945,-0.039210882,0.019010758,0.024519382,-0.03610948,0.07772547,0.067079425,0.060041208,0.033307094,0.017661776,0.07729847,0.08657345,-0.011160542,0.07340725,0.001571687,0.006397511,-0.004890713,-0.15479426,0.066952996,0.014924553,-0.044074375,-0.19336496,-0.04085707,-0.05796758,-0.097596586,0.12873031,0.046564016,-0.013310957,-0.052891493,-0.05049511,0.0035651948,-0.037375182,0.04208298,0.12450034,-0.07023093,0.03432647,-0.023796894,0.03679,0.061900068,-0.055615954,0.13486727,0.072321884,-0.01462536,0.05304221,-0.04964745
-0.10481248,0.019763071,-0.020765778,-0.41156873,-0.0042802743,0.08864741,0.019541126,0.051154725,-0.00629561,0.062167317,-0.06157981,-0.01458704,0.08451855,-0.024998581,0.0021954242,0.021657353,0.04378201,-0.019821024,-0.028452905,-0.020418156,-0.0039376672,-0.020141039,-0.024759121,-0.007721331,-0.060911965,-0.024377234,0.066999674,-0.04226759,-0.0004775285,0.039172534,-0.064808,-0.15230684,-0.046382923,0.05424899,0.0059947,-0.0055121076,-0.0068546366,-0.008808531,0.033788946,-0.13221796,-0.06447698,0.0038651577,0.10278528,0.007465702,0.05246001,-0.07742471,0.015753575,0.021996344,0.03943752,-0.030042907,0.05781411,-0.013142645,0.042359293,0.037561137,0.028550304,0.014743715,-0.036185037,-0.0042086085,0.02474629,0.049109958,-0.06558106,0.09163183,0.0840716,0.087345436,0.066175066,0.039566055,0.065382846,-0.021837277,0.013321379,0.065290295,0.029881246,0.02995815,-0.01707071,0.0028471802,-0.025170509,-0.0032016318,-0.043419268,0.03586283,0.021445444,-0.08150102,0.012416102,-0.012893227,0.08641924,-0.010003878,-0.02502336,0.013734279,-0.021425646,0.05428513,-0.09656546,-0.07081823,0.01975973,0.0006230681,-0.046666276,-0.025330633,0.023271604,0.05519306,-0.033615023,0.045102306,-0.04647705,-0.009093089,0.008103828,-0.025806868,-0.029437436,-0.034327313,-0.14566973,0.0118111735,-0.03530493,0.04717799,0.024224922,-0.03458408,-0.030472193,0.043939278,-0.021330103,-0.056370128,0.033130243,0.048194457,0.025277672,-0.07413873,-0.06949045,0.044954613,0.012669171,-0.027749704,-0.00930899,-0.047854666,0.07337781,0.11049215,0.0020831123,-0.079141125
